hub_id,0,1,2,3,4,5,6,7,8,9,10,11,12,13,14,15,16,17,18,19,20,21,22,23,24,25,26,27,28,29,30,31
IND000000AAL,-0.35824215,-0.416623,0.15822677,0.07851441,0.093521684,0.20392057,-0.27955416,0.41064137,-0.14718969,-0.13347864,0.030925054,-0.15873393,0.21558316,0.01127585,0.06721087,-0.2633159,-0.08737284,-0.21660493,0.0022729784,-0.17291974,-0.02215197,-0.22988231,0.23867401,0.17405011,-0.06679964,0.02653163,0.17610191,0.14504251,0.25708044,0.1577963,-0.5676514,0.14684032
IND411033AAA,-0.0135089075,-1.2578069,0.4476523,0.09458954,0.5010941,0.8222054,-0.75318396,0.33238196,0.7334132,-0.43308386,0.17544623,-1.0799307,0.26383412,-0.36699802,-0.3269189,-0.743423,-0.3731398,-0.5480039,-0.31392333,-0.06838326,0.8597207,-0.26173398,1.0301107,0.41039005,-0.11308411,-0.32865494,-0.02713335,0.26312608,-1.1037852,0.5258288,-1.4588481,-0.44512942
IND000000AAS,-0.06132509,0.4957163,-0.3303224,-0.34038073,-0.08165864,-0.057198424,0.15405913,-0.034172595,-0.015260965,-0.0021003783,0.2801337,-0.04421258,0.059933044,0.2140967,-0.1538624,0.011062909,0.13485153,0.23691443,0.33555344,-0.16422033,-0.23121935,0.22344899,-0.36308235,-0.032239944,0.21965119,0.17527685,0.19204102,0.049275383,-0.03658276,-0.35551754,0.5057503,0.11682841
IND783370AAC,0.017202847,0.27650243,-0.28601,-0.36445028,-0.10124687,-0.15190211,0.07813139,0.050867934,-0.06613743,-0.017697476,0.082458176,-0.056439728,0.07574215,0.18884036,-0.30033723,0.081376925,0.107778944,0.18523201,0.29713526,-0.21400943,-0.18470812,0.19343854,-0.07649545,-0.05640041,0.23804773,0.10911955,0.15499893,-0.0030350164,-0.17597133,-0.2996562,0.2982304,-0.033900887
IND000000AAZ,-0.019654296,0.27141765,0.0031995997,-0.08765276,0.020326741,0.069134355,-0.052106433,-0.17998974,0.39846244,-0.020551652,0.37195188,-0.3504763,0.1956582,0.084938586,-0.1128677,0.019599278,0.105059385,0.3291307,-0.0003755167,-0.17295483,0.09800732,0.24360314,-0.2793181,0.135386,0.1785971,0.06022975,-0.021981463,0.13944404,0.051208973,0.076046504,-0.04473041,0.060651697
IND444203AAA,0.07370886,0.5835894,0.0030495152,0.21731183,-0.30376402,0.017504655,-0.09876129,0.03931783,0.5746324,-0.29805112,0.13097323,-0.026170209,-0.1206319,0.29282936,-0.2486117,-0.042168885,-0.22285631,0.28916857,-0.47446203,-0.018174097,0.17436302,0.42878324,-0.40020147,0.10229266,-0.2896693,0.21249849,-0.30980766,-0.0058362186,0.28535968,0.16129509,-0.2032872,0.20762153
IND444303AAA,-0.03067629,0.5715126,0.019406661,0.16498968,-0.40694705,-0.044112697,-0.10873924,-0.2183598,0.36392054,-0.07411447,-0.01273109,0.013898075,-0.11758754,0.30896676,-0.014786512,0.10414703,-0.23986939,0.2691568,-0.29997692,0.0076777153,0.11126209,0.4640366,-0.56201714,0.091724455,-0.14374283,0.15412128,-0.28580678,-0.020507798,0.26760906,0.18673342,0.007403344,0.30526462
IND000000ABA,-0.10895696,0.28958166,0.18218762,0.15165117,0.10331683,0.053593718,-0.08316375,-0.38696355,0.1398852,-0.011542998,0.0027290247,-0.42685896,-0.0070447624,-0.31091946,-0.13708931,-0.16475484,-0.09906186,-0.026836464,-0.28298256,0.27746567,0.03066558,-0.120550305,-0.3625747,0.15783396,-0.12630822,-0.09745573,-0.05556182,0.08737382,-0.32919538,0.2844773,-0.05736607,-0.17902787
IND683565AAA,0.21251267,0.1517373,0.19292364,0.107308924,0.14165118,0.21188816,-0.1882808,-0.08905597,0.17493956,-0.2158422,0.07683425,-0.119908035,0.042919576,-0.28633672,-0.27445078,-0.22220872,-0.06356706,-0.11957857,-0.17745791,0.31980535,0.33384675,-0.123998344,-0.34147516,0.07208685,-0.23814201,-0.02225884,-0.22074328,-0.08768608,0.051420167,0.3972614,-0.1301576,0.03331241
IND000000ABD,-0.009468838,-0.4953783,-0.082129955,-0.028454646,0.09884259,0.28075224,-0.043652434,0.18382056,0.07342544,0.032800227,0.26488855,-0.39266896,-0.1499769,-9.615719e-05,0.0021108836,-0.12351324,-0.14852878,-0.015016481,0.007451266,-0.24153005,0.227434,0.06280021,0.4194264,0.10459796,0.36811307,-0.28442103,0.025204243,0.23649901,-0.87553716,-0.16714725,0.044141218,-0.1896837
IND562132AAA,-0.32179394,-0.6855968,0.5223963,0.55373186,0.008705653,0.9065968,-0.7204399,-0.5992871,0.5421994,-1.1335008,0.3806244,-1.3388927,-0.06349432,-1.4454466,0.47924358,-1.2163205,-0.5474386,-0.8789458,-0.68408656,0.45455724,0.591806,-0.8573707,0.8462128,0.17212191,0.44107267,-0.7291279,0.09201199,-0.25716338,-1.7843066,0.36274117,-0.8624261,-0.7809019
IND000000ABG,-0.078505255,-0.117030606,-0.092597246,0.20060821,0.10311725,-0.12151543,0.039508596,-0.026582412,-0.32816872,0.24715662,-0.22366482,0.26581278,0.020701312,-0.062118888,0.34142604,-0.029280443,0.051452674,0.08498075,0.40626445,0.091673665,-0.28784716,-0.14621162,-0.029776022,-0.052429795,-0.050794348,0.14874947,0.06285745,-0.11029804,0.7065565,0.079368845,0.11159907,0.024608877
IND501359AAF,0.11642386,-0.49904472,-0.1648367,-0.16271289,-0.17641637,-0.37619382,0.22219318,-0.1323516,-0.6420101,0.23517516,-0.41579708,0.28872365,0.041570827,-0.27897593,0.124387905,0.07519497,0.029955685,-0.13851732,0.1758931,0.3583162,-0.2977658,-0.22539932,-0.11930569,-0.072005,-0.08035513,0.19466043,0.21491358,-0.30250987,0.69192266,-0.026440967,-0.14554709,-0.082498826
IND000000ACA,0.08275545,-0.6210244,0.34673974,0.009789452,0.32882768,0.4017866,-0.28120175,0.45919266,0.70881224,-0.03222194,0.17030588,-0.5322417,0.30791092,0.27533773,-0.555657,-0.022464916,-0.123711765,0.034486495,-0.02127771,-0.05180365,0.75256157,0.21109748,0.9049664,-0.0031959303,-0.23390993,-0.1351396,-0.26465753,0.38675407,-0.52867174,0.45065212,-0.77450144,-0.3859262
IND140406AAA,0.015698262,-0.4214298,0.14674851,0.024600245,0.09487932,0.053193077,0.030369928,0.5452818,0.0983396,0.024073316,0.11286564,-0.061660707,0.2995196,0.04292871,-0.4222198,-0.14161606,0.123387314,0.03266391,0.06311106,-0.029445909,0.0881308,-0.06915258,0.39860505,-0.16729164,-0.29927632,-0.105836265,-0.16398853,0.007366948,0.2117568,0.27860653,-0.46636084,-0.051872768
IND142001AAB,-0.08847306,-0.70241505,0.3174033,0.28550854,-0.10246416,0.09653054,-0.10746204,0.5286097,0.18830416,0.29821393,0.011158249,-0.061191045,0.16955435,-0.002957806,0.17095633,-0.09902723,0.1505716,-0.1539163,0.32962054,-0.023028709,0.17328705,-0.049431253,0.027543142,-0.21194142,-0.26751766,-0.33826125,-0.20657691,-0.061131813,-0.09089784,0.35470557,-0.5024642,-0.010898456
IND142401AAA,0.12723127,-0.043291196,0.16743243,0.1678769,0.06960145,0.17783731,0.060440905,0.35135219,0.32505316,-0.17354752,0.16363586,0.03014797,0.2975572,0.13866001,-0.48163813,0.00597851,0.02624844,0.101984836,-0.12728576,0.15801626,0.32556218,0.16811481,0.45565897,-0.08899295,-0.3798496,-0.014414832,-0.22556067,-0.0027592843,0.31006408,0.38370508,-0.459081,-0.09806536
IND143001AAA,-0.035239913,-0.598653,0.2712708,0.17637333,-0.03335006,0.039444704,-0.0893479,0.6498866,0.32607707,0.18161446,-0.019146193,-0.12642525,0.22110187,0.09571485,-0.05311206,-0.024203159,0.11379706,-0.03832476,0.2588168,-0.04962004,0.32221112,0.013138131,0.25472412,-0.16318,-0.33244136,-0.22466381,-0.21216266,0.051651824,-0.111853786,0.27873442,-0.55744326,-0.030159779
IND144001AAB,-0.048373427,-0.6197195,0.18485834,0.01233539,0.15471137,0.20312583,-0.23707102,0.7210461,0.47044793,0.21119522,0.07194512,-0.25520068,0.22266227,0.3180274,-0.34748793,0.05873365,0.119947426,0.012004182,0.056190632,-0.05648899,0.4532394,0.10734362,0.55709016,-0.08079718,-0.30266052,-0.115438014,-0.16746284,0.351192,-0.35630673,0.20775375,-0.58460903,-0.106898755
IND144514AAA,0.015375938,-0.41259816,0.1528328,0.04876301,0.083653525,0.0788991,-0.00829328,0.5543259,0.12663226,0.014906073,0.10778892,-0.06592095,0.31225365,0.052453645,-0.45658973,-0.12099254,0.14044586,0.048931435,0.060499713,0.0013162345,0.105505265,-0.06088447,0.42146444,-0.18758342,-0.35487872,-0.09995564,-0.17389199,0.043506153,0.20012537,0.31317925,-0.52306086,-0.07600438
IND147301AAA,0.12158612,0.0047909617,0.17589906,0.1752198,0.07371392,0.16058157,0.105048776,0.3055094,0.29158804,-0.21581028,0.14916956,0.053713292,0.30781513,0.13343406,-0.4682697,0.019133188,-0.00090479106,0.1056461,-0.15994363,0.15981029,0.3163394,0.14773144,0.41776738,-0.091687515,-0.3782462,-0.059064478,-0.21161692,-0.05187499,0.35384184,0.41673377,-0.43887496,-0.10214259
IND152026AAA,-0.037807863,-0.39098492,0.17545617,-0.054351963,0.22456032,0.22365268,-0.11628392,0.5590996,0.21207389,-0.010383226,0.13824128,-0.20451808,0.29174477,0.13728267,-0.4699651,-0.13038997,0.09125021,-0.001864776,-0.063971,-0.060993794,0.2442534,-0.105912805,0.5169294,-0.070830435,-0.30412716,-0.12166906,-0.14274544,0.23115793,0.14529982,0.37425882,-0.6965025,-0.13244306
IND160002AAC,-0.0110701695,-1.3483831,1.3047599,0.7171097,0.035917602,0.9934895,-0.56669015,-0.007785119,1.5846033,0.46449402,0.39514154,-1.114997,0.02495879,-0.014899068,0.05413772,-0.56396073,-0.11716188,-0.6487114,-0.01690752,-0.1243394,1.5126312,0.12582651,0.43460235,-0.03867332,-0.2620052,-0.792019,-0.75936997,0.10902254,-2.351243,0.502392,-1.2541579,-0.8158532
IND000000ACB,-0.46769923,-1.0298504,0.56625426,0.7857324,-0.19134745,1.2437599,-0.8657781,-0.9909259,0.72759545,-1.4407996,0.36274254,-1.5960432,-0.29984358,-1.9802513,0.8628013,-1.6791753,-0.6936598,-1.4469005,-1.034864,0.9012208,0.61621475,-1.0144653,0.74475574,0.048093148,0.51904285,-1.1412197,0.34195822,-0.53842175,-2.4598274,0.61298776,-1.0152965,-0.7718424
IND000000AEL,-0.25007853,0.24263081,-0.34261483,-0.11574882,-0.22106303,-0.07505292,-0.33838353,-0.17050275,-0.16580284,-1.0148488,-0.25888008,-0.21031523,-0.007134389,-1.0294049,0.8199305,-0.4883472,-0.6887257,-0.8986883,-0.34088364,0.4061908,-0.22393271,-0.41432485,0.35709193,0.063569784,0.35532653,-0.580029,0.47232628,-0.37983122,-0.34176323,0.72347975,0.018948734,0.36942822
IND110024AAA,-0.14337681,0.18932465,0.20941347,0.02098585,0.107210934,0.17343372,-0.05606368,-0.03688234,0.13656062,-0.2760241,0.033362918,-0.32280293,-0.13886313,-0.21153213,-0.07141554,-0.28761226,-0.10930654,-0.46112484,-0.27855897,0.038926847,0.13540962,-0.28811276,-0.1650194,0.09256929,-0.06669289,-0.23779434,0.20635283,0.14137828,-0.5856355,0.04767488,0.0005399883,0.0407953
IND110030AAD,-0.30548283,-0.14536045,0.16241595,0.043339282,-0.14833242,0.2840631,-0.4861033,-0.38798302,-0.15726875,-0.36739743,0.15140352,-0.372344,0.124109395,-0.57130414,0.48881224,-0.2630728,-0.7159577,-0.34068984,-0.14569053,-0.082528695,0.19387327,-0.088785246,0.4285451,0.4231395,0.6626033,-0.32806206,0.2771389,-0.17825061,0.040575042,0.4446311,-0.17531249,-0.08726472
IND110037AAK,-0.28073388,0.21885844,-0.29900968,-0.07577276,-0.22429758,-0.043775916,-0.36077014,-0.21258467,-0.19069463,-1.0515416,-0.24573785,-0.27823558,-0.012878064,-1.0266497,0.7535186,-0.5236916,-0.72382015,-0.9296595,-0.36218065,0.43757847,-0.1695238,-0.43094075,0.3852378,0.12597376,0.35667688,-0.5559113,0.5121989,-0.36217356,-0.3422204,0.6916161,-0.052280545,0.31147516
IND110043AAA,-0.07002349,0.13219854,-0.14720258,-0.19814162,0.13842642,0.060014907,-0.119366944,-0.066480294,0.09029135,-0.48995388,0.071914166,-0.5157117,0.02095829,-0.5277428,0.10751563,-0.3976907,-0.31818858,-0.37215889,-0.28702587,0.1511859,0.02670294,-0.3076858,0.18561058,0.123102665,0.23420075,-0.31413674,0.2378626,0.019918934,-0.55720973,0.3164563,-0.005484447,0.12703179
IND110043AAC,-0.23132837,0.28788197,-0.30237,-0.10424709,-0.19510679,-0.073863715,-0.29245013,-0.18571188,-0.09974003,-0.9752377,-0.2606805,-0.2206811,-0.024362478,-1.0427504,0.8425814,-0.46885177,-0.6681965,-0.8677279,-0.32489428,0.36107194,-0.21769312,-0.40936816,0.24726023,0.014754534,0.33114636,-0.61148125,0.3887093,-0.37323114,-0.42501894,0.73302877,0.08717036,0.3748759
IND110052AAA,-0.22870106,0.28354257,-0.34427243,-0.13938087,-0.19785026,-0.09693843,-0.3114434,-0.16245364,-0.12645751,-1.0097864,-0.29268664,-0.2118443,-0.020836674,-1.034368,0.8338637,-0.47827268,-0.69213957,-0.8874545,-0.33851194,0.36010176,-0.22456709,-0.40567663,0.30963346,0.029743671,0.34366563,-0.593006,0.40913814,-0.37582132,-0.39000824,0.73112875,0.06258869,0.37108243
IND110064AAA,-0.21909967,-0.069226556,0.26473573,0.046061367,0.15387541,0.23088416,-0.19446689,-0.17103805,-0.09711048,-0.30053788,-0.085562035,-0.26816475,-0.15129296,-0.4737624,0.2746211,-0.31345385,-0.13099027,-0.65016377,-0.30502796,0.19688205,-0.030975193,-0.4733655,-0.12726972,-0.010695279,0.0265082,-0.35975784,0.31075466,0.04315038,-0.5191156,0.2866168,-0.05708185,0.09341879
IND110085AAB,-0.09415639,0.08194123,0.2944034,-0.08755957,0.4864437,0.39741328,-0.028120354,-0.118141875,0.17269018,-0.008245308,0.20904739,-0.50605786,-0.02442011,-0.2323849,-0.29696852,-0.15359183,0.08921902,-0.19020963,-0.32584983,0.08907716,0.21325217,-0.4058573,-0.31814253,-0.017326057,-0.07349259,-0.26196337,0.11606941,0.29393068,-0.60409606,0.19221213,0.027374133,-0.049059115
IND110092AAC,-0.08526428,0.15524735,0.19692951,-0.06900799,0.28114784,0.30590552,-0.07776427,-0.11884572,0.1542671,-0.22926818,0.101895295,-0.37422866,0.0015219292,-0.42376953,0.11821239,-0.26683772,-0.074494995,-0.31519946,-0.24555333,0.14631513,0.099915035,-0.32946992,-0.3077766,0.04439351,-0.014384052,-0.24283782,0.15139386,0.09156631,-0.40205276,0.2773776,-0.0055280477,0.10668213
IND110095AAB,-0.2526443,0.26726022,-0.291865,-0.08154106,-0.21883044,-0.05366966,-0.3083558,-0.18754183,-0.12808853,-0.9391173,-0.22751701,-0.18968713,-0.019982744,-1.0196832,0.8388617,-0.447086,-0.6397821,-0.8700298,-0.31446794,0.38421613,-0.23494092,-0.39973837,0.23384628,0.019598305,0.31891555,-0.6179858,0.4218466,-0.3682391,-0.39144346,0.7222708,0.09593511,0.39515722
IND121002AAB,-0.2953186,0.21445453,-0.27762705,-0.04716313,-0.24850994,-0.030987948,-0.3588147,-0.21170579,-0.19944668,-1.0074865,-0.21395022,-0.24345222,-0.008647915,-1.0100352,0.77212954,-0.49037382,-0.69175833,-0.9101577,-0.34052077,0.44344324,-0.17594299,-0.41857302,0.3470104,0.122932136,0.35020256,-0.5666818,0.52811897,-0.3659807,-0.31011346,0.68304044,-0.02957359,0.33897465
IND121004AAB,-0.07452187,-0.72421193,0.31701043,-0.09386754,0.27902234,0.5379622,-0.40896255,0.19553228,0.35301173,-0.1080198,0.27296457,-0.7790431,0.17226183,-0.03143249,-0.38426864,-0.22124745,-0.1665379,-0.24581933,-0.17611223,-0.099834405,0.51548076,-0.08990124,0.6929713,0.27481982,0.095379025,-0.21987626,0.1302411,0.34403917,-0.62396425,0.3012011,-0.71175396,-0.2569026
IND122001AAA,-0.05756229,0.17414394,0.0565304,0.024992317,0.1774872,0.3273728,-0.0034759343,-0.5570731,0.25871307,-0.3686063,0.33772224,-0.58924294,-0.02441261,-0.65013254,0.3306343,-0.37121367,-0.2816883,-0.23890415,-0.2499572,0.26987365,0.15216133,-0.20559606,0.04679176,-0.037635565,0.36836165,-0.24668196,0.12726045,-0.06597745,-0.7200831,0.32696062,0.318753,0.04846248
IND122015AAC,-0.2532432,0.291494,-0.35506374,-0.14149511,-0.26396593,-0.13453814,-0.31292808,-0.13700333,-0.14815515,-0.99398243,-0.31426793,-0.13039389,-0.019566193,-1.0269064,0.9044312,-0.44072154,-0.68791175,-0.8861025,-0.29753458,0.35056973,-0.25370017,-0.37314713,0.29978245,0.02418989,0.3538505,-0.6001051,0.4300284,-0.40589383,-0.30806747,0.7251876,0.09785545,0.41426188
IND124103AAA,-0.25484842,0.32778996,-0.18816829,-0.05834055,-0.24679646,-0.09718749,-0.36675197,-0.17967243,-0.14540678,-1.0172629,-0.3280806,-0.33820486,-0.0054852087,-1.0608289,0.7801302,-0.44434342,-0.8320198,-0.83691275,-0.29243797,0.25404158,-0.048594505,-0.32596907,0.17659807,0.19163865,0.3991378,-0.5273805,0.30872,-0.34128985,-0.29147592,0.6438511,-0.063257694,0.28934574
IND124112AAA,-0.23259485,0.36868876,-0.14214048,-0.051255167,-0.19180483,-0.08682427,-0.33870003,-0.19771922,-0.098315,-0.97939825,-0.32509977,-0.39063066,-0.02063642,-1.0515754,0.7391902,-0.43635848,-0.8260845,-0.8070658,-0.29827374,0.20742849,-0.01540935,-0.32002968,0.08433971,0.17194146,0.37417233,-0.53043056,0.22126645,-0.30110332,-0.37195238,0.6342808,-0.030900866,0.26467308
IND125001AAA,-0.08728059,0.3965357,0.31734735,0.07376523,0.41433072,0.43733782,0.054247547,-0.51008946,0.43358198,-0.2792682,0.21106265,-0.7748771,-0.076433994,-0.29460463,-0.251643,-0.22847411,-0.011832498,-0.0768718,-0.40167636,0.08874073,0.30917484,-0.26239744,-0.405931,-0.09531318,-0.04943669,-0.23973854,-0.020100757,0.28487226,-1.0227818,0.14529634,0.11112758,-0.19594997
IND125005AAA,-0.07234852,0.47322634,-0.03999445,0.05514751,0.16455048,0.10868779,0.008455902,-0.45800164,0.40890712,-0.5472602,0.0522028,-1.026139,-0.18731639,-0.7076559,0.101426266,-0.44049966,0.06509253,-0.052337702,-0.53241676,0.23269606,-0.03939482,-0.38413996,-0.2812474,-0.14718309,0.09167825,-0.31827056,0.055728823,0.20390652,-1.1058671,0.28736836,0.10721203,0.11542311
IND125033AAA,-0.16795358,0.3082008,-0.32005513,-0.019059435,-0.18626854,-0.1782907,-0.2757782,-0.28868985,0.04919976,-0.84979427,-0.3039171,-0.9400717,-0.29865423,-1.1476414,0.7488667,-0.60031664,-0.18389362,-0.4113347,-0.566398,0.27121836,-0.3301493,-0.4502126,-0.08964342,-0.00089865923,0.37721902,-0.41654795,0.28830802,-0.064892665,-0.7295433,0.41572514,0.03561064,0.4817206
IND127021AAA,-0.17000255,0.28277576,-0.39970025,-0.042339697,-0.19926755,-0.1828954,-0.2537334,-0.26850528,0.03790766,-0.875924,-0.27053064,-0.8665802,-0.28061196,-1.1371279,0.7871773,-0.6169211,-0.14714019,-0.43813148,-0.5803498,0.35182652,-0.39987177,-0.48454636,0.019411385,-0.039575428,0.36847016,-0.44172704,0.3791389,-0.10411559,-0.70672864,0.46256024,0.06831432,0.5304489
IND131028AAB,-0.16561143,-0.8279689,0.7165298,0.22057581,0.27407014,0.6551229,-0.35139588,0.035956055,0.7403073,0.022004448,0.30466527,-0.7854719,0.07612297,-0.27010968,-0.14022508,-0.42391127,-0.16692747,-0.21565919,0.010534279,-0.15330654,0.74097157,-0.08498895,0.37539592,0.074605055,-0.089567505,-0.27649847,-0.27690136,0.30209872,-1.056442,0.32619658,-0.61889666,-0.42215747
IND201007AAA,-0.12307424,-0.008017153,0.4714594,-0.019337397,0.36736336,0.5217296,-0.13094436,0.032767974,0.411227,-0.047221605,0.28596842,-0.59814084,0.06573737,-0.013862668,-0.6701063,-0.008124568,-0.099568635,-0.07505806,-0.17403762,-0.12433305,0.57101786,-0.13522886,-0.03812054,0.06277872,-0.14519885,-0.27921176,-0.07446878,0.44256765,-0.68096393,0.203453,-0.24599363,-0.31065243
IND201301AAF,-0.057322003,-0.36286473,0.38552636,0.020672522,0.06239364,0.46864435,-0.29545674,-0.020294126,0.36410773,-0.100732006,0.32333016,-0.5328675,0.08443284,-0.12021499,-0.34806827,-0.096094064,-0.18927386,-0.11678715,-0.07263655,0.004315736,0.48682404,-0.024578404,0.48946938,0.1168506,0.118229955,-0.13851109,-0.03105006,0.22968164,-0.41932267,0.3156209,-0.4092301,-0.30546948
IND201301AAM,-0.27663898,0.23098983,-0.31101942,-0.08391142,-0.23812282,-0.056863904,-0.35209548,-0.1883791,-0.189417,-1.0131971,-0.24291486,-0.22434852,-0.009707771,-1.0125644,0.79103833,-0.4862079,-0.69471306,-0.9080409,-0.3414051,0.4210664,-0.19676277,-0.41190797,0.35443488,0.09893304,0.3521391,-0.5695065,0.50308585,-0.3704141,-0.31627318,0.69673127,-0.0071617365,0.3522268
IND209304AAA,-0.1356054,-0.26976976,0.8052655,0.2170161,0.6468297,0.757448,-0.006991403,-0.26701266,0.7973379,-0.041942492,0.29861057,-1.0293933,-0.20320748,-0.2564183,-0.5491649,-0.4587886,-0.071830764,-0.3418358,-0.33183533,-0.1592934,0.83496094,-0.3519063,-0.31204087,-0.03370256,-0.2335413,-0.44650483,-0.28954113,0.4150547,-1.7260753,0.0125744045,-0.12023613,-0.5192486
IND282002AAD,-0.0893434,0.25668696,0.3357377,0.065972514,0.38051045,0.3163684,-0.039605834,-0.18901786,0.24664956,-0.28478438,-0.046069823,-0.43430018,0.026071839,-0.3738481,-0.14365697,-0.1102007,0.017638559,-0.20839138,-0.3554707,0.17281872,0.22318089,-0.34813392,-0.2842583,-0.14894506,-0.2032673,-0.3170942,0.013401933,0.18521585,-0.6525779,0.36271533,-0.113145836,-0.09887147
IND301001AAB,0.037424855,0.44418785,0.2696861,0.1295529,0.2467038,0.34495512,0.07783778,-0.4351481,0.4764716,-0.29760545,0.31677154,-0.67650735,-0.030247351,-0.5126454,-0.20400043,-0.32821047,-0.12703444,-0.13017714,-0.39525166,0.36092442,0.28432602,-0.26246712,-0.310835,-0.07274634,-0.09147196,-0.27626738,-0.095599174,0.11147158,-0.85241216,0.35626018,0.029501397,-0.15815452
IND301705AAA,-0.03520809,0.31480634,-0.05021292,-0.03081423,-0.14746067,-0.0030115694,-0.20358893,-0.19748488,0.017111883,-0.6155527,-0.014438629,-0.32361662,-0.015441632,-0.534865,0.1976783,-0.13102023,-0.47806883,-0.29572892,-0.26879945,0.12104307,0.0420053,-0.01011667,0.16404912,0.13023835,0.30272752,-0.2661077,0.09881836,-0.19484828,0.11344662,0.466716,-0.07493654,0.07559247
IND302014AAA,-0.013289988,0.6162297,0.49452925,0.3736357,0.1355536,0.25986087,0.25820854,-0.7437242,0.54621756,-0.44766942,0.41786367,-0.94865394,-0.33230528,-0.6690676,-0.076587886,-0.51961654,-0.16435422,-0.17500517,-0.5822196,0.37661952,0.5239195,-0.43825337,0.031745583,-0.2580818,0.08540729,-0.29572994,-0.31772712,0.0882874,-1.3665029,0.031335782,0.39814818,-0.5051228
IND302022AAD,-0.24740055,0.27018884,-0.3239665,-0.11122084,-0.21883227,-0.08038986,-0.31920165,-0.16890527,-0.14438695,-0.98681045,-0.2648905,-0.19766623,-0.016954925,-1.0203534,0.8325149,-0.46244627,-0.6758577,-0.88230973,-0.32810655,0.37615585,-0.22097632,-0.40048915,0.2969628,0.043417335,0.3408345,-0.5939624,0.43708023,-0.3755541,-0.35914823,0.71827775,0.059722543,0.3803447
IND328001AAA,-0.026207522,0.2414315,0.24931034,0.09959066,0.29164526,0.3497717,-0.08488319,-0.41096514,0.35462692,-0.31198463,0.12756203,-0.55760354,0.0766775,-0.5608416,0.07465421,-0.18504253,-0.18250933,-0.13691571,-0.2527594,0.21028626,0.370254,-0.15341568,-0.06079047,-0.07003063,0.11255888,-0.29501253,-0.064189136,0.021891825,-0.7030092,0.43637452,0.034546267,-0.1512873
IND382430AAB,0.0055074915,-0.7711194,0.33143088,0.031455882,0.35007972,0.5527718,-0.4722423,0.060887687,0.5069511,-0.3863028,0.22137576,-0.8499101,0.22385454,-0.45681188,-0.27411646,-0.54779804,-0.37011597,-0.25884923,-0.2552722,0.000549715,0.6798077,-0.18185504,0.9413453,0.28979075,0.15524141,-0.08258142,-0.094014145,0.17002168,-0.6627656,0.40468824,-1.0057535,-0.44571635
IND390022AAA,0.046129473,0.057210393,0.18705599,0.1288105,0.34736627,0.46897227,-0.22850294,-0.043794714,0.345176,-0.38580552,0.20502079,-0.56008536,0.21294808,-0.17691073,-0.5239522,-0.13304415,-0.22111662,-0.11364609,-0.42909437,0.25305715,0.44343752,-0.12682736,0.3574197,0.12071999,-0.16434595,-0.13820712,-0.049757313,0.1343548,-0.23753321,0.47895032,-0.5542214,-0.24237014
IND421302AAG,-0.015872665,-2.2857676,0.45607984,0.12197259,0.56197226,0.7122231,-1.4448717,0.1315921,0.9710085,-0.35512698,0.08041024,-1.5512853,0.40976942,-0.9662515,0.18940742,-1.2004795,-0.5721302,-0.6610316,-0.23299104,0.030073196,0.5609956,-0.30995056,1.750309,0.5752827,0.42816743,-0.5892096,-0.24278088,0.048076168,-1.7311835,0.94308543,-2.130474,-0.9388206
IND462022AAA,-0.039111853,-0.030232236,0.6112915,0.21953347,0.3945163,0.60857546,-0.05702932,-0.28462312,0.6840982,-0.1320628,0.3671615,-0.94345915,-0.13992703,-0.2192345,-0.5070732,-0.33686012,-0.14643288,-0.1720893,-0.34559673,-0.022220261,0.7268907,-0.23302448,-0.12932572,0.04046671,-0.1307146,-0.26155442,-0.29122013,0.31618944,-1.2663409,0.0835932,-0.14109725,-0.44222602
IND474003AAA,0.0353832,0.4481809,0.45816585,0.3142112,0.3656546,0.5129481,-0.031446546,-0.37284508,0.7909559,-0.38030392,0.22864088,-0.67401177,0.11888986,-0.23329994,-0.41194612,-0.07567294,-0.15699503,0.11350824,-0.44246697,0.23446684,0.6945491,-0.03760925,-0.014726222,-0.15789354,-0.26229995,-0.2728979,-0.3695861,0.20572683,-0.7471701,0.5305215,-0.258561,-0.4468721
IND501359AAE,-0.21785454,-0.76398593,1.5341421,0.6077311,0.79791653,1.1585314,-0.2888589,-0.17896453,1.4833237,-0.018749457,0.36326462,-1.5248414,-0.24266247,-0.33706474,-0.62246263,-0.6695419,-0.20738399,-0.5097123,-0.30790475,-0.266792,1.5507009,-0.3857435,-0.2234357,-0.1376144,-0.63527197,-0.71466887,-0.84299785,0.665826,-2.6727927,0.26857787,-0.57711923,-0.96638376
IND521225AAB,0.005864611,0.07026981,0.35027313,0.09840983,0.4020917,0.43869147,-0.09010436,-0.031353354,0.46761584,-0.26823565,0.22706616,-0.7416313,0.08669858,-0.10407162,-0.65133977,-0.19879277,-0.08941463,-0.109807685,-0.31663573,0.055924322,0.59336567,-0.16169378,0.111736685,0.09219087,-0.16603743,-0.15002126,-0.111238316,0.2963015,-0.6332607,0.2579426,-0.3931374,-0.32145244
IND600056AAB,-0.052150268,-0.8124133,0.53749204,0.106033295,0.6756164,0.7750614,-0.42540854,0.0984619,0.71271557,-0.28611904,0.21381441,-1.0858628,0.107986294,-0.31579387,-0.48281765,-0.5874465,-0.25854722,-0.4139342,-0.40223035,-0.14259925,0.89701045,-0.31777817,0.5340105,0.29134297,-0.15140498,-0.33442798,-0.13366209,0.33445555,-1.175143,0.32743216,-1.0119768,-0.46982002
IND712311AAA,0.07151922,0.63593024,0.8991193,0.6156426,0.49916887,0.6632126,0.43745273,-1.0737884,0.9132175,-0.56894076,0.5137445,-1.4384685,-0.47446784,-0.91247874,-0.34008408,-0.9284603,-0.14713356,-0.32547092,-0.8832704,0.4253246,0.7416654,-0.7964625,-0.6355263,-0.45614368,0.02910871,-0.54822004,-0.5580419,0.13951176,-2.230584,0.079162866,0.38284284,-1.0179251
IND751002AAB,0.04480669,0.070901886,0.49312466,0.291584,0.28575975,0.578902,-0.014651019,-0.48851153,0.6303685,-0.26853943,0.301387,-0.73942256,-0.045909304,-0.42696887,-0.3024617,-0.2746986,-0.2175686,-0.06886223,-0.39663297,0.24936335,0.58986396,-0.20627579,0.07225381,-0.04142119,-0.11179691,-0.22891018,-0.25349462,0.08263438,-0.8203596,0.37945163,-0.19773185,-0.44588435
IND821115AAB,0.04633528,0.24264994,0.15931323,0.108754925,0.36199743,0.36988693,0.022327706,-0.34711844,0.4021893,-0.24693626,0.3378169,-0.6795252,0.023853999,-0.28043553,-0.38691878,-0.22307202,-0.08243354,-0.06958333,-0.3752259,0.20733035,0.38873357,-0.18535957,0.0553647,0.0049313903,0.077534504,-0.17987886,-0.053600803,0.14772552,-0.71866626,0.23433149,0.004205877,-0.20312455
IND834002AAB,-0.016778324,-0.10016389,-0.0061587095,-0.021583214,0.2545699,0.19953968,-0.25967473,-0.11045298,-0.072508596,-0.34939367,0.18186554,-0.5431409,-0.057987608,-0.36385924,-0.33334804,-0.32879284,-0.27444744,-0.24897626,-0.6307653,0.117723145,0.06766034,-0.3451574,0.39024025,0.24657595,0.1760931,-0.032629948,0.1302263,0.18260911,-0.24480553,0.16101238,-0.36070412,-0.12395767
IND842001AAA,0.05320403,-0.13438812,0.5041368,0.23399352,0.6317101,0.59504914,-0.20524444,0.0635226,0.762703,-0.43264696,0.0836113,-0.88137543,0.19886363,-0.0035935342,-0.8401829,-0.18497734,-0.2637456,-0.080144405,-0.46576568,0.020749971,0.93165153,-0.042369254,0.4031431,0.0813467,-0.3572495,-0.27683678,-0.3593551,0.37112376,-0.715678,0.54490006,-0.97685045,-0.61146057
IND000000ACK,-0.066346906,-0.19651194,-0.13545337,0.19150095,0.077141285,-0.15518081,-0.009635899,-0.005208418,-0.30266735,0.30402324,-0.22148436,0.30744034,0.014325395,-0.064430684,0.35993287,-0.0456967,0.105236724,0.15751608,0.411909,0.08968656,-0.35843128,-0.16238171,-0.021580264,-0.038278624,-0.038722515,0.08504991,0.0773419,-0.15295662,0.66079426,0.11529578,0.11020179,0.00096891075
IND000000ACN,-0.04102002,-0.34357002,-0.15260471,0.19219695,0.073223025,-0.19758993,0.06825759,-0.1958754,-0.4959932,0.16616529,-0.470661,0.34397984,-0.012912661,-0.22156286,0.3760182,0.113004655,0.2227046,0.010879822,0.4941712,0.16194972,-0.3521083,-0.12725082,-0.10170268,-0.1129369,-0.11757165,0.1252236,0.17141175,-0.29302555,0.8950018,0.0127890855,0.11512421,-0.00672625
IND000000ACT,0.43688673,-1.2061833,0.07870942,0.36822933,0.16223188,0.2596359,-0.17511019,-0.52264285,0.067795485,-0.163832,-0.19281739,-0.221641,-0.38139635,-0.17805459,0.32352862,-0.34437937,-0.3027907,-0.037093878,-0.10603054,0.15638551,0.22211722,-0.20448864,0.7582152,0.2400122,0.5673923,-0.3906864,-0.060241632,-0.2450615,-0.9370287,0.28412446,-0.3040908,-0.5934215
IND000000ADV,-0.07642182,-0.1290724,-0.09904614,0.19989933,0.09903251,-0.12714982,0.031240573,-0.023942523,-0.32290477,0.25604337,-0.22389123,0.27307957,0.019265145,-0.063761964,0.34540507,-0.033013616,0.059608962,0.095859095,0.4060849,0.091999404,-0.2979747,-0.14916655,-0.028769627,-0.050229773,-0.04957285,0.13981862,0.063478634,-0.117587134,0.70055443,0.08592491,0.10977852,0.020468311
IND600044AAC,0.020700619,-0.50330836,-0.15096885,-0.04447595,-0.06782609,-0.31758392,0.2312394,-0.114480995,-0.6196619,0.28419405,-0.33500338,0.2734838,0.038168207,-0.30266404,0.15671109,0.0034065542,0.098759934,-0.09698366,0.25167248,0.3676036,-0.29186502,-0.26180738,-0.1657069,-0.0523358,-0.11744232,0.22622879,0.1877899,-0.26923907,0.8867505,0.09502788,-0.09293601,-0.037124872
IND000000AEM,-0.026891131,-0.13145728,-0.07493518,0.2135958,0.11050628,-0.11968374,-0.028022368,-0.070282824,-0.2675453,0.28178492,-0.22713506,0.29211593,0.03822104,-0.027927399,0.35675403,-0.025144968,0.084491774,0.16094701,0.43817234,0.11650323,-0.3454436,-0.09977732,0.025318906,-0.05922483,-0.031971294,0.11322798,0.08631535,-0.14414887,0.63741225,0.12597364,0.12062177,-0.016606795
IND110037AAB,-0.096171245,-0.2606126,-0.2227149,0.03689765,0.10999066,-0.22153014,0.11260896,-0.13305056,-0.48197022,0.2530439,-0.31915313,0.3358999,-0.049537808,-0.25654608,0.28792614,0.10854792,0.14914961,0.056562915,0.39012823,0.028956313,-0.2921176,-0.15289362,-0.08582885,0.005198002,-0.11980335,0.18524106,0.10296811,-0.25379813,0.9815904,0.06270872,0.15615165,-0.08067602
IND110064AAB,-0.096165106,-0.26065147,-0.22278355,0.03678616,0.11002815,-0.22132483,0.11258703,-0.13306592,-0.48184314,0.25298294,-0.31909555,0.33603364,-0.049517274,-0.25651926,0.2879894,0.108497426,0.14924783,0.056728415,0.39012504,0.028839692,-0.29196954,-0.15272331,-0.08582304,0.0051912367,-0.119735576,0.18513894,0.10288556,-0.2538308,0.9816549,0.062710166,0.15629654,-0.080626085
IND000000AET,-0.10406291,0.62934303,-0.28620997,-0.21213329,-0.04608152,0.109818645,0.22939318,-0.10549896,0.016958356,-0.030355848,0.4832006,-0.07697445,0.015607197,0.17530707,0.06634137,-0.072035186,0.12828133,0.27183586,0.33184704,-0.07571471,-0.26714504,0.21499923,-0.69548434,0.06741029,0.24685693,0.12233298,0.17003769,0.08402632,-0.06684293,-0.3716911,0.6154791,0.2919953
IND000000AFF,-0.0764842,-0.2403203,-0.07235196,0.27606997,0.07955727,-0.13200301,0.12250808,-0.20833969,-0.5588622,0.096227005,-0.45433882,0.38072777,-0.008875117,-0.19421403,0.4644574,0.13655078,0.17641163,-0.047995076,0.5201683,0.17028555,-0.33526778,-0.12687948,-0.13962522,-0.13832673,-0.18399602,0.1569143,0.14810532,-0.27872622,0.94378716,-0.021173656,0.10567358,0.07192343
IND734203AAA,0.10738754,-0.20850904,-0.13739637,0.0192419,-0.17636198,-0.16837157,0.19571358,-0.3381486,-0.77205247,-0.147072,-0.65631807,0.4252265,-0.08328715,-0.25611445,0.40716016,0.3163733,0.04217051,-0.1970475,0.28416044,0.057839967,-0.29738775,-0.070455596,-0.08431548,-0.2942787,-0.07399565,0.098024905,0.227367,-0.3253083,0.580982,-0.36731637,-0.010983049,-0.028383005
IND000000AFG,-0.11415446,-0.026599094,-0.06541042,0.23008595,0.077562794,-0.09277438,0.08441159,-0.013291754,-0.35222375,0.20541833,-0.2030625,0.2724541,0.041626245,-0.011992961,0.36666217,0.000788942,0.008972481,0.036352646,0.40508878,0.10019375,-0.2776689,-0.12178858,-0.051526874,-0.05542063,-0.09846384,0.17501003,0.05156466,-0.08197972,0.7212061,0.037935086,0.111815006,0.07104365
IND673027AAB,-0.049906358,-0.10416491,-0.0022464432,0.39723814,-0.06217608,-0.15702406,0.060973983,-0.22083083,-0.38124907,0.11845718,-0.43031022,0.44800937,0.012576431,-0.033873945,0.622096,0.21448107,0.12200856,0.011460088,0.5168084,0.2001786,-0.36716825,0.051516473,-0.24691895,-0.078727186,-0.1747216,0.11732246,0.18820105,-0.29086396,0.87283766,-0.07682652,0.113321714,0.17740217
IND000000AFJ,0.09948275,0.37442183,0.039117727,0.19155777,-0.14261398,-0.1456979,-0.04726198,-0.19498807,0.3024228,-0.16980496,-0.04235728,0.20651087,0.12854083,0.16986224,-0.2743794,0.16693054,-0.032488436,0.16132437,-0.14965764,0.22637364,0.105771005,0.297192,0.10963845,-0.021511868,-0.14410459,0.09762762,-0.06188074,-0.09492339,0.38090757,0.22765043,-0.12153661,0.015214374
IND695121AAA,0.12468938,0.07728058,0.06902125,0.15451473,-0.052135125,-0.1396476,-0.0010075718,-0.05882468,0.15329391,0.058337003,-0.105561316,0.19342956,-0.19920942,0.15580699,-0.24252418,0.18839508,-0.22092678,0.20284343,-0.360861,0.080675766,-0.008361205,0.16199888,-0.023344219,0.129907,-0.16847554,0.06978612,-0.14226323,-0.048535086,0.36416924,0.21081537,0.016173258,-0.015797716
IND695572AAB,0.042679295,0.39415416,0.0285542,0.06980313,-0.03187661,-0.062349893,-0.01085332,-0.007651926,0.29143184,-0.11648399,0.11500913,0.14851578,0.1791094,0.21506043,-0.35832417,0.1454725,-0.036190692,0.23080531,-0.18743101,0.16475344,0.12530318,0.31520605,0.21502872,-0.029596187,-0.12507331,0.15918908,-0.1340414,-0.01373226,0.3218252,0.1396156,-0.016325261,-0.04075734
IND000000AFR,0.04748909,-0.09043567,0.032462306,0.019788496,0.055623215,0.14216384,0.059648477,-0.060393088,-0.03654211,-0.12023333,0.15621635,-0.051580563,-0.019787848,-0.02482739,0.07713261,-0.02278116,-0.0067979805,-0.023940971,-0.07735747,-0.012209181,0.16668068,-0.08992883,0.44312567,-0.033858076,0.26611054,-0.0037156194,-0.14203253,0.08578929,-0.41074294,-0.062267967,0.10413778,-0.14935741
IND683511AAA,0.020794544,0.27537516,0.45627254,0.19755867,0.23695612,0.3599543,0.0659637,-0.50901866,0.595145,-0.185792,0.46677604,-0.84743947,-0.13471061,-0.42550883,-0.05790273,-0.39113104,-0.17474043,0.018896252,-0.3385979,0.022545371,0.583437,-0.17356795,0.032244742,-0.084400386,0.20206197,-0.15589678,-0.3912715,0.13867697,-1.0156043,-0.01049828,0.19771606,-0.42531535
IND000000AFT,-0.0495185,-0.7359862,0.09924595,-0.31203023,0.18186529,-0.08387128,-0.36009026,0.43520108,0.20393118,0.17324068,0.19714889,-0.37934712,0.28872156,-0.060651287,-0.15716216,-0.21157162,0.051115587,0.17454647,-0.0064584315,-0.320226,-0.0068889707,-0.03610942,0.81390953,0.08670112,0.2750893,0.15875994,-0.2126279,0.43185443,0.06967394,0.2805551,-0.6822125,-0.15030122
IND400072AAB,-0.004426513,-1.215674,0.15568535,-0.43668988,0.32635415,0.12154232,-0.6834712,0.37951612,0.4020433,0.15935948,0.29246983,-0.88881207,0.39168242,-0.1748407,-0.1610785,-0.4398659,-0.09699567,0.011072591,-0.043488942,-0.37995857,0.1890259,-0.003416635,1.2064109,0.3237265,0.4445984,-0.00012360886,-0.17019211,0.45834714,-0.4537855,0.42261568,-0.9891683,-0.26140553
IND400701AAA,0.0545467,-0.5084752,-0.077476606,-0.3070861,0.061520446,-0.49935013,-0.105352744,0.043083757,0.1537926,0.20388459,0.07791452,-0.15102313,0.24151908,0.056287635,0.066481814,-0.10856563,0.00360021,0.12413907,-0.27222827,-0.19951503,-0.098724864,0.07807909,0.539697,0.23080942,0.1906639,-0.12035847,-0.16586395,-0.07068378,0.48714605,0.55049,-0.41401106,0.14607283
IND400706AAA,-0.0015376955,-0.46628356,-0.08835038,-0.42273647,0.077261254,-0.30495054,-0.180543,0.20346108,0.16739286,0.3748439,0.20968035,-0.12066357,0.4012059,0.06803298,0.20407684,-0.07664865,0.15516362,0.16717263,0.08357528,-0.32618457,-0.24823242,0.16447724,0.45005256,0.07589843,0.32194334,-0.073658705,-0.03268082,0.1091927,0.40336698,0.30744296,-0.18001094,0.19168563
IND410206AAA,0.05005717,-0.3775464,0.0780794,-0.19359449,0.10318406,-0.3043415,-0.004548818,0.09164845,0.16896313,-0.0877366,0.09425139,-0.20040771,0.2732502,0.13753971,-0.44780952,0.07410721,-0.032028288,0.18510337,-0.4130535,-0.04936023,0.024330713,-0.058190886,0.5676613,0.06255625,-0.09046745,-0.22679293,-0.18482937,0.078704625,0.4875027,0.6347273,-0.5923569,-0.04237803
IND410206AAB,0.03601064,-0.5366881,-0.093719795,-0.44860277,0.11063229,-0.27701542,-0.16793856,0.18109235,0.08621161,0.35981223,0.26136535,-0.2541937,0.3672968,0.079118565,0.09967255,-0.09577212,0.12800205,0.13794903,0.057625085,-0.3505797,-0.2758667,0.13114354,0.54815614,0.11126377,0.3920466,-0.04903303,-0.0027598906,0.13314569,0.31595787,0.25327986,-0.16618387,0.16094033
IND410209AAA,-0.0044488534,-0.55081433,-0.16201465,-0.390553,0.06799357,-0.33470595,-0.14385608,0.2963179,0.1756996,0.47422606,0.25475577,-0.13760221,0.38418746,0.0812763,0.25272727,-0.01432725,0.18338382,0.14605674,0.10910261,-0.30744672,-0.35139328,0.18298668,0.43433324,0.05836975,0.31644136,-0.055404343,-0.02917524,0.20996256,0.24348113,0.18556087,-0.20094441,0.27501667
IND410210AAA,-0.0031074584,-0.5091322,-0.13384014,-0.42870396,0.08741908,-0.31844592,-0.13856131,0.2519479,0.15315473,0.42233896,0.24388604,-0.12912273,0.39370304,0.07350476,0.22421677,-0.06095368,0.1710593,0.15372382,0.092014164,-0.33212954,-0.29830623,0.16807647,0.41244337,0.085703805,0.3406878,-0.07873349,-0.01966381,0.1522994,0.3207916,0.22290038,-0.15930763,0.2510639
IND110014AAA,-0.17238626,0.2480241,-0.14520788,-0.13540609,0.06619174,-0.05905523,-0.019014362,0.5342104,0.2573412,-0.053813778,-0.004931219,-0.28030002,-0.2208241,0.06868458,-0.13633856,-0.3682382,0.16264942,-0.28322637,-0.12235668,-0.19427305,-0.1094245,-0.08472304,-0.14792712,-0.048907634,-0.45052972,-0.22127949,0.19285583,0.26549885,-0.6301002,-0.07687287,0.017132163,0.38042575
IND110020AAB,-0.22950585,-0.32197064,0.55526525,-0.046559215,0.43540955,0.44448924,-0.07723075,0.015475882,-0.19051734,0.22253671,-0.109242745,-0.10615526,-0.21793462,-0.19278088,0.021582995,0.046576686,0.29852542,-0.23971364,-0.27717277,-0.23431413,-0.038305752,-0.61756885,-0.8963825,-0.050536666,-0.015011385,-0.22807184,0.06460148,0.30751723,-0.43642956,-0.15009405,0.021284163,-0.10064015
IND110037AAM,-0.03684457,-0.14399222,0.94092095,0.38418227,0.92606574,0.9591759,0.0754486,-0.41560704,1.0192983,-0.106825545,0.23135862,-1.2362735,-0.08184254,-0.27711588,-0.6560732,-0.4758705,-0.051796928,-0.14292137,-0.4953944,-0.31730515,1.0436931,-0.3999056,-0.6894366,0.013715737,-0.32009304,-0.44824246,-0.4460455,0.4611308,-1.7356926,0.14601386,-0.4997272,-0.76445997
IND110035AAC,-0.23110394,-0.26122218,0.566543,-0.103213444,0.39777535,0.5112902,-0.12039077,0.018805487,-0.16389647,0.21260294,-0.08707424,-0.14949076,-0.2540754,-0.17714544,-0.12346168,0.10020733,0.27442312,-0.24896425,-0.28861558,-0.27102554,-0.01913564,-0.51141834,-0.7583161,-0.09971906,-0.07434914,-0.20200697,0.04673949,0.43229574,-0.6058538,-0.21766075,0.008670956,-0.11968111
IND201001AAC,-0.23322122,-0.3627481,0.5325983,-0.057020947,0.45370674,0.44407046,-0.04318716,0.018464737,-0.2032358,0.20640926,-0.089920096,-0.14258279,-0.1980485,-0.1909615,0.03684394,0.035478022,0.3206225,-0.25171238,-0.25516698,-0.19791266,-0.09631518,-0.6487673,-0.8936775,-0.06377503,0.009684861,-0.27478278,0.11887556,0.2960129,-0.50902003,-0.14483228,0.08291063,-0.07975283
IND201301AAD,-0.23363127,-0.34748134,0.582977,0.0012371838,0.4217171,0.42160186,-0.08686131,0.007550374,-0.18130092,0.2317536,-0.13173997,-0.08263874,-0.2228902,-0.23047689,0.11082909,0.015483545,0.28216058,-0.25072858,-0.2698015,-0.23817252,-0.006056115,-0.6421776,-0.95791006,-0.0068859267,0.014043629,-0.21635391,0.042564094,0.2439829,-0.34943163,-0.13540064,-0.010397434,-0.09626426
IND202001AAB,-0.023650073,0.32684094,0.36636272,-0.1077276,0.34327856,0.32750088,-0.037853844,-0.02016094,0.41845036,0.005520597,0.18274412,-0.36654133,0.1683245,0.043850943,-0.46175307,0.09189737,0.11539093,0.07511765,-0.09667815,-0.037943948,0.377299,0.00056806207,-0.3238641,-0.005325027,-0.2672274,-0.05798366,-0.08172595,0.32185775,-0.19278023,0.20012993,-0.1108112,-0.11481959
IND226004AAC,-0.23289,-0.3617897,0.53416574,-0.056012034,0.45173988,0.44118848,-0.0436116,0.020108946,-0.20335239,0.20951286,-0.09144868,-0.14021812,-0.20003986,-0.1911216,0.040221512,0.036514092,0.31980836,-0.25004417,-0.25441182,-0.2016765,-0.09302703,-0.64689195,-0.8961387,-0.061202724,0.0117203295,-0.27079344,0.115510195,0.29518306,-0.5024394,-0.14799622,0.08229795,-0.07860287
IND282001AAA,-0.16532409,-0.1537218,0.56979,0.06496564,0.2522155,0.33657235,-0.07532135,0.0009826571,-0.04176424,0.04845029,-0.19275203,-0.16424786,-0.1219652,-0.12757753,-0.117153,-0.03187088,0.05804508,-0.23180903,-0.22950944,-0.17820153,0.120847136,-0.3844153,-0.6321432,-0.026885726,-0.24333426,-0.3709261,0.028787434,0.14904174,-0.38613024,0.06800203,-0.2272027,-0.12490845
IND282001AAC,-0.15612611,-0.18626362,0.69613796,0.11236112,0.3910091,0.41789967,-0.10290411,-0.10600163,-0.13668078,0.043123513,-0.2239584,-0.14388306,-0.13134134,-0.24555123,-0.02939581,-0.0012105722,0.15981558,-0.26653266,-0.32019877,-0.18054445,0.07829627,-0.6040192,-0.9120244,-0.045112684,-0.21156465,-0.32870382,-0.034142837,0.18874551,-0.2896697,0.15546785,-0.28739613,-0.20878397
IND811399AAA,-0.14842492,-0.35519284,0.6508876,0.04036761,0.45234692,0.51804036,-0.13092132,-0.07410796,-0.21287209,0.15205672,-0.09600103,-0.19136266,-0.14997172,-0.21028689,-0.0865685,-0.061097585,0.21661538,-0.32684466,-0.28381437,-0.20262584,0.0014950149,-0.63682836,-0.8904236,-0.01848583,-0.11252734,-0.3006271,0.019014508,0.25012207,-0.3770469,0.048337847,-0.19767052,-0.18617007
IND110039AAA,-0.16439942,-0.03688319,0.025938839,-0.19866922,0.36856228,0.14202711,0.00646396,0.068776906,-0.08319557,0.048756428,0.05342593,-0.10637545,-0.0003857836,-0.15008925,-0.11355048,-0.069667734,0.13598457,-0.22911313,-0.2164515,0.08684843,-0.015789948,-0.24732244,-0.23661125,0.043192435,-0.10698062,-0.22754471,0.2620899,0.21296649,-0.20860155,0.12612642,0.20081607,0.17871664
IND110078AAA,-0.24778263,-0.054308653,-0.4015635,-0.11899758,0.048269182,-0.16146147,0.009504496,0.09507755,-0.049124025,-0.21588041,-0.08537332,-0.5739854,-0.375348,-0.4621142,0.28133553,-0.38185233,0.117532015,-0.27812228,-0.33481085,0.071790665,-0.43483585,-0.29847482,-0.13164985,-0.056547534,0.054241948,-0.18750651,0.43587923,0.32181573,-0.6111445,0.07566368,0.112231255,0.4099325
IND110044AAB,0.26093218,-1.2106858,0.33694136,0.35138083,0.38516304,0.6387373,-0.43866637,-0.29965323,0.12935933,-0.0046019703,-0.018331736,-0.31118748,-0.280745,-0.4084862,0.11527455,-0.40973634,-0.11189926,-0.4462622,-0.048564047,0.29817593,0.38925284,-0.3099801,0.5976856,0.17369819,0.23525192,-0.6100636,-0.048577454,-0.07728669,-0.59811604,0.7052889,-0.5803131,-0.62678486
IND110005AAA,-0.21681735,-0.4826116,-0.28879172,-0.14213878,0.17463472,-0.084538564,0.0044248737,0.17376554,-0.08657502,-0.09072573,0.03745389,-0.3193661,-0.24019915,-0.40653652,0.41293234,-0.5088407,0.02865456,-0.35784715,-0.43068475,0.31304124,-0.27156648,-0.53596103,-0.049390577,0.074777864,0.12066086,-0.39684603,0.4932485,0.1538152,-0.37326622,0.15041143,0.2120093,0.4058518
IND110046AAA,-0.22134219,-0.4665596,-0.29347563,-0.14242387,0.17685468,-0.100114524,0.010621656,0.1728147,-0.093066394,-0.08476182,0.038039077,-0.31039947,-0.23554623,-0.40086135,0.41401908,-0.50955164,0.031584904,-0.35096556,-0.4272108,0.3165025,-0.2788976,-0.5391314,-0.07707891,0.07846896,0.12307499,-0.38920256,0.49343053,0.14338404,-0.3353414,0.15101935,0.22764483,0.41323146
IND110083AAA,-0.16831975,-0.0034984052,0.020326525,-0.19001812,0.3491595,0.116620794,0.024238527,0.045817204,-0.0932104,0.055737533,0.04789263,-0.08603109,0.0038385019,-0.1616148,-0.06869922,-0.075871125,0.11957868,-0.21655145,-0.20322986,0.112117976,-0.03421624,-0.2609169,-0.27616513,0.04613308,-0.09711613,-0.20968087,0.25124815,0.19731887,-0.15364374,0.13296148,0.21257107,0.18043159
IND110085AAA,-0.20694733,-0.121571794,0.020124644,-0.17572899,0.33955306,0.138962,0.025759015,0.101220466,-0.10158977,0.049262024,0.0409972,-0.10515609,-0.0122777,-0.17383118,-0.05682335,-0.11292148,0.122019745,-0.26734444,-0.17218402,0.09013178,-0.035468027,-0.27037853,-0.27414334,0.054371886,-0.07678688,-0.26424944,0.30502078,0.19986053,-0.23801179,0.11677319,0.20343056,0.1855755
IND110087AAA,-0.20031008,-0.11183636,0.01551649,-0.17972249,0.33932427,0.1406813,0.02107643,0.11211508,-0.07847972,0.05352787,0.032139156,-0.11159931,-0.02067256,-0.17053093,-0.0740367,-0.10200392,0.12563717,-0.28217676,-0.16332439,0.07499057,-0.040055618,-0.25254124,-0.26242504,0.04784226,-0.10260202,-0.26518294,0.30135193,0.20506154,-0.27999097,0.10819356,0.19778284,0.19136249
IND110093AAA,-0.31048208,0.13647486,-0.18529591,0.17303187,-0.018349834,0.11618849,-0.11687446,0.029680189,-0.19481969,-0.22493872,0.1361605,-0.07481921,0.003465265,-0.23046386,0.6911551,-0.28965068,0.084613726,-0.110175446,-0.22184499,0.28702977,-0.42003655,-0.37229562,-0.46829033,0.044327535,-0.15164238,-0.29708344,0.2940936,0.13626583,0.13709384,0.16622327,0.14256762,0.5581541
IND121001AAA,-0.24068853,-0.50611186,0.039485745,-0.1955593,0.14306742,0.1266734,-0.11413155,0.47336662,-0.029886343,0.013896688,0.22932218,-0.30649468,0.16877165,0.034064814,-0.41339618,-0.21042071,-0.009853758,0.056847885,0.018575154,-0.24857429,0.100035496,-0.15082233,0.51511765,0.09710198,0.105800785,0.021239107,0.1134226,0.25865728,-0.051564112,-0.043195885,-0.3591545,-0.038102977
IND121004AAA,-0.25244457,-0.47056282,0.040600546,-0.18494761,0.121237546,0.106003106,-0.1067802,0.45980468,-0.017764706,0.020380083,0.21043777,-0.26044685,0.15755358,0.034991324,-0.37231007,-0.19767664,-0.0060111284,0.05454672,0.022528328,-0.24468252,0.098601915,-0.1469033,0.48494285,0.08917236,0.10296985,0.024857923,0.11078347,0.23062627,-0.011675063,-0.038046543,-0.333943,-0.02696105
IND121004AAC,-0.24455237,-0.46370614,0.032873724,-0.18971089,0.13440815,0.11734857,-0.10395835,0.45555463,-0.013661865,0.017402109,0.21107924,-0.24574229,0.16184448,0.022796758,-0.34983903,-0.19985823,-0.004523754,0.053891804,0.019834787,-0.25605366,0.09241758,-0.15623727,0.4707821,0.07969287,0.11157156,0.0096911425,0.10812788,0.21005201,-0.008190154,-0.018608592,-0.32541093,-0.019392371
IND121102AAA,-0.2630511,-0.5253058,0.04357885,-0.19113848,0.10719618,0.092097335,-0.14361498,0.5255163,0.030232163,0.074310526,0.21806921,-0.26240504,0.15812975,0.05565027,-0.3848523,-0.16688482,0.021988984,0.08645274,0.035673134,-0.2296062,0.11551045,-0.111015,0.5231687,0.080207914,0.07592594,0.057399303,0.079862006,0.2958296,-0.061256804,-0.06785759,-0.35091108,-0.012790941
IND122001AAD,-0.19434924,-0.19745427,-0.23931512,-0.05201129,0.094437115,-0.06574325,0.004333161,-0.18579835,-0.052898526,-0.181599,-0.061196364,-0.45549846,-0.3353845,-0.5750581,0.45503086,-0.3885741,0.1035444,-0.21662816,-0.45461676,0.25090083,-0.24835005,-0.37764585,-0.24906397,0.14030665,0.22971496,-0.2719453,0.3460921,0.13399996,-0.5551705,0.2095998,0.2675088,0.3122229
IND122101AAC,-0.20857525,-0.31206292,-0.24298802,-0.027140468,0.061579466,-0.030768469,0.008283991,-0.16994977,-0.030112296,-0.20058902,-0.11529514,-0.43687224,-0.3442683,-0.6235192,0.5467357,-0.40588263,0.07838327,-0.2633608,-0.44040912,0.25563475,-0.23333588,-0.41752997,-0.23507059,0.13722667,0.24000734,-0.35844707,0.37163693,0.12778974,-0.69854075,0.23154265,0.25143215,0.304721
IND122050AAA,-0.25046384,-0.17489758,-0.17429045,-0.09540227,0.21873944,0.32839993,0.08144419,0.058382493,-0.31189105,0.236188,0.41755947,-0.1844005,0.043457884,0.06246603,0.3420851,-0.010008451,0.04998023,0.107136,0.23022449,-0.017350178,-0.17628555,-0.17238365,-0.3623233,0.103445634,0.37270656,-0.14352153,0.27377838,0.10355781,0.18451804,-0.06342873,0.383385,0.22782096
IND122001AAJ,-0.14081737,0.13532892,-0.21288462,-0.28338593,0.1876479,0.012451299,0.17783855,0.22171347,0.017741583,0.18379995,0.28685185,-0.28663746,-0.13139464,0.0429255,-0.2850141,-0.11587654,-0.023522362,-0.01079113,0.13680114,-0.19729334,-0.06996237,-0.025908355,-0.47269154,0.10117278,0.11980421,-0.07153821,0.23878674,0.27729252,-0.3531447,-0.24064544,0.31071708,0.11798371
IND507123AAA,-0.06653289,0.41041118,-0.28507107,-0.29349557,-0.0513376,0.0034518093,0.15365513,0.2215876,-0.03119959,-0.017299019,0.30267373,-0.20916134,0.006093245,0.27489823,-0.14568911,-0.04276448,0.05559586,0.18277858,0.28878096,-0.31068122,-0.1846872,0.2726304,-0.35869855,0.06876033,0.22761688,-0.044589058,0.10929531,0.28315187,-0.40520644,-0.31069812,0.38048106,0.21597302
IND122002AAD,-0.018727735,0.039852634,0.0024227723,0.017179571,0.084332585,0.09216489,0.082497194,-0.053660758,-0.097189866,-0.029725295,0.15504012,0.005785078,0.032185026,0.024572924,0.056281,0.03745337,0.006440798,-0.01225085,0.010411151,-0.00921973,0.08903054,-0.057043903,0.321181,-0.051691763,0.22577141,0.096940055,-0.1305817,0.083205014,-0.15588064,-0.058513943,0.17260362,-0.07367245
IND122503AAA,-0.103854656,-0.05949916,0.08355161,0.311866,0.030540362,0.42425972,0.20975897,-0.57534766,0.019484118,-0.13226885,0.47331697,-0.028024822,-0.033326447,0.026627569,0.51374793,0.019215543,-0.17627889,0.06782896,0.027098127,0.10613033,0.270201,0.1577587,0.29823762,-0.11755028,0.6005578,-0.020538256,-0.2203441,-0.078795955,-0.44190523,-0.14010255,0.56589186,-0.169983
IND122004AAA,0.2288871,-0.47906548,0.05824837,0.066099465,0.056728967,0.26649284,0.037702944,-0.18688074,0.04848913,-0.2037036,0.10590296,-0.13693504,-0.122394755,-0.09062855,0.12875772,-0.18030816,-0.039145853,-0.03596861,-0.11033212,0.06161826,0.22721636,-0.1500155,0.59237313,0.05954198,0.40866753,-0.18220215,-0.06399606,0.041746266,-0.8009818,-0.02333045,-0.0382991,-0.34046414
IND122413AAE,-0.21590193,-0.6723161,-0.069605984,0.12181713,-0.09716295,0.22188203,0.05445474,-0.51278216,0.019268706,0.27166134,0.5363238,-0.27445865,-0.09588148,-0.08538653,0.72203994,-0.23034328,-0.4997094,0.057979614,0.013147265,0.08277232,0.08802307,-0.04222609,0.5974278,-0.014001347,0.78756714,-0.13318086,0.09043844,-0.07674049,-0.5844319,-0.11107665,0.3238433,-0.4358523
IND123001AAA,-0.05873774,0.22658598,-0.0598384,0.35255015,-0.12900671,-0.092372715,-0.077562116,-0.34096867,0.20512061,-0.37776628,0.015529934,-0.2586328,-0.23399296,-0.17273945,0.24111423,-0.12895866,-0.077435195,0.19041812,-0.42397296,0.19288549,0.032964066,0.013927072,0.05686606,-0.051692784,0.122125894,0.032008577,-0.05484527,-0.09911294,0.15135016,0.26017445,0.11920941,0.10526871
IND123401AAB,0.0700267,0.23143673,-0.02341538,0.3938803,0.102826916,0.20977773,0.10150242,-0.20345691,0.110534385,-0.12942274,0.18409143,0.07227686,0.07796336,-0.02955043,-0.10400611,-0.038935326,0.0157201,0.19899248,-0.118708,0.39099458,0.11995152,0.12971255,0.31795546,-0.050950862,-0.012490269,0.26321256,-0.18376753,-0.16861215,0.52961445,0.25021136,0.1461306,-0.094472915
IND123106AAB,-0.050126918,0.10101056,-0.21227728,-0.11815743,0.042598773,-0.022795733,0.2192343,0.016421145,-0.13807185,0.064697295,0.17567855,-0.023640096,0.117529646,0.05530116,-0.16122834,-0.012919353,0.004109092,0.048683204,0.24501377,0.001456419,-0.10984023,0.0826578,0.16492452,-0.11283843,0.11502465,0.28031245,0.020289518,-0.022780314,0.16011685,-0.077769704,0.2249217,-0.029448684
IND124001AAB,-0.087252945,-0.5307826,0.15799285,-0.11934698,0.18034434,0.20680074,-0.24025884,0.34594265,0.16641825,0.20593244,0.054650106,-0.11592293,0.38999528,0.063534774,0.19281405,-0.17028688,-0.013343886,-0.0010172576,0.11532876,-0.2103264,-0.075456366,0.093079925,0.02488927,0.037371844,0.043374352,-0.46269947,0.0051784143,-0.051027745,-0.07949245,0.358971,-0.31414098,0.16997139
IND126102AAA,-0.40560555,-0.14862484,-0.028352775,0.19652069,0.07810862,0.5905087,-0.15887077,0.05717233,-0.14951994,-0.0678497,0.37279412,-0.060870916,0.12802388,0.2105281,0.60163236,0.030172052,0.13691303,-0.06357963,0.14492019,-0.07536243,-0.16130927,-0.14790046,-0.3102569,0.048212625,0.2303389,-0.27274442,0.15367806,0.097026244,0.06971835,0.057355434,0.17913756,0.2624024
IND124141AAA,0.017089806,0.3354159,-0.006839905,0.22127181,-0.075500816,0.5866631,0.13393177,-0.11480118,0.27748394,-0.21946634,0.69557005,-0.23931049,-0.07556583,0.019535309,0.32489544,-0.18381476,-0.061161913,0.1351551,0.09817153,0.09262699,0.20193928,0.24619359,-0.52177525,0.23379236,0.19414575,-0.1862881,-0.015479613,0.062109306,-0.68230397,-0.28104597,0.38429934,0.105599105
IND124507AAA,-0.08668338,-0.53670645,0.16889124,-0.09825799,0.17495811,0.20852278,-0.2502272,0.31827882,0.15239152,0.20057876,0.058659125,-0.1346916,0.37281075,0.061038762,0.14979768,-0.19996282,-0.016637243,-0.023278996,0.08614844,-0.18169983,-0.068214715,0.07931923,0.035617728,0.052037574,0.016446501,-0.43874192,-0.0009017065,-0.038187444,-0.067194924,0.35326886,-0.35488072,0.1427426
IND131028AAE,-0.3157315,-0.37443691,-0.121968746,-0.03342469,0.25888598,0.40655398,-0.087591514,0.15194783,-0.2845656,0.051111657,0.2578557,-0.13105147,0.10928786,0.0883701,0.3787926,0.017363388,0.13987334,-0.11701986,0.14238423,-0.09219486,-0.19378242,-0.34048444,-0.12092519,0.07377216,0.30044994,-0.21052064,0.22681157,0.13833469,0.20533073,0.08604665,0.18365818,0.20076478
IND125047AAB,-0.11832036,0.24108356,0.17570747,-0.0780248,0.4088932,0.20839421,-0.06356196,-0.14491123,-0.069103934,-0.07719888,-0.07293673,-0.21336696,0.058159918,-0.35847723,-0.2100255,-0.051940825,0.15291016,-0.15025371,-0.21434696,0.23136747,0.025221892,-0.30286163,-0.5411489,0.043278724,-0.29511797,-0.20046091,0.11768451,0.15634619,-0.17940836,0.29697648,0.046509534,0.052628092
IND125051AAA,-0.023574173,0.4855464,0.17324784,-0.14726424,0.12785548,0.10718633,-0.1357483,0.13931018,0.32659358,-0.077530906,0.15605637,-0.18748589,0.21914393,-0.021348834,-0.43997157,0.06519424,0.10838652,0.048450865,-0.08751163,0.1333366,0.2835571,0.03647825,-0.21129398,0.058802202,-0.34316027,-0.0015028678,-0.052073937,0.20601918,0.14932539,0.27004552,-0.13247618,0.08957473
IND335513AAA,-0.1806406,0.60479057,0.17036709,-0.076050185,0.23757721,0.31246123,0.024369046,-0.059749193,0.20937571,-0.0945934,0.19775632,-0.24348195,0.0906793,-0.03923841,-0.25736466,0.022940572,0.15699634,-0.011128593,-0.09508726,0.011326283,0.06301304,-0.008170234,-0.6558649,0.056168392,-0.30055246,-0.14867769,0.022053033,0.2647964,-0.5263809,-0.08579627,0.26592118,0.11424647
IND335523AAB,-0.09709326,0.4558003,0.14732362,-0.11967261,0.20616645,0.13518369,-0.107052155,0.09456241,0.15334621,-0.07900378,0.0068211257,-0.18848029,0.21253447,-0.21491104,-0.29322216,-0.027563294,0.19462483,-0.023076579,-0.031698883,0.15276635,0.09817998,-0.14741033,-0.5779803,0.104758896,-0.37416458,-0.114023015,0.0833139,0.15601684,-0.0032964759,0.2943421,0.012728326,0.21820194
IND335524AAA,-0.117861,0.2997454,0.18788889,-0.046414435,0.36828917,0.1402536,-0.061835036,-0.15691619,-0.012600135,-0.093592115,-0.13061538,-0.21607533,0.042858094,-0.39596522,-0.17709807,-0.074679546,0.14169417,-0.1386463,-0.1707547,0.21957047,0.04561933,-0.28054574,-0.5896597,0.053283133,-0.31170523,-0.18946691,0.08271192,0.10230138,-0.1402709,0.3436786,0.029862102,0.062406845
IND125050AAA,0.021135546,0.35403946,0.03874827,-0.15420774,0.11878055,0.012545109,-0.10679702,-0.0042841434,0.22621351,0.10237225,0.17413358,0.011042744,0.08264785,0.022700645,-0.29662943,-0.0033506826,0.023226425,0.099595785,-0.18445323,0.19702834,0.3326326,-0.0044551045,-0.5170152,0.16654097,-0.2510243,0.0019573346,-0.033476405,0.047421366,0.5213791,0.34909678,0.10065906,0.33937573
IND125111AAA,-0.006584212,0.9103873,-0.029070716,-0.012755059,-0.05265475,0.16056968,-0.02074917,0.4088527,0.17370877,-0.17967452,0.36920857,0.05437225,0.36952996,0.38884586,-0.40667975,0.1052124,0.09650318,0.11270217,0.14490882,0.03644546,0.077522516,0.36063856,-0.035733715,-0.03653984,-0.3035857,0.0933954,-0.13233961,0.1672783,0.1838738,-0.012968551,0.028636884,0.21982743
IND125104AAA,-0.0807918,0.46377075,-0.17570695,-0.26200455,0.11360502,0.16340873,0.1361595,0.18936855,0.12471588,0.053948738,0.43425247,-0.18104419,-0.042620063,0.1604093,-0.25454497,-0.075831264,0.08906119,-0.010115169,0.22465956,-0.23460189,0.029319122,0.07306335,-0.52544737,0.070407815,0.122791246,-0.036214918,0.09699415,0.2755903,-0.4304846,-0.31505182,0.48271465,0.19004767
IND125121AAA,-0.03330455,0.87083054,-0.13289723,0.04076755,-0.1560874,0.24758947,0.25048026,0.19080935,0.28059942,-0.325068,0.5537913,0.03138379,0.061408035,0.26305306,-0.23864806,-0.019681405,0.029584559,0.0638151,0.20836239,-0.16070232,-0.0770693,0.39843208,-0.3789779,-0.026614085,-0.077516295,0.04405564,-0.16914834,0.18042669,-0.4435757,-0.42943746,0.35592872,0.13863122
IND131301AAA,-0.15304248,0.33289477,-0.037079856,0.11111468,-0.030290455,0.5713628,0.10434771,-0.41120327,0.15970334,-0.026606977,0.7162338,-0.20905875,0.038603894,0.07164544,0.6439892,-0.06165811,0.023398817,0.25218216,0.28529704,0.04851867,0.08963032,0.31861052,-0.75427294,0.14203249,0.46204424,-0.03531021,0.11457361,-0.0002892837,-0.22108224,-0.25727904,0.6416379,0.2859373
IND126112AAA,0.1000576,-0.2230243,0.039698746,0.027626544,0.045011796,0.1796205,0.052194797,-0.08408596,-0.01603932,-0.14489162,0.15543751,-0.09393984,-0.05497442,-0.053520575,0.103291065,-0.07360272,-0.013797179,-0.031431064,-0.10328117,2.0053238e-05,0.18288387,-0.1274986,0.49237394,0.0076461993,0.31488425,-0.07304129,-0.112045944,0.0735265,-0.5619149,-0.07365979,0.06240788,-0.20090449
IND127201AAA,-0.3573658,0.3229051,-0.26099557,0.3096372,-0.26243153,0.039362043,-0.15634517,-0.105098635,-0.0930468,-0.52181125,0.03317409,-0.41559744,-0.1734013,-0.32076055,0.8096283,-0.33218014,0.058349162,-0.13739742,-0.27560782,0.22154722,-0.4170316,-0.17047416,-0.38439614,0.04393431,0.043990113,-0.2687127,0.25747582,0.09551697,-0.43252647,0.056931615,0.15445973,0.54286516
IND131021AAA,-0.059942372,-0.2818132,-0.1674838,0.1872494,0.048863277,-0.19826913,-0.049095597,0.027822398,-0.2737332,0.3599526,-0.20297977,0.35190314,0.00931263,-0.061952144,0.37352517,-0.07211344,0.15606204,0.24251953,0.42602092,0.08630003,-0.45140684,-0.16772822,-0.0017142594,-0.047634892,0.0052319444,0.022086158,0.11782336,-0.18799435,0.6080417,0.15710433,0.111875966,-0.013871657
IND131028AAA,-0.025350988,-0.43459797,-0.4576056,-0.22849992,-0.012377292,-0.39108366,0.104375415,-0.03856285,-0.49515572,0.4303739,-0.17137375,0.27012885,0.026602238,-0.2872924,0.12410501,-0.008503772,0.11583049,0.14258683,0.22210631,0.17564943,-0.4334796,-0.19604918,-0.1253095,0.08223614,0.011484042,0.24626698,0.107407205,-0.1916368,0.80213547,0.040468752,0.044204183,-0.20939042
IND132103AAA,0.21170034,0.0064531676,0.23027512,0.31434375,0.095573895,0.32187298,-0.09293568,0.07785362,0.29410088,-0.3072309,0.019905373,-0.22505943,0.30527565,0.044300225,-0.26046118,-0.020895934,-0.28112954,0.15355822,-0.36286244,0.23282135,0.3845588,0.13102835,0.4640453,0.072235584,-0.4048732,-0.29015368,-0.28185868,-0.2164309,0.3238678,0.9039599,-0.7269479,-0.1660755
IND136118AAA,-0.08708902,-0.58298075,0.16916718,-0.10375309,0.15170732,0.1733776,-0.2327967,0.34990597,0.12846622,0.2605706,0.07758634,-0.16831395,0.31966048,0.05827953,0.17734773,-0.19809274,0.006434813,-0.026616797,0.10544051,-0.19905417,-0.086830996,0.09394339,0.03686506,0.08186591,0.07285898,-0.3865571,-0.0031766593,-0.012135498,-0.111353874,0.23753273,-0.28029332,0.19042496
IND201204AAA,0.023663953,-0.45718598,0.25019524,0.082878806,0.040817365,0.020758204,-0.2140477,0.21084774,0.21096379,0.029557422,-0.11098203,-0.23534766,0.3382224,-0.042533267,0.18896279,-0.2652379,-0.1749676,0.009352207,0.016998593,-0.06871502,0.07200986,0.076854885,0.09232556,0.13818377,-0.060124,-0.41866666,-0.15519033,-0.20376742,0.10453006,0.6152787,-0.6217295,0.05509743
IND244001AAA,0.019979112,-0.48398852,0.24411383,0.070364475,0.04080534,0.03183633,-0.23194927,0.22367461,0.21878031,0.063532084,-0.08742018,-0.24046381,0.33151555,-0.026274735,0.16871724,-0.26973826,-0.15804955,-0.0011726171,0.02546459,-0.06173026,0.066816084,0.083332196,0.10801492,0.14019674,-0.052226536,-0.38883227,-0.1533218,-0.1746909,0.08547832,0.57790875,-0.6127455,0.05715862
IND244235AAA,-0.05706599,-0.49649253,0.069518745,-0.119051054,0.12355259,0.04047993,-0.19349203,0.37463358,0.20985927,0.32340688,0.077147216,-0.101483636,0.21403684,-0.04376611,0.28232074,-0.22090232,0.09682359,0.06818685,-0.0015854165,-0.102076486,-0.13439363,0.05258871,0.0680129,-0.021720737,0.060475327,-0.28146592,-0.13686058,0.034097333,-0.17626418,0.16724415,-0.17411205,0.21796058
IND247667AAA,0.03924887,-0.47687143,0.25609934,0.08525761,0.05229315,0.026270673,-0.20701334,0.19300394,0.19069538,0.010722905,-0.11396302,-0.2623772,0.3212553,-0.05349788,0.17328532,-0.2945453,-0.19445355,-0.0068217963,-0.00070234016,-0.07577384,0.07988368,0.05657315,0.10465441,0.15262109,-0.0539196,-0.42314965,-0.16462752,-0.21718141,0.09511689,0.63557786,-0.63701344,0.03710778
IND247667AAB,-0.09290494,-0.56041735,0.16346076,-0.13264896,0.14596781,0.16483296,-0.23224828,0.38940036,0.17363963,0.25566843,0.061147828,-0.1376681,0.36674392,0.08903821,0.20392853,-0.14281788,-0.0013179779,0.014845476,0.15815878,-0.21702069,-0.07865699,0.1275455,0.038452853,0.053756937,0.078736894,-0.42075557,-0.0007253215,-0.019186333,-0.11788079,0.28359994,-0.25359505,0.20266646
IND248001AAD,-0.06448825,-0.3064438,0.022327349,-0.32607362,0.26573572,0.28146747,-0.14889227,0.17128566,0.12438209,0.17789023,0.28484622,-0.36281928,0.28265354,0.10965293,-0.029845554,-0.06326787,0.03315086,0.15667015,0.101205006,-0.20908684,0.05404231,0.12105138,0.0450769,0.060964882,0.29104644,-0.29071003,0.13722643,0.15664469,-0.27448714,0.11981854,0.047567695,0.09818478
IND249407AAA,-0.03493866,-0.38932908,0.12008155,-0.26621115,0.2931684,0.24057776,-0.15477987,0.37990683,0.16954853,0.018563628,0.1941124,-0.5189837,0.28581572,0.12848869,-0.40922797,-0.06686886,0.033533543,0.06366418,-0.04257008,-0.187296,0.17901078,-0.02403052,0.47234347,0.0941841,0.043684423,-0.11287998,0.029502828,0.32325995,-0.20552789,0.17933959,-0.4324603,-0.07844114
IND250002AAA,-0.0011780534,-0.17559946,0.15459491,-0.15518302,0.23044254,0.31169248,-0.12547562,0.21894996,0.22599256,-0.10531309,0.16174525,-0.41334236,0.36705065,0.08254722,-0.26114678,-0.010358879,0.00081549585,0.1265876,-0.0026403405,-0.09673752,0.2240641,0.051232364,0.46633816,-0.046346433,0.019579904,-0.1429229,-0.04572113,0.18146461,-0.13358305,0.3514083,-0.3451486,-0.11228827
IND250609AAA,-0.10260361,-0.55584115,0.17722379,-0.10845126,0.12256956,0.1418954,-0.21037042,0.3770177,0.16288386,0.24456865,0.014746077,-0.084284306,0.3414919,0.08121437,0.25860277,-0.18191762,-0.021723956,-0.010322809,0.17501661,-0.2216205,-0.05774606,0.119203255,-0.004964062,0.07810587,0.049659885,-0.4428689,-0.00057660043,-0.065862454,-0.05054646,0.31106952,-0.2589301,0.19290398
IND250611AAA,-0.09139803,-0.54749876,0.19286871,-0.09118709,0.13286889,0.16640948,-0.21822342,0.33288434,0.14512664,0.21560982,0.0352925,-0.10900952,0.35785538,0.07536369,0.21446468,-0.2025941,-0.028787658,-0.037405282,0.14708076,-0.21358548,-0.06593126,0.099674255,0.017582886,0.06409662,0.03873945,-0.44872826,0.005419135,-0.07454521,-0.032131635,0.34235406,-0.3101684,0.16718698
IND251001AAA,-0.08519099,-0.5610679,0.17006733,-0.11444387,0.17414013,0.20206,-0.23474494,0.34330282,0.13470325,0.21731728,0.06920817,-0.16206017,0.36791486,0.078161076,0.15807326,-0.18701008,-0.013670608,-0.025223523,0.117673606,-0.20768994,-0.080058865,0.09384577,0.040813915,0.06367466,0.05509282,-0.44211507,0.017913274,-0.030155055,-0.10448992,0.30938703,-0.3040906,0.16920178
IND132001AAA,0.00028248504,-0.08265859,0.39104742,0.5664783,-0.048295975,0.49559143,-0.17936511,0.14734204,0.10381191,-0.55105096,-0.12819257,-0.16450521,0.06409018,-0.0034996378,-0.00027412176,0.042863116,-0.12509368,0.06534023,-0.44097066,0.33225578,0.46051776,-0.08112646,0.3652994,-0.03983327,-0.48820746,-0.094564795,-0.3626634,-0.038484886,0.16291285,0.71483284,-0.7362943,-0.23712045
IND132103AAB,0.33608854,-0.13894492,0.17485145,0.98795325,-0.20147714,0.5711297,-0.0943556,-0.39019102,0.42874312,-0.46485996,0.026708245,0.11300366,-0.09668665,-0.10722382,0.31115523,-0.04160559,-0.4863164,0.18105032,-0.8936956,0.6932534,0.60457826,0.09133941,0.48708495,0.24829167,-0.5746573,-0.07995046,-0.52985954,-0.58713424,0.44428855,0.8123948,-0.59397376,-0.07128906
IND133004AAA,0.016868379,-0.026456907,0.016822487,0.010481827,0.07241443,0.115569614,0.06907503,-0.05008232,-0.07129786,-0.08578858,0.15354976,-0.0206557,0.0026587844,-0.0076375157,0.06649831,-0.0031076483,-0.0004919879,-0.02000253,-0.044875283,-0.014955094,0.13682713,-0.076300904,0.39414585,-0.043179214,0.24801652,0.041027315,-0.13841721,0.087103225,-0.29438126,-0.062377613,0.13790463,-0.11082825
IND135001AAA,-0.11058463,-0.4328934,0.22098127,0.08934681,-0.02543898,0.15146449,-0.03707648,0.16333698,0.17772128,0.30392495,0.12600142,-0.15011221,0.109256804,0.025916189,0.30312932,0.0028274655,0.053227186,-0.05882945,0.27867943,-0.09230073,0.24935497,0.08770854,0.1307694,-0.1792039,0.13299434,-0.26233244,-0.08162023,-0.012083638,-0.30437595,0.1605898,-0.019304968,-0.02391265
IND134102AAA,-0.13094203,-0.22005665,-0.035289697,-0.11682132,0.28604218,0.33603257,-0.012544226,-0.08397645,-0.15728574,0.09092382,0.3379423,-0.06535022,0.10852947,0.13748065,0.14273825,0.07607454,0.02818565,0.17469507,0.07128747,-0.030195486,0.101757035,-0.0531492,0.11904925,0.027542513,0.4182459,-0.18843614,0.22591825,0.09694338,0.14198689,-0.05618847,0.3672098,0.0046846047
IND174103AAA,-0.16889243,-0.34684688,0.037594095,-0.23375505,0.16694501,0.22351573,-0.1034174,0.26857507,0.19070934,0.41778922,0.2941137,-0.26873383,0.14341283,0.120921806,0.071297415,0.13787568,0.25650302,0.13289993,0.22311957,-0.11797443,0.13213089,0.06964402,-0.17831796,-0.07056576,0.17595616,-0.1736627,0.1885573,0.21865635,-0.30120164,-0.02681366,0.2294956,0.1579634
IND134109AAA,0.1010901,-0.1517729,0.07189683,0.051528215,0.027676858,0.17221597,0.042955294,-0.07646986,0.014224812,-0.19199966,0.15318342,-0.091977626,-0.0637285,-0.065293625,0.13237715,-0.06533393,-0.034908008,-0.03517653,-0.11997451,0.010463532,0.20692778,-0.096707635,0.52586764,-0.027179882,0.28571528,-0.071425974,-0.1672027,0.08309683,-0.60208076,-0.06165517,0.069434345,-0.20812815
IND134203AAA,-0.22081645,-0.9312487,0.5362012,0.5767302,-0.35502973,0.03202319,-0.13763748,0.46190888,0.26178795,0.5184329,-0.1866402,0.0893767,0.0006764084,-0.0968439,0.9459114,-0.10309237,0.11147775,-0.3762903,0.5965543,-0.10872449,0.2971316,-0.057229422,-0.41834185,-0.25241607,-0.2230887,-0.63043284,-0.25954026,-0.3031621,-0.1927184,0.48454863,-0.5260994,0.04311171
IND140501AAA,-0.16051488,-0.6984798,0.13521266,0.3810414,-0.14762908,0.53369015,-0.36850464,0.29138994,0.16076154,-0.1694498,-0.0067435503,-0.24376173,-0.15867811,0.092592,0.4880475,-0.36801615,-0.044480115,-0.16542786,-0.49384123,0.14149624,0.33627903,-0.3821102,0.33667052,0.19191673,-0.07974116,-0.21983889,-0.08609919,-0.041479647,-0.13780722,0.29347926,-0.6774483,-0.10842044
IND173025AAA,-0.096433245,-0.35897177,0.03145969,0.10688388,-0.12710913,0.21899426,-0.27002096,0.026363805,0.27539653,-0.0032088384,0.05184847,-0.21835263,-0.055460453,0.14787006,0.008321762,-0.16311559,-0.083897814,-0.03819461,-0.3173179,-0.01987344,0.2902177,-0.059578843,0.14442962,0.14476451,-0.039941713,-0.15506333,-0.068301946,0.023367062,-0.09056138,0.26646456,-0.3972188,-0.030145422
IND136027AAA,-0.056642212,-0.31687427,-0.22596681,-0.32303244,0.23012254,0.13416064,0.015806513,0.04749968,-0.105627,0.18382859,0.33143085,-0.46232498,-0.006450683,0.06143109,-0.061925903,-0.058416728,-0.07438235,0.21345025,0.1317238,-0.16231465,0.041682363,0.008666152,-0.008810036,0.1281148,0.55638593,-0.14251155,0.25574082,0.25103247,-0.40013775,-0.15784541,0.26248407,-0.093729004
IND132039AAA,-0.042984527,-0.103819504,-0.2588585,-0.38507235,0.08008984,-0.0527555,0.1367249,0.14293766,-0.16896033,0.15619037,0.17455329,-0.3279644,0.052158758,0.13940087,-0.21294186,0.021422705,-0.014396619,0.16078465,0.23895678,-0.21907872,-0.13100427,0.08015571,0.026734993,-0.05284696,0.35444558,-0.031644378,0.19882435,0.24787319,-0.26506037,-0.12381231,0.1730153,-0.049124744
IND136128AAA,-0.19426705,-0.5994605,-0.16296257,-0.18225902,0.2536186,0.32965016,-0.15185471,0.20948508,-0.07923955,0.09519269,0.2566076,-0.41260397,-0.007097557,0.06268381,0.11016376,-0.11090769,0.08563723,-0.09696724,0.041667946,-0.21082973,-0.10779539,-0.26838994,0.11563385,0.1235876,0.39913332,-0.2268903,0.2827971,0.21087497,-0.33010465,-0.015719213,0.0019688755,0.014003798
IND140001AAA,-0.29519406,-0.6344363,0.039343104,-0.12771505,0.19576293,0.43308544,-0.16128437,0.4371899,-0.027879,0.21452913,0.3142403,-0.22735414,-0.020983875,0.11559676,0.0964932,-0.20067716,0.13421038,-0.15495707,-0.076722525,-0.08332523,-0.020568311,-0.4466964,0.16942918,0.16794065,0.20314407,-0.29951364,0.24028903,0.26544374,-0.021884546,0.10107316,-0.23117267,0.031360537
IND140118AAA,0.015316921,-0.5952238,-0.122217596,-0.16785526,0.1444542,0.2624268,-0.10357511,0.015913745,-0.023348883,0.16680035,0.30641738,-0.34759045,-0.04521504,-0.025501966,0.17412513,-0.13758218,-0.10205285,0.09286602,-0.09960455,-0.08541213,0.19551805,-0.008713037,0.35112715,0.19079727,0.59933686,-0.22375435,0.19569664,0.1756268,-0.5221,-0.061547495,0.11160038,-0.12020373
IND140301AAA,-0.23582113,-1.0409951,0.4709866,0.48703653,-0.28133893,0.13503078,-0.17083137,0.5076441,0.20278926,0.61265194,-0.07781023,0.047663227,-0.03361477,-0.051950604,0.857716,-0.0939111,0.182632,-0.39857668,0.5817242,-0.1326716,0.23178603,-0.06994916,-0.3847139,-0.24987303,-0.1538893,-0.60090053,-0.20545895,-0.19787763,-0.34437054,0.34400368,-0.41098237,0.074371316
IND140901AAA,-0.21052125,-0.7038862,0.3185918,0.14181072,-0.030411184,0.21667749,-0.1806453,0.5208063,0.16324568,0.40815803,0.1131655,-0.17387426,0.04797314,0.08523797,0.27859473,-0.12882194,0.17763977,-0.2185192,0.22107244,-0.098072454,0.17592359,-0.16971053,-0.005111493,-0.0700248,-0.09719668,-0.37319088,-0.08617531,0.113069125,-0.10431817,0.29030627,-0.44328243,0.048147872
IND140401AAA,-0.13194497,0.14253157,0.24743497,0.41053846,-0.1646719,0.23033172,-0.10871498,0.214502,0.3259593,-0.21666715,0.14046523,0.16770518,0.17529324,0.35293224,0.011065841,-0.008130401,-0.04149002,0.15509644,-0.22865936,0.17831883,0.23377746,0.22517654,0.30137187,-0.02563215,-0.24854454,-0.02508614,-0.2626729,0.12214852,0.3607061,0.3763951,-0.5126135,-0.03469293
IND160055AAA,-0.103873074,-0.6204905,0.35953033,0.21266714,-0.12040857,0.0599614,-0.15606168,0.49154472,0.2926318,0.3382694,0.022444375,-0.14059442,0.14333789,0.06537619,0.22663291,-0.058646448,0.106943496,-0.13533254,0.2990834,-0.04103878,0.27322972,-0.022079756,0.06451349,-0.10640419,-0.20646086,-0.282121,-0.21960425,0.06956072,-0.05605641,0.3744627,-0.57888603,-0.009898171
IND141003AAB,0.17683429,-0.39023292,0.07453068,0.24455275,-0.06683015,-0.060326215,-0.04662073,-0.33680657,0.19042277,-0.09970063,-0.15466523,-0.0571151,-0.27119392,-0.00040251017,-0.021288574,-0.007360261,-0.25468618,0.061290443,-0.33199918,0.10168592,0.25454408,0.03526603,0.32024956,0.09400838,0.15872705,-0.024270013,-0.16826092,-0.10732409,-0.162612,0.2109552,-0.18302354,-0.17186825
IND142026AAA,0.08761567,-0.33814764,0.20928092,0.40109375,-0.1487746,0.06899208,-0.121187456,-0.4925019,0.391016,-0.15915166,0.044710025,-0.12814069,-0.35200667,0.13668491,0.09328923,-0.043408573,-0.39881647,0.28814176,-0.4746918,0.019236013,0.4199243,0.18630126,0.5650542,0.03478081,0.18058798,-0.006282918,-0.20209666,-0.23288451,-0.018205687,0.329838,-0.14077725,-0.51578647
IND141010AAA,-0.00438698,0.03158755,0.00668782,0.010287985,0.07785742,0.103378974,0.07843052,-0.046395265,-0.07979474,-0.0682009,0.15436831,-0.0012956411,0.019088492,0.009243257,0.061051875,0.021071378,-0.0006611198,-0.01705456,-0.026682641,-0.016522732,0.12180208,-0.061122,0.35803935,-0.058540054,0.22234093,0.07231898,-0.1522659,0.09095083,-0.2264454,-0.0557096,0.15301198,-0.08917783
IND141109AAA,0.18498664,-0.44442922,-0.017963197,0.50494885,-0.072987005,0.043390874,-0.05515918,-0.3425341,0.36977684,-0.0839438,-0.034483224,0.103103325,-0.07043187,-0.0131877735,0.026440352,0.032647394,-0.37860596,0.18651848,-0.73159254,0.38804471,0.53468066,0.048581436,1.0284133,0.20746815,0.08393896,-0.05144011,-0.23843803,-0.34457964,0.14204201,0.5363621,-0.32553774,-0.34574682
IND141115AAA,-0.04003623,-0.14296503,0.11143255,0.046151474,0.022408381,0.16707599,-0.050886318,-0.07138954,0.25277066,-0.06334853,0.22927418,-0.11024543,0.08446978,0.0637715,-0.01940523,-0.045090172,-0.048458613,0.088839404,-0.12432667,0.025839396,0.30164272,0.07846533,0.46268255,0.049427316,0.18632904,0.004710734,-0.12149574,0.05078356,-0.045697972,0.13206337,-0.1047868,-0.11020404
IND151001AAA,-0.071926005,-0.21153465,0.17668444,-0.017073207,0.16619715,0.31127214,-0.13359644,0.39666516,0.4195381,0.08847586,0.19974473,-0.3071744,0.19156948,0.2720912,-0.3220157,0.08516961,0.06857605,0.039935723,-0.03372249,-0.047727585,0.40617228,0.12421149,0.250727,-0.02408024,-0.20895225,-0.17954673,-0.100822866,0.32487416,-0.30955562,0.19447803,-0.37533718,-0.07897595
IND144001AAA,-0.011684823,-0.049148455,0.1271034,0.23130852,-0.0950656,-0.05619161,-0.028258607,0.041636497,0.17139393,-0.04819745,-0.18537037,0.0523936,-0.1473461,0.15884979,-0.038250297,0.13246946,-0.14673486,0.13258043,-0.40543705,0.069624886,0.10403621,-0.034360565,0.22106683,0.074912935,-0.20057912,0.03438393,-0.19647643,0.049412698,0.29355368,0.32007486,-0.28097615,0.006648995
IND144040AAA,0.049684912,0.04498434,0.043688133,0.22291264,-0.06292334,0.004737586,-0.034582555,0.046401978,0.37391788,-0.14238584,0.0019643903,-0.05282502,-0.08927778,0.13880183,-0.2072729,-0.048532844,-0.19255157,0.19419932,-0.51656187,0.05713991,0.31096238,0.09189667,0.33563012,0.0455459,-0.16164967,0.09785282,-0.21022543,-0.04340721,0.1429486,0.2519644,-0.27658784,-0.115097545
IND144401AAB,-0.0437558,-0.31549153,0.015381767,-0.1589111,0.23414989,0.11737313,0.03672664,0.65587085,0.1810511,0.059394397,0.11163524,-0.08428566,0.1983003,0.23118523,-0.4144803,0.076545924,0.17438245,0.03927926,0.028569333,-0.16886295,0.22531056,0.001834013,0.43339956,-0.11102751,-0.22904803,-0.089842044,0.009405352,0.19617312,-0.10152014,-0.06370056,-0.15682113,0.067743644
IND144601AAA,0.025768656,-0.1889236,0.05480061,-0.041050974,0.18082865,-0.05634238,0.07521558,0.51494443,0.22858402,-0.06589812,-0.029117182,-0.049233355,0.20064738,0.08868079,-0.3447933,-0.046369493,0.041707143,0.035747603,-0.06271251,-0.09212594,0.2783177,-0.031922538,0.38343224,-0.06842721,-0.33140117,-0.10958204,-0.12981413,-0.014146149,0.14765313,0.20193224,-0.37503606,0.0077344477
IND144001AAC,0.22957598,-0.44641763,0.08774324,0.25841588,-0.06431753,0.030637145,-0.03697883,-0.35733974,0.22230849,-0.17110668,-0.15544376,-0.09416627,-0.27283376,-0.056580827,-0.0012190491,-0.068429396,-0.23578843,0.056524538,-0.37382013,0.094522886,0.3654374,0.0009653196,0.36690113,0.114220634,0.19725317,-0.02572991,-0.18698807,-0.08263664,-0.26539886,0.20569158,-0.30073768,-0.23429015
IND144527AAA,-0.025665548,0.028381027,-0.0007048547,0.02718275,0.089444555,0.086239696,0.08216575,-0.06839182,-0.11462288,-0.0017897077,0.14906329,0.00667423,0.036168158,0.034222387,0.060165048,0.045571525,0.016034016,-0.0037886016,0.046562765,0.0012354553,0.05823557,-0.05818236,0.29370913,-0.03786233,0.23137058,0.11071411,-0.100572094,0.06665316,-0.09769251,-0.06511165,0.1852272,-0.063785546
IND145001AAA,0.42643937,-0.017618239,-0.41007805,-0.00034439564,-0.30635244,-0.65347946,-0.2150446,0.24462669,-0.08378899,0.1402465,-0.67153084,0.5338913,-0.17980202,0.2908836,-0.24582432,0.07524206,-0.07609292,-0.028519461,-0.0856466,0.17801209,-0.5066663,0.27831584,-0.04528822,0.10976153,-0.05145342,0.04971614,0.16724776,-0.32817173,-0.27919027,-0.44403896,0.14101043,0.032094665
IND176201AAA,0.46130157,-0.17386994,-0.265557,0.03733124,-0.21564007,-0.73825264,-0.1513404,0.080546394,-0.08093007,0.11459467,-0.7019044,0.57278264,-0.27003708,0.20969483,-0.17211275,0.20625815,-0.10398585,0.018215142,-0.15690619,0.06804624,-0.42693186,0.27382335,-0.10352163,0.074095786,-0.1060334,-0.083690025,0.14711843,-0.4123553,-0.18578373,-0.3699562,0.16402271,0.07425981
IND176303AAA,0.4280242,-0.19492841,-0.36716992,-0.014892712,-0.21808407,-0.68871117,-0.11552356,0.146707,-0.16659275,0.1293573,-0.6525908,0.5181223,-0.2203561,0.21120597,-0.25774217,0.1078516,-0.019287812,0.07028473,-0.11458278,0.091557235,-0.41992104,0.23914151,-0.03268741,0.09087109,-0.12729049,-0.0353979,0.20255183,-0.35830933,-0.06524055,-0.34100384,0.10179973,-0.041398257
IND147001AAB,-0.15256903,-0.49039093,0.19606417,0.029096216,0.013924956,0.18132202,-0.072603345,0.18917266,0.1523658,0.39968142,0.18014896,-0.0897579,0.07973875,0.053427204,0.30983552,0.047144413,0.11106378,-0.027191378,0.26954466,-0.11925189,0.17960827,0.0885997,0.09370379,-0.18927021,0.18168196,-0.26469427,-0.06763372,0.047415193,-0.3338015,0.117987335,0.07605876,-0.008647414
IND147201AAA,-0.22025624,-0.14821316,-0.033764366,-0.21116157,0.19044691,0.26454774,-0.19944088,0.14387763,0.007675685,0.14076328,0.29078218,-0.1259386,0.17249285,0.1741725,0.0046081245,0.05139126,0.11005369,0.06952995,-0.03218577,-0.017882828,0.054383144,-0.111383885,-0.030912384,0.16905296,0.15943164,-0.24402736,0.21598333,0.1989589,0.09031918,0.060717933,0.034609415,0.10546184
IND147001AAD,-0.14578938,-0.4309625,0.20157517,0.065151155,0.018677756,0.19259736,-0.09180297,0.1533159,0.19603805,0.34402537,0.14481533,-0.055291638,0.10669852,0.039457425,0.29188037,0.039982665,0.095177054,-0.023331404,0.2238289,-0.08118115,0.21918184,0.06990222,0.08322159,-0.20585465,0.10249032,-0.28670985,-0.087362885,0.01780987,-0.27507412,0.2145487,-0.02500762,-0.053898677
IND148023AAA,-0.17074883,0.28482783,0.08570556,-0.10006161,0.14016664,0.38471946,-0.15135403,-0.016662091,0.14728889,0.08287241,0.42491484,-0.07344137,0.28534147,0.23576385,0.08138342,0.108890325,0.122621335,0.20192477,0.03499064,0.04907215,0.15679687,0.12460497,-0.282449,0.11078125,0.07830831,-0.12843463,0.088204086,0.15988077,0.110602275,0.04123242,0.17960706,0.15663522
IND147101AAA,-0.060340207,-0.3493044,0.44730765,0.32991526,-0.09007649,0.16309023,-0.062361494,0.4213439,0.19931492,0.07257889,-0.04759466,-0.09352978,0.2659824,0.037320077,0.030487895,0.042000152,0.07580158,-0.110365964,0.21611744,0.09674631,0.3190786,-0.0589537,0.022668667,-0.21532536,-0.40335667,-0.4018108,-0.25177264,-0.02817975,0.1472291,0.6704117,-0.71993184,-0.14708845
IND147105AAA,-0.063682094,-0.35253173,0.4487287,0.32748723,-0.09133824,0.16761582,-0.068899944,0.42293647,0.20281765,0.078363046,-0.045870427,-0.094646215,0.2689175,0.045456663,0.026386812,0.043838933,0.07908118,-0.111595266,0.2202852,0.09969425,0.3200904,-0.054896276,0.025435299,-0.2160792,-0.4065115,-0.39862174,-0.24860641,-0.020859316,0.14573167,0.67298377,-0.72063,-0.14973804
IND148001AAA,-0.14264989,0.49750698,-0.029320195,-0.024421513,0.0341084,0.3107602,0.058570035,-0.102501184,-0.033123344,0.014983334,0.5258724,-0.015842289,0.18685643,0.06486611,0.29406804,0.07199748,0.114413306,0.13378266,0.22144693,0.058493726,-0.103472024,0.11647232,-0.45875108,0.039185442,0.07713709,0.095647305,0.021138137,0.060137976,0.2729902,-0.13064206,0.44848996,0.34326875
IND148024AAB,-0.15667747,0.48234406,-0.04138814,-0.008091688,0.036630563,0.30926228,0.08572608,-0.13348415,-0.0800128,0.02596391,0.5196304,0.020239398,0.19021036,0.03734593,0.3197403,0.060220577,0.12244594,0.15420815,0.22832693,0.073839776,-0.113544434,0.08411853,-0.48335183,0.018000092,0.092607856,0.11391871,0.022240218,0.058520444,0.3867095,-0.10709895,0.4663307,0.3603779
IND148028AAA,0.064823695,-0.1224169,0.03179932,0.029310957,0.110535875,0.1128296,0.031109735,-0.09537815,-0.026188247,-0.04354528,0.09065924,0.010491565,-0.0010250658,0.048691854,0.04684812,0.017050955,-0.020638015,0.020565126,-0.004818622,0.036203593,0.1099122,-0.03652291,0.38057697,-0.011085324,0.23866047,0.016678825,-0.082909256,0.06402485,-0.25867805,0.0034280159,0.08932203,-0.15810096
IND148101AAA,0.038042046,-0.0033320878,0.106358804,-0.121596634,0.21543373,0.050098006,-0.044946622,0.3614346,0.20946069,-0.021804042,-0.045282662,-0.2265319,0.15438129,0.04563716,-0.6157312,0.010157317,0.12016001,0.026357453,0.016752556,-0.061921783,0.3043239,0.047625892,0.22736138,-0.06953407,-0.32519138,-0.08612299,-0.10217376,0.103658035,-0.054996796,0.29142547,-0.2968727,-0.059375018
IND148102AAA,0.0054464713,0.27416822,0.06658735,0.22095072,-0.23914807,0.058766,-0.099445835,0.2280222,0.274163,-0.20426722,0.06569024,-0.0068778545,-0.08968139,0.18989289,-0.16607136,-0.075694636,-0.20428863,0.09940682,-0.300879,-0.009899236,0.21194954,0.13851163,-0.022040986,0.1031658,-0.24370483,0.13728917,-0.32124794,0.03686653,0.14383219,0.1413511,-0.201213,0.14010374
IND151103AAA,-0.14286396,-0.2114952,0.00093432516,-0.27318257,0.29380298,0.18912077,-0.016011067,0.5086286,-0.005566247,0.094063684,0.12203553,-0.14072776,0.21166758,0.11533623,-0.5020323,0.091525555,0.18253173,-0.055508576,0.12191992,-0.109287135,0.09746401,-0.05308191,0.15413749,-0.12226228,-0.105305985,-0.16755745,0.14558277,0.2242688,-0.17167094,-0.0011922698,0.009607568,0.03914707
IND151302AAA,-0.11446384,-0.17993256,0.022022724,-0.29772002,0.304125,0.22077961,-0.07173611,0.51570857,0.066030905,0.09080369,0.11404297,-0.17459722,0.19159712,0.11793555,-0.5789634,0.09150911,0.19009133,-0.07444418,0.1009802,-0.14083427,0.13453922,0.020493343,0.26792744,-0.14491221,-0.18595715,-0.14501153,0.11190266,0.2793401,-0.28436622,-0.015075179,-0.04605914,0.039942034
IND151505AAA,-0.16785596,0.0519621,-0.20946193,-0.24105895,0.039055012,0.09439173,0.040514693,0.35715353,0.04673376,0.15093705,0.3208347,-0.16388395,-0.0098847225,0.24454008,-0.31125033,-0.0042954255,0.0011373535,-0.02297958,0.24497415,-0.30468383,-0.07388446,0.12823272,-0.13993917,0.097802095,0.13828519,-0.16956478,0.103584334,0.29473454,-0.40562028,-0.26722726,0.21481791,0.1784032
IND151506AAA,-0.08719154,0.2157709,-0.20836876,-0.17409879,-0.060444154,0.23833568,0.09053992,0.06502561,0.118022464,-0.056746315,0.45727393,-0.29908794,-0.055503875,0.19139662,-0.0064487755,-0.14857626,-0.047454912,0.1367976,0.30205995,-0.34117234,-0.024256207,0.299135,-0.32275188,0.13083605,0.3636809,-0.18639585,0.032043725,0.24635285,-0.75447106,-0.3573709,0.4265956,0.09101713
IND152024AAA,-0.047976553,-0.14216629,0.11940785,-0.051863015,0.14993787,0.17390797,-0.0134110935,0.2751572,0.0038061216,0.109133534,0.17577614,-0.037576213,0.22403741,0.0762689,-0.10277426,0.12933224,0.13625114,-0.009000739,-0.095564224,0.12189286,0.09983981,-0.13441585,0.23314206,0.07807754,-0.07899376,-0.07895084,-0.036448516,0.20102073,0.31502387,0.27645665,-0.28877878,0.014369287
IND152123AAA,-0.25272036,0.07649368,-0.09656926,0.17490876,0.14715916,0.32192653,0.10395557,-0.049019374,-0.3135419,0.17131887,0.4160722,0.2065309,0.18260044,0.09251339,0.46960807,0.07527731,0.07328785,0.102284506,0.20173486,0.12108244,-0.15389514,-0.08141585,-0.19611165,0.018299602,0.24610448,-0.010462049,0.05298771,-0.047475524,0.600119,0.01510527,0.40215743,0.32376236
IND140603AAA,-0.30870867,-1.0071069,0.40380177,0.4050482,-0.2794426,0.10948774,-0.15983588,0.60651517,0.2305808,0.66475064,-0.08509989,0.089055344,-0.06034525,-0.017916918,0.91445386,0.045736134,0.23335668,-0.30632374,0.5939492,-0.18149647,0.22635049,-0.020768633,-0.38795048,-0.26428792,-0.06916296,-0.5611619,-0.1633898,-0.12539011,-0.43750829,0.17799628,-0.2396158,0.14779103
IND160003AAA,-0.29965788,-0.9855259,0.43642297,0.43889818,-0.30264795,0.10163692,-0.1466607,0.55327827,0.22756296,0.62332535,-0.11296636,0.13882259,-0.047414884,-0.040111586,0.9498368,-0.008424412,0.19723561,-0.34060934,0.6053565,-0.18558761,0.23856832,-0.041765273,-0.40332997,-0.2757926,-0.10076436,-0.59283054,-0.1780409,-0.19722669,-0.3294113,0.27891737,-0.30381042,0.110958286
IND160102AAC,-0.2893129,-1.0332888,0.41745225,0.42366868,-0.27069306,0.1256463,-0.16968785,0.5749863,0.19616292,0.6592861,-0.06058202,0.0451072,-0.051195215,-0.029132172,0.8647274,-0.00091732666,0.2244513,-0.33223027,0.5835052,-0.15111065,0.20704475,-0.034206994,-0.37850067,-0.2514348,-0.08684068,-0.56254125,-0.16813157,-0.11618386,-0.43465447,0.20136286,-0.28454256,0.1255313
IND173212AAA,-0.193043,-0.37991342,0.13369185,-0.057676375,0.07688798,0.23110783,-0.1312368,0.3011727,0.17172748,0.3780085,0.17558251,-0.12142319,0.12006785,0.07482429,0.19900617,0.07332373,0.20914797,-0.043645613,0.242982,-0.097346835,0.14291254,0.011659194,-0.27748483,-0.12547621,-0.009647632,-0.3342049,0.07052921,0.10779639,-0.28359464,0.1319479,-0.0021627545,0.09250637
IND174001AAA,-0.1738187,-0.5559703,0.12671594,-0.017453566,-0.03786269,0.13506356,-0.14850298,0.25419673,0.15125035,0.4743496,0.19593,-0.20586738,0.04924864,0.07174723,0.2853567,0.09338015,0.17858006,0.029411301,0.28302872,-0.14478663,0.16448313,0.092446335,0.06582123,-0.13691714,0.2684534,-0.23378739,-0.01964438,0.13102314,-0.48931772,-0.047344152,0.10853955,0.04550896
IND174307AAA,-0.2341286,-0.94517154,0.50043243,0.551576,-0.3435014,0.04523389,-0.16039707,0.49521142,0.2789344,0.5563648,-0.16496426,0.08155225,-0.012067668,-0.090189844,0.9294763,-0.0851455,0.1416851,-0.3590481,0.58631784,-0.0955946,0.29625002,-0.046920635,-0.40502378,-0.24230674,-0.20296809,-0.58460796,-0.25019288,-0.250938,-0.23555994,0.40540546,-0.5022357,0.05662276
IND176041AAA,-0.17125131,-0.5747644,0.36181438,0.18865436,-0.091032006,0.19459164,-0.15801674,0.56819874,0.25596857,0.31291714,0.017836299,-0.13607544,0.13973264,0.1715216,0.28375176,0.0051689874,0.16465527,-0.1500775,0.27705395,-0.06185265,0.25323018,-0.10366857,0.007957742,-0.12448631,-0.18895379,-0.3872826,-0.10658854,0.07711178,-0.060281552,0.39632338,-0.4997818,0.018479481
IND181152AAA,0.025450878,-0.023876999,0.4048382,0.21363208,-0.04468433,0.24406762,-0.05230496,0.3902612,0.3060669,-0.033064336,0.03635201,-0.058904797,0.32309166,0.12575589,-0.1731237,0.16214268,0.0666208,-0.029731233,0.11734787,0.14083168,0.42912346,0.07740595,0.022697806,-0.1697087,-0.45841497,-0.3111576,-0.23817964,0.06370853,0.21398576,0.61887455,-0.6615504,-0.13715729
IND184104AAA,0.0035964437,-0.060296807,0.3891371,0.38813674,-0.16542146,0.2620142,-0.08595581,0.24990523,0.3456186,0.024586111,0.029078417,0.023437843,0.2847067,0.08281331,0.071485996,0.08164112,0.076959714,-0.08598642,0.14725795,0.14620578,0.38394237,0.08723232,-0.22046185,-0.18828884,-0.49589723,-0.41845173,-0.23047224,-0.091298476,0.16781735,0.64972794,-0.6883067,-0.14161897
IND160102AAD,0.13261065,-0.13807882,0.086525664,0.056966737,0.055520408,0.17881748,0.050991196,-0.100056864,0.050333768,-0.19071566,0.13405287,-0.043379016,-0.04793544,-0.023265347,0.08812401,-0.04664966,-0.04325022,0.010855161,-0.13404037,0.05552327,0.22385152,-0.05437395,0.48787892,-0.04814309,0.2751619,-0.07050049,-0.16718917,0.09572944,-0.5329696,-0.008839749,0.038539693,-0.22636956
IND160002AAD,-0.20417061,-0.25007838,-0.03396947,0.35995662,0.0114116445,0.42721125,0.13596469,-0.57314056,-0.16244578,-0.061080236,0.46549785,-0.007130444,-0.07446667,-0.03476016,0.7715467,0.030697256,-0.3227644,0.03667265,0.034377977,0.15176693,0.17214224,-0.0036272407,0.3185456,0.030313268,0.6099536,-0.11911003,-0.04408563,-0.17751895,-0.19833292,-0.12508963,0.5841591,-0.1697904
IND173220AAA,-0.20049009,-0.046819873,-0.08404879,-0.28148422,0.3428683,0.32264277,-0.10038298,0.258851,-0.14596081,0.17458591,0.27978116,-0.057168975,0.1040576,0.28489196,-0.14896584,0.14212303,0.15549496,0.045165144,0.08277032,-0.06289813,-0.031491935,-0.086907506,-0.12801337,0.08747192,0.027962225,-0.25105375,0.28481323,0.24951129,0.13323489,-0.020385914,0.14393735,0.114464566
IND175018AAA,-0.16688086,-0.34741956,-0.16848972,-0.29197848,0.3222134,0.15415356,-0.032776844,0.3038327,-0.029277638,0.22662248,0.2878663,-0.32489067,-0.0026729107,0.18646635,-0.26238832,-0.014782071,0.05001127,-0.0408929,0.0718727,-0.23955373,-0.023174845,-0.09130366,0.009114519,0.11186589,0.22261757,-0.17933592,0.27712232,0.25054836,-0.29572624,-0.1417391,0.09575614,0.019843552
IND174021AAA,-0.051724106,-0.046292692,-0.027587354,0.05145812,0.0761472,0.045907848,0.058233596,-0.06011153,-0.13652435,0.062074624,0.08767138,0.039956927,0.04604584,0.04559879,0.066908866,0.053556673,0.043114904,0.03509542,0.13914749,0.017150726,-0.023337916,-0.06250437,0.23064756,0.0077203214,0.19052096,0.11623809,-0.026636956,0.01649221,0.03252749,-0.047087263,0.14548343,-0.07124798
IND176048AAA,-0.03272537,-0.2525866,-0.06731157,-0.06852421,0.11728177,0.15553568,0.1363586,-0.39440396,-0.10486111,0.113690004,0.24691994,-0.011793718,0.013370588,0.023853362,0.2441105,0.012624018,-0.0680477,0.20657554,0.10645188,-0.0019118525,0.11062935,0.059817523,0.33489993,-0.07721457,0.6228278,0.079454616,-0.023999006,-0.08907822,-0.025029581,-0.05916571,0.45209536,-0.2311517
IND174101AAB,0.081574544,-0.12232754,0.042933203,0.025308065,0.10316471,0.13192469,0.036906675,-0.089700185,-0.012368433,-0.07885052,0.09846775,0.0038006157,-0.006297201,0.040148772,0.043589324,0.006352324,-0.023106769,0.020308038,-0.0404004,0.035414413,0.14444277,-0.037035346,0.4103347,-0.02351895,0.24646683,-0.0034801215,-0.10208781,0.08127971,-0.31852788,0.0034625381,0.0749654,-0.17096594
IND175001AAA,-0.048467647,-0.04635395,-0.26320916,-0.34268087,0.19870368,0.1016652,0.083840534,0.2719891,-0.035230666,0.024767168,0.26335624,-0.39257893,-0.11027275,0.1409189,-0.31756902,-0.046287023,0.025290377,0.11815667,0.19611552,-0.3471471,-0.014437139,0.09027522,-0.16770282,0.07367523,0.2992752,-0.115762815,0.17882672,0.33576047,-0.5665941,-0.26242244,0.24945998,-0.014044005
IND175101AAA,-0.04425765,0.16778691,-0.21348141,-0.23074824,-0.037483618,0.09343006,0.10985547,0.11622567,0.13524975,-0.024976421,0.31433177,-0.3758914,-0.15266961,0.23010951,-0.22038047,-0.056732412,-0.062344216,0.09264024,0.15846838,-0.40944684,0.09529235,0.24200207,-0.023708582,-0.073878616,0.32154968,-0.15646708,0.019927707,0.30877188,-0.9261038,-0.34589157,0.3577789,-0.118058845
IND175015AAA,0.0501541,-0.37384483,-0.12604617,-0.2311239,0.079317465,0.17396487,-0.032408103,-0.4417473,0.0351523,0.13846737,0.29466766,-0.27496672,0.010858253,-0.08066501,0.26592314,0.0535768,-0.07141887,0.23409396,0.066047415,-0.12900555,0.22488235,0.11742389,0.4066752,-0.08691038,0.86766815,0.011549637,0.15254283,0.019845756,-0.4264899,-0.08481964,0.48532498,-0.25724652
IND176061AAA,-0.11472617,-0.05639474,0.08842125,0.3500027,0.011883572,0.45381716,0.2031137,-0.5864806,0.036405474,-0.1461038,0.49018198,-0.03875345,-0.044615656,0.020825937,0.54922634,0.011310624,-0.20003474,0.059369035,0.016826697,0.118856646,0.29095173,0.16533162,0.29356968,-0.11740491,0.5900123,-0.037147388,-0.22681236,-0.087272294,-0.5054163,-0.1598649,0.56544197,-0.17844163
IND176110AAB,-0.065813676,-0.27593043,-0.034875795,0.042978093,0.11932471,0.28898132,0.14779532,-0.4763703,-0.103573486,0.01650688,0.331913,-0.021815479,-0.013896927,0.015603669,0.3624307,0.018511243,-0.1334356,0.13612598,0.059400454,0.036743227,0.18729559,0.06543754,0.3944012,-0.08369612,0.67811066,0.033040106,-0.058977924,-0.08445978,-0.17652762,-0.09029886,0.503403,-0.21978092
IND177033AAA,0.009747123,-0.45807588,-0.07561505,-0.08397527,0.11009206,0.38046086,-0.008338425,-0.5811095,0.07861972,0.07956446,0.42928046,-0.38192815,-0.08628291,-0.1401086,0.48001802,-0.037631094,-0.13983342,0.18231419,0.040438976,-0.040106036,0.32458392,0.0921908,0.32917136,-0.057338484,0.9077821,-0.06696057,0.16896865,-0.027248982,-0.6551808,-0.102321856,0.57966983,-0.275287
IND176215AAA,-0.0062141307,0.026316553,0.0050798133,0.010770865,0.08185047,0.09960982,0.07857533,-0.048507743,-0.08682393,-0.051176656,0.1548759,-0.0014097691,0.02318693,0.016417027,0.057027996,0.0265547,0.003775075,-0.0133905355,-0.0130437985,-0.014946001,0.11041263,-0.06117756,0.34748662,-0.05227819,0.22806433,0.07940951,-0.14087626,0.088254005,-0.20358907,-0.059229568,0.16076279,-0.08530883
IND176310AAA,0.45932475,-0.16151194,-0.40705162,-0.0797256,-0.21376693,-0.73781955,-0.17370062,0.22440323,-0.10153815,0.11678107,-0.6882808,0.4993664,-0.15935099,0.14977932,-0.32414782,0.05690607,-0.04673978,-0.046524625,-0.07960488,0.12025937,-0.4059937,0.18521461,-0.13224027,0.08505915,-0.031185575,-0.0674204,0.16434397,-0.3873036,-0.1505815,-0.4132235,0.023546368,-0.08054641
IND177001AAA,-0.031592995,-0.002773255,-0.008776084,0.033118792,0.084884636,0.07743387,0.07323712,-0.069612555,-0.11988891,0.015007272,0.13411397,0.011625767,0.037814774,0.041588612,0.059853107,0.051162478,0.022694161,0.007946927,0.06972624,0.008960582,0.03627061,-0.061431393,0.28226328,-0.018335193,0.22895512,0.10741138,-0.07536766,0.050332926,-0.077497646,-0.06267607,0.17317544,-0.07450005
IND177101AAA,-0.0962819,-0.18870413,-0.046459213,0.3045099,0.06741533,-0.10949828,0.13779089,-0.20182717,-0.5715227,0.06694277,-0.4336452,0.39877647,-0.0003514588,-0.17283572,0.49898422,0.14263467,0.16189308,-0.053557664,0.5281716,0.16826501,-0.3395242,-0.11287332,-0.15430327,-0.14810272,-0.19927938,0.16523972,0.14648518,-0.2665651,0.9556806,-0.03749294,0.106572635,0.11010965
IND176001AAA,0.085445136,-0.1314784,-0.13792163,0.06429085,-0.20610537,-0.13159475,0.20786756,-0.34438074,-0.7754036,-0.18219192,-0.6399615,0.4526319,-0.07598935,-0.2319972,0.47848678,0.31746483,0.049899396,-0.17977102,0.31754506,0.05790902,-0.32595548,-0.030592307,-0.13043046,-0.30008346,-0.11049993,0.10823693,0.23731211,-0.32077652,0.6204544,-0.38127246,-0.0034052804,0.029799987
IND177203AAA,-0.10769591,-0.040456697,-0.070069075,0.22548436,0.08159407,-0.09679455,0.07655539,-0.016378663,-0.3498136,0.21111324,-0.20794606,0.27196443,0.039385952,-0.020516708,0.3638846,-0.002875898,0.016874732,0.043422177,0.40711895,0.098415054,-0.27974653,-0.1252025,-0.049103305,-0.05525089,-0.09170066,0.17050414,0.052965354,-0.08717351,0.72223055,0.043686166,0.111241505,0.06415507
IND184121AAA,-0.077772856,0.38905314,0.3988662,0.3715756,-0.14099431,0.4313159,-0.20910418,0.09055479,0.5988921,-0.3041865,0.16898899,-0.06981714,0.34889007,0.24908893,-0.1432712,0.14865407,0.05061111,0.20154184,-0.09065247,0.22496183,0.51598346,0.2664119,-0.06573023,-0.058194432,-0.5769994,-0.16336699,-0.36139333,0.08326341,0.25089327,0.5525793,-0.70484364,-0.10951797
IND181152AAB,-0.01615762,0.10727369,0.29190344,0.24450612,0.12392475,0.5168197,-0.091934785,-0.119653285,0.387381,-0.16140866,0.24343802,-0.10611621,0.1419118,0.018082049,-0.049114585,0.08341932,0.050912052,0.15721068,-0.13446556,0.2604899,0.501036,0.059551686,-0.14295493,0.10957058,-0.20845652,-0.13093063,-0.11908644,0.04764238,0.20618407,0.39136615,-0.3156438,-0.103961155
IND181201AAB,0.06376348,0.21776018,0.17427471,0.23807265,0.05012227,0.4240695,-0.049906842,-0.27462855,0.12303379,0.07593232,0.36165673,-0.08518466,0.16487351,0.048875164,0.36873907,0.13103768,0.0690605,0.26842138,0.0853646,0.21283138,0.21480115,0.03314121,-0.23802528,0.065660134,0.03884735,-0.041270383,-0.06717571,-0.08359098,0.4411354,0.25949124,0.14774656,0.0005421974
IND201001AAA,-0.12354699,-0.0593295,0.12285485,-0.09897017,0.19828017,0.28612134,-0.14319828,0.29548478,-0.034237586,0.049086027,0.077875525,-0.13906005,0.19509557,0.062050477,-0.4844206,-0.0049282648,0.1994328,-0.059454102,0.005865976,-0.10393539,0.11395867,0.016220083,0.03171411,-0.0773683,-0.22120827,-0.26830912,0.121310264,0.19530508,-0.13195604,0.22419333,-0.21356797,0.0018214141
IND201005AAA,-0.12991092,-0.029899625,0.10935959,-0.0987027,0.1907114,0.2712883,-0.14352813,0.29938495,-0.024268858,0.04824084,0.060937688,-0.12811148,0.18767986,0.06267142,-0.47898006,-0.0006491691,0.1888368,-0.06120019,0.01051753,-0.10388109,0.11186742,0.02271676,0.02442374,-0.085698634,-0.23815714,-0.26498473,0.1109761,0.1979499,-0.1336672,0.22600561,-0.21653086,-0.0057508983
IND201007AAB,0.029199995,-0.0824952,0.26763505,0.13883932,0.18368411,0.29790112,-0.12526572,0.050782606,0.14472236,-0.16196604,-0.024961654,-0.33119804,0.11377722,-0.100705326,-0.6078749,-0.14490342,0.07973365,0.0014613159,-0.14422819,-0.044938892,0.35464537,0.031421106,0.06187918,-0.0059478413,-0.3544264,-0.25756425,-0.12195706,0.07670672,-0.16333643,0.5655269,-0.61024123,-0.21504574
IND245304AAA,-0.04078819,-0.07219775,-0.06475738,-0.35038066,0.21604261,0.12658104,-0.12825707,0.5415755,0.21962899,0.11832104,0.029531717,-0.34413114,0.019646961,0.2753538,-0.68906343,-0.0066575035,0.17685233,-0.08253379,0.13902983,-0.41372442,0.20358312,0.17668128,0.17403856,-0.0035572462,-0.15929233,-0.14507984,0.14112377,0.3861487,-0.6605804,-0.10639493,-0.017399184,0.034195695
IND201304AAA,0.041677836,-0.13658063,0.109655716,0.0027576573,0.07031639,0.020956844,-0.23876485,0.05069738,0.4901818,-0.20722547,0.05071442,-0.324343,0.10929394,0.12946667,-0.67280054,-0.10452024,-0.21309054,0.10400777,-0.26930586,-0.017515406,0.5147938,0.20878206,0.5479799,0.10203971,-0.19488439,-0.06554339,-0.23920108,0.020778093,0.1059425,0.588378,-0.5580149,-0.2436461
IND203205AAA,-0.18767092,-0.18842751,-0.09147318,-0.024988122,0.099199794,0.13369688,-0.2192595,0.55806553,0.13564816,0.03939402,0.17209478,-0.23608412,0.21149875,0.26832357,-0.4985856,-0.07581556,0.00062472373,-0.104363576,-0.023508087,-0.10508745,0.15373275,0.115917996,0.44671232,0.06487426,-0.13290772,-0.27187508,0.079488836,0.21867369,-0.3407008,0.1269562,-0.27425748,-0.0802238
IND201301AAL,-0.0453868,-0.6312699,-0.06968792,-0.16275668,0.21926072,0.41780347,-0.18362573,-0.37078255,0.04029774,0.30725193,0.43459824,-0.4799744,-0.12578687,-0.07945288,0.3106885,-0.17284782,-0.082384914,0.19655679,0.09271593,-0.096499704,0.25134408,0.09653491,0.12852338,0.13890274,0.85343635,-0.26982987,0.18935798,0.10020041,-0.5287732,-0.022058334,0.40068612,-0.12402751
IND201307AAA,-0.049864307,-0.66218495,-0.12682188,-0.1295234,0.14147052,0.32290155,-0.17182966,-0.36392924,-0.066113666,0.21413675,0.3819696,-0.41661328,-0.03767316,-0.06623272,0.41817003,-0.13613175,-0.123629436,0.15348929,0.21603492,-0.11977792,0.22109616,0.061017707,0.21145712,0.19326264,0.8523452,-0.25855732,0.2017371,0.069674954,-0.46182084,-0.05348915,0.42000112,-0.1496208
IND201306AAA,0.17877889,-0.2853366,0.13472828,0.29704958,-0.11930921,0.0077838656,0.00398368,-0.3559273,0.29331195,-0.17134823,-0.16110158,-0.12149191,-0.30325454,-0.078944236,-0.040725157,-0.0467867,-0.26603574,0.08788756,-0.40117776,0.060421683,0.39633322,0.05577956,0.17422193,0.10095997,0.14425164,0.011907876,-0.23764311,-0.060153008,-0.25211796,0.22084752,-0.25328696,-0.15700749
IND205001AAB,-0.048014037,0.55960566,0.2791078,0.20331961,0.20688099,0.42735907,-0.0033361316,-0.021591503,0.42140454,-0.26708442,0.12143152,-0.18591213,0.20919605,0.07279025,-0.34294477,0.07236233,0.03315011,0.08588733,-0.19768393,0.15209036,0.41576132,0.1733738,-0.110618666,-0.1113692,-0.4274994,-0.1247359,-0.20065561,0.1916102,-0.3096611,0.16617057,-0.10347845,-0.17912143
IND207123AAA,0.090829805,0.12565227,0.09174462,-0.14022376,0.2879843,0.097686894,0.019764693,0.2372628,-0.09006006,0.104215704,-0.030445863,0.003302589,0.2453805,0.010162484,-0.34197015,0.15585652,0.1715876,0.111689374,0.08257741,0.15550981,0.04371479,-0.090268,-0.1440917,-0.079095624,-0.2538458,-0.09810487,0.023006648,0.077487424,0.29697013,0.17977153,0.023054764,0.039534226
IND202001AAC,-0.084833816,0.0048493445,-0.025910772,0.07647598,0.10157347,0.028540488,0.072486885,-0.041802384,-0.16706139,0.09284004,0.061205,0.07367554,0.08154006,0.044908993,0.0937852,0.044325612,0.043988813,0.028915072,0.20007542,0.039780565,-0.06350629,-0.047989346,0.15845393,-0.023456782,0.100097395,0.1666509,-0.03383317,0.015457347,0.216049,-0.021891339,0.14578845,-0.013754578
IND204215AAA,-0.10219991,-0.1271246,-0.0013132393,0.08465892,0.10259974,0.16115028,0.17464441,-0.35872608,-0.22535339,0.011067696,0.18503314,0.11997835,0.056725845,0.043209944,0.32951623,0.097897895,-0.00071138144,0.12474363,0.23983286,0.06917368,-0.0046867877,0.07086137,0.17130947,-0.11980198,0.4018348,0.13388117,-0.064669974,-0.12910968,0.2655422,-0.054549642,0.4503516,-0.061076116
IND203001AAA,-0.07453713,0.014615536,-0.013364434,0.066386536,0.10016726,0.05117408,0.070010446,-0.052270837,-0.1532329,0.068475306,0.09284174,0.052787244,0.07504825,0.050841838,0.08677381,0.051767692,0.03713324,0.016328886,0.1622306,0.030095547,-0.027224079,-0.04475785,0.19454849,-0.02319353,0.14131,0.15208597,-0.05086559,0.025650598,0.1275712,-0.03620942,0.16002165,-0.026282532
IND203131AAA,-0.051802836,-0.18455438,-0.017437465,0.053705826,0.1191892,0.21372047,0.18493545,-0.42878762,-0.13670878,-0.02130244,0.26580745,0.05160503,0.016331658,0.030861385,0.30634722,0.06968176,-0.01350759,0.16567597,0.14197229,0.05376097,0.100272685,0.07566674,0.29622903,-0.09400524,0.56983703,0.107007265,-0.08767212,-0.11120698,0.012309186,-0.06519658,0.50751305,-0.14463049
IND203135AAA,0.08400463,-0.27548757,-0.07347864,-0.099258855,0.0019680262,0.25066176,-0.00936953,-0.697338,0.2559365,0.121193886,0.35224316,-0.24356106,-0.0672559,-0.040604863,0.3576308,0.04240328,-0.114813566,0.33868414,0.046939917,-0.032407574,0.34785306,0.2996736,0.22458279,-0.100677274,0.8709407,0.09815062,0.035514265,-0.088929094,-0.32996786,-0.0930794,0.53978384,-0.2672416
