hub_id,0,1,2,3,4,5,6,7,8,9,10,11,12,13,14,15,16,17,18,19,20,21,22,23,24,25,26,27,28,29,30,31
IND000000AAL,-0.38313252,-0.27194217,-0.19869794,-0.10706621,1.3421865,-0.52382165,0.6935071,0.4846175,-0.11222149,0.21355705,0.29297724,0.018367436,-0.2660812,-0.44965976,0.1621776,-0.10435851,-0.21084502,0.76043034,-0.17693442,0.8311442,-0.21258827,0.5709188,0.9449378,-0.24372223,0.91968864,0.4583963,0.01398151,-0.7553321,-0.043948915,-0.8728214,-0.32175365,0.6504448
IND411033AAA,-0.31645322,-0.37859628,-0.25746474,-0.143773,1.1846433,-0.48392025,0.6168826,0.51732165,-0.15437832,0.2018513,0.27618062,0.09933102,-0.18421085,-0.4373031,0.067405134,-0.09235021,-0.11027687,0.6335871,-0.0733601,0.739384,-0.13685274,0.5817056,0.7803525,-0.17177524,0.72996545,0.38412282,0.035162088,-0.5736667,-0.0757203,-0.820048,-0.2813988,0.42113572
IND000000AAS,-1.0710186,-0.8116118,0.027732864,1.9112339,-1.2617892,-1.5224993,0.42692685,-0.44485876,-0.4525189,2.2304327,0.4025076,-0.38741153,-1.1453581,-0.31077605,1.3385806,0.7964936,-0.1719765,-0.08137196,-0.12835497,0.46503118,0.5290019,2.0137308,0.84700936,-1.3766706,0.43950927,1.2305092,-0.41331458,0.05953194,0.4102186,-0.23393771,0.51986456,-0.59276754
IND783370AAC,-1.2952573,-0.74747103,-0.2161743,2.115512,-1.2772866,-1.476248,0.62857664,-0.39085537,-0.5281752,2.3321922,0.19972587,-0.67629015,-0.97638637,-0.45466742,1.3393068,0.6741929,-0.14707176,-0.0025011683,-0.023994863,0.3766297,0.5072344,2.2236195,0.9361001,-1.1586647,-0.14578545,1.1617874,-0.49913684,0.10890792,0.5809678,-0.5643985,0.6041135,-0.57522684
IND000000AAZ,-0.61386395,-1.0911822,0.52842945,-0.9002748,0.58403325,0.36021966,1.5111972,-0.619535,-0.16784276,1.7998098,-0.68730193,-1.8724799,0.21208432,-0.14554566,0.5586706,-0.2456087,-0.88876814,1.3678952,0.2286027,0.9262306,-0.01792486,0.9480819,0.14114685,-0.32980722,0.28227505,-0.39857516,-0.6815871,-1.2138913,-0.564866,-0.39336652,-0.16905412,0.249815
IND444203AAA,-0.5662289,-1.264204,0.5245353,-1.1619159,0.48787028,-0.05306197,1.3163979,-0.5376796,-0.23285694,1.7324657,-0.80530787,-1.8134569,0.33069685,-0.27934936,0.4703562,-0.23861535,-0.5558806,1.3150077,0.6146092,1.1820893,-0.15638727,0.759445,0.095744506,-0.14737386,0.3375557,-0.29368073,-0.77910143,-0.9870547,-0.5718097,-0.23285213,-0.07256059,0.30172893
IND444303AAA,-0.56221753,-1.4193108,0.48246065,-1.1414831,0.698317,-0.049886778,1.2855911,-0.67515767,0.19350103,1.8870686,-0.8624903,-1.9922116,0.16092983,-0.21935493,0.6703739,-0.09906833,-0.8666984,1.4016618,0.39573866,1.0944508,-0.05729885,0.90755683,0.18373854,-0.35860863,0.53269136,-0.1959681,-0.80910736,-1.11535,-1.1686152,-0.16031864,0.021710414,0.22648315
IND000000ABA,-0.8104405,-0.6438839,-0.24033529,-0.19292314,-0.002219856,-0.8272614,1.1713644,-1.1257389,0.18027571,0.40065533,-0.6789048,-0.97088367,-1.345477,0.34763396,0.034897894,-0.01598311,0.49855283,0.3905807,0.5554167,0.7876444,-0.87008286,1.5909208,1.020974,-0.35273466,0.5731004,-0.49882123,-0.35651848,1.3330376,0.6722639,-1.2086076,0.98687655,-0.44430083
IND683565AAA,-0.83111507,-0.8852986,-0.16462082,-0.11727617,0.19346686,-0.8088618,1.0066375,-0.9648132,0.40954408,0.24938513,-0.71611744,-0.648632,-1.255329,0.12631382,0.030013671,0.13721122,0.6063828,0.021595974,0.49338487,0.6467442,-0.48743156,1.5768548,1.0599408,-0.22388548,0.5400255,-0.5686843,-0.488672,1.2953281,0.5499956,-1.2878773,0.9590821,-0.48145556
IND000000ABD,-0.23748375,-0.63697416,0.61505705,-0.2650245,0.011105552,-0.16023733,0.77301323,-0.044141315,0.28316087,-0.13132557,0.12715666,-0.7921417,-0.7145579,-0.63384646,-0.30720183,-0.58821356,0.11438939,0.5925348,0.27763128,0.5459727,-0.25569224,0.6774662,1.1491221,-0.39238667,0.9677677,-0.69281167,-0.48273346,0.62843424,0.32288334,-0.76260495,0.19652434,-0.5901474
IND562132AAA,-0.07612321,-0.117541835,0.18196012,-0.27602926,0.05642938,-0.24830875,0.19571744,0.176467,-0.15177856,-0.052206576,0.21660207,-0.33577895,-0.50618935,-0.25727397,-0.124158956,-0.8801586,-0.18768123,-0.029438531,0.11474749,0.5982848,-0.09489607,0.6861936,0.9381297,-0.3891949,0.82717806,-0.35963342,-0.30327073,0.36677703,0.020317696,-0.69920707,0.14446716,-0.08567707
IND000000ABG,-0.0781421,-0.33105564,0.65916514,-0.16276208,-0.39760068,-0.52670294,0.8809612,0.28134185,0.4918517,2.082013,-1.0180113,-0.8615571,-0.32257047,0.7377996,1.1080832,1.1260532,1.200688,-0.7298218,-0.09739454,1.9169204,0.6494283,2.2300751,0.5187936,-0.1638454,-0.72331357,0.6659163,0.61936957,1.0615526,0.5904453,-1.0696839,0.6940587,1.6122359
IND501359AAF,-0.09337394,-0.3544923,1.0136079,-0.31803524,-0.17663628,-0.5130074,1.0466491,-0.07263895,0.5017017,2.255721,-1.0322515,-0.92198133,-0.4631767,0.7539608,1.0782099,1.3649551,1.369192,-0.8214309,-0.13644888,2.0600715,0.69237137,2.0916445,0.16921516,-0.122347906,-0.5772056,0.70704633,0.4459371,1.1895977,0.5238488,-1.0814468,0.86410785,1.9589237
IND000000ACA,-0.09186525,-0.48936036,0.37233144,0.40932065,-0.2716,1.0813038,-0.48518705,0.27137646,-0.30185574,0.99315315,0.031004986,-1.7281674,0.02269848,0.10526276,0.3302263,0.086442344,1.063034,0.60541314,-0.7863003,0.8444628,1.0597527,1.0696809,0.47862825,0.26663175,0.4494337,0.8567953,-0.8872918,0.31907943,0.05908316,-1.1577085,0.56060517,0.021546902
IND140406AAA,-0.2918883,-0.8817818,0.2729978,0.29949287,-0.24483222,1.2281848,-0.3256393,-0.055439558,-0.1683218,0.8831414,-0.055106614,-1.7643594,0.36643666,0.032508202,-0.001136511,-0.1430955,1.0084933,0.9969198,-0.9760419,1.1541166,1.0464694,1.0766732,0.3424465,0.1629066,0.41301084,0.8886902,-1.2745899,0.06250066,0.54495734,-1.4706451,0.76955074,-0.3459201
IND142001AAB,0.10927072,-0.42412475,0.40672293,0.31183988,0.02977358,0.8800677,-0.94337773,-0.25730866,-0.7937977,0.6205439,0.080192566,-1.3248318,0.10514831,0.3893611,-0.16502544,0.047491472,0.9117281,0.3864979,-0.44044104,0.6791602,0.8505132,1.1847781,0.5639647,-0.27041468,0.7734211,0.6360066,-0.6607641,0.21190928,0.23365049,-0.9943732,0.39982605,0.14585048
IND142401AAA,-0.2509829,-0.76341474,0.30271953,0.31649867,-0.3427382,1.3662682,-0.20894869,0.033563297,-0.13935465,0.9496333,0.016706266,-1.8603472,0.30223808,0.0032094854,-0.15694076,-0.23733364,0.7902597,1.0989033,-1.0663328,1.1102358,1.0637876,1.1293368,0.1804321,0.038196992,0.32148093,0.74383926,-1.2618598,0.37057364,0.35866997,-1.5880913,0.8554816,-0.37298143
IND143001AAA,-0.41794503,-0.8130574,0.54545456,0.25275266,0.033882108,0.9644037,-0.48958766,0.4834667,-0.29845017,0.71073735,-0.36597896,-1.3282894,-0.03973801,0.19122459,-0.052817985,-0.24294443,0.7967225,0.40239558,-0.80041856,0.5847809,0.80661577,0.51641816,0.7954038,-0.038116034,0.82381904,0.91246986,-0.707906,0.41781995,0.1541255,-0.7519943,0.43465683,-0.28689167
IND144001AAB,-0.49513337,-1.1054537,0.37551957,0.25489154,-0.22693329,1.035915,-0.33475044,0.46711692,-0.48014647,0.6967888,-0.5521196,-1.2662513,-0.66203094,0.03342566,0.12644865,-0.11683687,0.91464233,0.36303067,-1.2938203,0.5930356,0.90557086,0.42297807,1.012788,-0.07943467,1.0629208,1.0029945,-0.58523476,0.49923414,0.25499585,-0.854585,0.52328545,0.017577447
IND144514AAA,-0.43078235,-0.8248897,-0.09749772,0.4418499,-0.4460843,1.0601637,-0.5959435,0.7032521,-0.5173495,1.3113108,-0.07945901,-1.3148403,0.14002213,0.11924368,0.21198481,0.5102223,1.2440963,0.945316,-0.49140787,0.7806952,0.6071226,1.4803209,0.7110188,0.03933581,0.29441747,1.0660183,-1.3434008,0.31178945,0.36597204,-1.4926027,0.38540944,-0.23211615
IND147301AAA,-0.24710909,-0.8484477,0.3707153,0.37515792,-0.29152033,1.2302686,-0.28323418,-0.033158388,-0.17462572,0.9240602,-0.043589033,-1.811184,0.20924816,0.096675925,0.10833536,-0.124382764,1.1308817,1.176442,-0.85362756,0.9973708,0.94603777,1.0682226,0.22810897,-0.02588011,0.30715162,0.8733912,-1.220058,0.11821641,0.5857283,-1.3592658,0.8635178,-0.49547172
IND152026AAA,0.27734742,-0.51077056,0.40987742,0.24663828,-0.05256605,0.9248228,-0.7411965,-0.3689336,-0.8291368,0.577466,0.03711474,-1.2997049,-0.22062473,0.64292246,-0.44253045,0.0061375625,1.0153472,0.38985315,-0.33886677,0.8171647,0.9590384,1.1968356,0.5995498,-0.058445454,0.68986344,0.8330784,-0.73270816,0.13818039,0.19075902,-1.0770471,0.6377057,0.36296806
IND160002AAC,0.3305106,-0.36542112,0.38221183,0.5900736,0.17258227,0.7560436,-0.312205,0.08730806,-0.42641157,0.86212003,-0.35738528,-1.1509027,0.013232808,0.09609683,-0.60271555,-0.38685113,0.6435354,0.041343648,-0.46559352,0.7834837,0.07514864,0.6492277,0.5965186,-0.12813573,1.1440076,0.5823785,-0.3937921,0.5274922,0.21188895,-0.47735918,0.06779893,0.22473203
IND000000ACB,0.2041494,-0.13079269,0.3995889,0.26195434,0.77479464,-0.32835296,-0.07155844,0.71993315,-0.08711881,0.049768765,-0.15896636,-0.53398126,-0.01173258,0.319869,0.024942236,-0.3629662,-0.1391473,0.38050267,0.3582324,0.36871332,0.22514407,0.2846241,0.08305115,-0.2547075,0.90827984,0.41023588,-0.70696974,-0.12560983,0.2726482,0.17803949,0.16389515,0.4623668
IND000000AEL,0.1340876,-0.060115114,0.3560956,0.27078292,0.86720645,-0.3303234,-0.06587644,0.85697645,0.061941944,-0.14460571,-0.12737656,-0.5489797,-0.030080188,0.49772927,0.096656255,-0.54598355,-0.20164622,0.39414552,0.4887463,0.5903684,0.32910162,0.50361353,0.19817506,-0.3119638,0.82658774,0.49332008,-0.8933798,-0.040262725,0.30364734,0.18289086,0.022052709,0.39511618
IND110024AAA,-0.1609396,-0.32350478,0.87062764,0.5866965,0.98083836,-0.43425015,0.27679577,0.3883039,-0.05170411,0.7906105,0.11011126,-1.0383688,-0.39499196,0.6143519,0.39358333,-0.17148045,0.43076628,0.049740065,0.4144594,0.26352838,-0.29580477,0.015346328,0.38999793,-0.59556496,0.9638395,0.4428674,-0.73490655,-0.3575957,0.5552452,0.4377471,-0.036894493,0.53983104
IND110030AAD,0.2746288,-0.5068927,0.835256,0.895573,0.7719501,-0.2740279,0.05527522,0.46573028,0.12154302,-0.40966544,-0.38859817,-0.7766056,-0.28116548,0.31045726,0.07426271,-0.26920033,0.058283873,0.44199994,0.29574987,0.3112591,0.07066762,0.5705466,-0.09281276,-0.044613186,1.1248838,0.3591655,-0.7355078,-0.20164365,0.58296496,-0.07397437,-0.12248459,0.6277417
IND110037AAK,0.16755085,0.028660806,0.52043915,0.31779724,0.9383872,-0.3063971,-0.15531239,0.8722941,-0.002218963,-0.046609826,-0.17272913,-0.66537356,0.12970677,0.32874104,0.16777171,-0.35396075,-0.055324513,0.39797038,0.38406613,0.5393062,0.081679545,0.29968458,0.20072289,-0.26608145,1.0397391,0.418601,-0.7711476,-0.052715525,0.36813352,0.08103706,0.24377516,0.49295202
IND110043AAA,0.29388607,-0.23619793,0.6311536,-0.017256947,1.533768,-0.12162992,-0.12740098,0.66252,-0.26303896,-0.18203656,-0.07983109,-0.5876455,0.024030935,0.3758848,0.4022314,-0.29075348,-0.17973453,-0.033990443,0.11637444,0.061400857,0.4137735,0.51651275,0.021701109,-0.95689034,1.1551774,0.7520784,-1.0840197,-0.42404097,0.45417738,-0.054927744,0.7163295,0.02206147
IND110043AAC,0.12021481,-0.15279892,0.541189,0.18325256,0.8606982,-0.28669038,-0.09123393,0.9770862,0.0011294561,0.13009806,-0.3420421,-0.522526,0.08082018,0.41217497,0.07084292,-0.34624434,-0.1736277,0.14748971,0.35941467,0.46402663,0.16593003,0.2958464,0.20750909,-0.477515,0.9907375,0.53038746,-0.7089888,0.12365801,0.3350238,0.2711683,0.047853746,0.52849144
IND110052AAA,0.19735874,-0.11166771,0.44210687,0.17461318,0.8424438,-0.31198174,0.076174416,0.67824733,-0.12491699,-0.07088644,-0.18403201,-0.5788374,0.06187187,0.39482516,0.13151039,-0.50967497,-0.10495181,0.30876377,0.261103,0.3501704,0.26220217,0.3431017,0.21006893,-0.35183564,0.9059954,0.562241,-0.872488,-0.13025436,0.32117957,0.2634979,0.21222743,0.48669925
IND110064AAA,0.034308236,-0.412655,-0.025005389,0.5703746,0.13358021,-0.87854654,0.10203606,0.76039255,0.07641084,0.092473336,-0.6360116,-0.86374164,-0.29749337,0.67427605,0.19735205,-0.58255213,0.87400824,0.08025388,0.36719805,0.6397792,-0.3537939,0.63806164,0.12005544,-0.6832699,0.9635414,1.5040237,-0.56193626,-0.4265027,0.6494897,0.29326728,0.39933392,0.29753888
IND110085AAB,-0.02845873,0.11281908,0.613465,0.6379561,0.74177206,-0.39651594,0.069892064,0.65826285,0.39828986,0.5144342,-0.40308923,-0.94381076,-0.78666615,0.6482813,0.13425419,-0.83529526,-0.421316,0.28661376,-0.5951973,0.03754489,-0.3236979,0.5796338,0.42329684,-0.46746457,0.4627051,1.4448532,-1.2554191,-0.08597125,-0.38552386,0.023327667,0.050424363,1.101523
IND110092AAC,0.41215602,-0.22132766,0.7781535,0.23157193,0.54978573,-0.41273627,0.2576015,0.3594311,-0.7255861,0.33557087,-0.24222252,-0.87118864,-0.4021393,0.42684004,0.08550679,-0.3337593,0.48541272,0.25391075,-0.043594915,0.15668753,0.28252718,0.068662494,0.45239794,-1.1026833,0.69062793,0.6820149,-0.9218849,-0.77731866,0.57481486,0.11174617,-0.016422238,1.0852429
IND110095AAB,0.06727076,-0.2672166,0.51171225,0.22939356,0.8943095,-0.25423157,-0.07194794,0.96241903,-0.11808332,-0.17614199,-0.08983108,-0.6007854,0.14512976,0.42098013,0.026379086,-0.39692605,-0.2097789,0.40230367,0.4642571,0.3884074,0.16773763,0.4908777,0.13496898,-0.32302845,1.046704,0.37686956,-0.8256511,-0.085364275,0.24103786,0.24530959,0.09796696,0.45894772
IND121002AAB,0.15165706,-0.15240966,0.44993716,0.3536328,0.8666413,-0.30975634,-0.041260462,0.9431789,-0.09000757,0.13380747,-0.056573737,-0.62840164,0.16504055,0.23959579,-0.040173884,-0.42524016,-0.29993892,0.3629394,0.5385849,0.43060073,0.22100484,0.42300692,0.25195843,-0.21952696,0.9558423,0.4709087,-0.8073304,0.024969965,0.35148266,0.30280524,0.034816626,0.6498168
IND121004AAB,0.3973148,-0.038902458,-0.035585392,0.953383,0.76806694,-0.4038472,-0.07291754,0.12799732,-0.58944255,0.6650867,0.29879284,-0.9956611,-0.071182236,0.8329097,0.6737844,-0.56625295,0.0041465163,-0.5077024,0.38400394,0.9482707,0.29283717,0.8800505,-0.48401803,-0.48531643,1.0071694,0.7098038,-1.0537412,-0.79229504,-0.07225324,-0.27171192,-0.12818386,1.0026872
IND122001AAA,0.15099916,0.06730239,0.53811085,1.2590977,0.0563231,-0.35344353,0.29764804,0.6601877,-0.08016724,0.7602528,-0.42108217,-1.0295237,-0.15039103,0.11031791,0.13254026,-0.39874834,-0.07143892,0.35187298,0.15299055,0.5431896,-0.0077311187,-0.09555462,0.083718985,-0.94589484,0.83623993,0.8873731,-1.0698204,-0.9312175,0.30272135,-0.3676969,-0.28105924,0.08214983
IND122015AAC,0.09215785,-0.16359541,0.3559232,0.23724434,0.8434887,-0.22272299,0.11706884,0.8927262,-0.016049141,0.0406559,-0.2566805,-0.4867806,0.08446604,0.47183233,-0.039508924,-0.3676524,-0.16017477,0.39973718,0.46055335,0.45588067,0.35494173,0.29837883,0.1108064,-0.13760303,1.0781211,0.42393106,-0.8004047,-0.011473172,0.22153413,0.18066998,0.054531526,0.553907
IND124103AAA,0.2425548,-0.31581217,0.32025832,0.5055419,0.8156405,-0.4290373,-0.016459303,0.9784932,-0.67144454,-0.11092408,-0.17986853,-0.91093624,0.06654415,0.11083465,0.041704286,-0.3615515,-0.35672647,0.5594655,0.71484333,0.14548552,0.50776505,0.63616496,0.34697783,-0.0050073904,0.89549536,0.73565185,-0.897188,0.04605031,0.35094267,0.18550906,0.21745472,0.5114713
IND124112AAA,0.09606958,0.13074577,0.5813749,0.10254394,1.1941043,-0.20338021,0.12904143,0.29551274,0.17463067,0.058395136,-0.15990141,-0.968819,0.33414862,0.39012986,-0.23715603,-0.60637426,-0.15209357,0.93253714,0.63373005,0.85396355,0.65544635,0.3633088,-0.24519272,-0.63546944,0.7682091,0.80051464,-0.36271894,0.101252325,0.22465135,0.1581153,0.4237102,0.756904
IND125001AAA,-0.29912752,0.12727372,0.62912536,0.5527539,1.0000232,-0.26685792,0.54846966,-0.16545968,0.19732441,0.27539578,-0.23701182,-0.9712003,0.17901374,0.8710017,-0.16021825,-0.68232507,0.4133862,0.97969246,0.6143231,1.0678896,0.54040027,0.14746042,-0.2107864,-1.0403329,0.24024235,1.0733885,-0.523299,-0.2848441,0.25771755,-0.13703817,0.41218677,0.6829322
IND125005AAA,-0.10294163,0.3178036,0.77627534,0.3088704,1.1704738,-0.29637358,0.2084076,0.09976091,0.2662545,0.2866552,-0.08378984,-1.1082199,0.4509646,0.44315818,-0.36150473,-0.6342376,-0.013408077,0.98775804,0.712679,1.0023932,0.51739514,0.33938807,-0.4034807,-0.9326711,0.6139073,0.9741414,-0.17731744,0.20325962,0.28138658,-0.0097507,0.6775851,0.9971893
IND125033AAA,0.04926395,0.11865225,0.649761,0.23463199,1.1185609,-0.21752547,0.22844426,0.18168093,0.16839708,0.045136094,-0.1427379,-0.78269356,0.17005095,0.51793975,-0.30275258,-0.65440816,0.016813604,0.8865822,0.64638805,0.9396156,0.6024996,0.33402953,-0.26353917,-0.8483253,0.72346985,1.0277901,-0.4144008,0.115849465,0.13084194,0.17676638,0.55442834,0.72344714
IND127021AAA,0.2475994,-0.41120848,0.24139936,0.7176184,0.71036303,-0.54951197,0.049728446,0.9905349,-0.84340113,-0.027822308,-0.105390936,-0.93283314,0.08568492,0.061183732,-0.059868548,-0.39715934,-0.46365446,0.72579277,0.8347666,0.35630023,0.60200995,0.58088404,0.46036586,0.11896513,0.8922932,0.78917515,-0.9202657,0.10073937,0.32407528,0.1387296,0.13754676,0.6776649
IND131028AAB,0.13247868,-0.9318058,0.80305606,0.5080985,0.55821204,0.41203043,0.10781734,-0.37397435,0.08541549,0.08834855,-1.098446,-1.1797482,0.2919349,0.3167546,0.16659828,-0.08859916,0.17637195,-0.21847638,0.03117901,0.2535053,0.039068215,0.7994531,0.3469659,-0.08025083,0.6389538,0.925692,-0.32153603,-0.38605914,0.205238,-0.4599572,-0.60567755,0.27222496
IND201007AAA,0.011448235,-1.0264212,0.93048435,1.3856059,0.5641062,-0.2843651,0.029611278,0.14230561,0.2014236,-0.35191724,-0.019890344,-1.0488676,-0.36877605,-0.05355284,0.43567634,-0.52722937,0.49997994,0.55055743,-0.38018405,0.3343069,-0.051118135,0.5953846,-0.6435499,-0.540896,1.1796842,0.47685024,-0.72355485,-0.5421415,0.486086,-0.4184826,-0.060472857,0.7437573
IND201301AAF,-0.23390613,-0.8635584,0.693788,1.0376753,0.3029671,0.02521493,-0.13974535,0.3040423,0.24458002,-0.4490786,-0.116182126,-1.3609198,-0.8681246,0.35527518,0.15414289,0.029585006,0.19290943,0.86795145,-0.045484107,0.7894577,-0.13292569,0.53318757,-0.28989294,-0.10044894,0.8837338,0.5356735,-0.72974414,-1.1630385,0.20435089,0.11468175,-0.06385474,0.7051878
IND201301AAM,0.071846895,-0.14137466,0.4409335,0.29198343,0.8952652,-0.36358503,0.0033639865,0.7621909,-0.06722951,0.04614965,-0.31916383,-0.48112294,-0.0020523956,0.28182864,0.027015323,-0.4662098,-0.08932174,0.32422805,0.29134223,0.30266798,0.3666478,0.42050546,0.11667381,-0.18936421,0.95573276,0.54205406,-0.8411711,0.07914198,0.38779432,0.26587245,0.1975746,0.54001105
IND209304AAA,0.6966506,-0.6595899,0.15592553,0.7595582,0.20200245,-0.6575895,0.40814018,0.55450183,0.8105997,0.22858645,0.115518026,-1.2044001,-0.16612872,0.9375846,0.14680026,0.18457982,-0.42520368,-0.056233045,-0.25289738,0.47635776,0.45312583,0.19101931,0.32919848,-0.5235432,0.23960017,0.36004,-0.6399126,-0.21554245,1.0469196,-0.35459822,0.637375,0.5700963
IND282002AAD,0.124462456,-0.41359657,0.83318895,0.99046445,0.39314458,0.011024281,0.2101171,1.1820834,-0.3138376,0.8368798,-0.5735651,-0.4629805,-0.12213165,0.6034306,0.15576993,-0.6524965,0.0048886975,0.3062433,0.13577157,0.454098,0.1289324,1.0832248,0.10209998,-0.6029146,0.33438307,0.2389457,-0.2222542,-0.83098096,0.3064621,0.35011977,0.5145087,0.7014776
IND301001AAB,-0.87738246,-0.21631908,0.23549336,0.43627572,0.46342865,-0.69245523,-0.8941971,0.22365795,0.46339136,0.14217389,-0.42012417,-0.63918775,-0.10062943,0.21812515,-0.23723441,-0.32651952,-0.3953301,-0.20398463,1.087067,0.08386317,0.42491388,0.42567137,0.6825718,-1.0768219,1.2327545,0.23981397,-1.1203401,-0.38606012,0.15385087,-0.58177364,0.61035866,1.2208705
IND301705AAA,-0.13947955,0.16564763,0.48735392,-0.00038564546,0.6923653,-0.17336436,0.3240677,0.9417128,-0.094886445,-0.22167139,-0.35225284,-0.83622986,0.500863,0.78108853,0.038157284,-0.1443905,-0.39527118,0.5777765,-0.071035124,0.12356884,0.16225691,0.53024924,-0.0906294,-0.34322482,1.6205777,0.39379832,-0.78443974,-0.39557904,0.18382415,-0.11286235,0.32922792,0.6486223
IND302014AAA,-0.53796285,-0.07008465,-0.05267815,0.47070315,0.32485947,-0.49985173,-0.22535887,0.35160145,0.44340178,0.058314197,-0.23459898,-0.8764557,-0.4079909,0.081199214,-0.37652957,-0.6472629,0.3886883,-0.15713175,0.7489099,-0.26476294,0.2569983,0.80516243,0.6037965,-1.1756005,0.72718275,-0.1871633,-0.81966037,-0.2625223,-0.13606972,-0.445315,0.3639753,0.6077169
IND302022AAD,0.21934429,-0.032356825,0.31572953,0.33017248,0.8563531,-0.31775552,-0.086398795,0.88896215,-0.12635541,0.16977505,-0.43699715,-0.5935089,0.041412964,0.23753761,0.10866151,-0.48672467,-0.15696841,0.44252422,0.33524883,0.40787458,0.06910387,0.43237478,-0.06282869,-0.1260436,0.9540399,0.38746864,-0.9083317,-0.019928958,0.28042373,0.12601294,0.17451708,0.6043463
IND328001AAA,-0.34393048,-0.5820311,0.7771657,0.8862455,0.52508944,0.07560214,-0.062132366,1.2789103,-0.3124096,0.80544364,-0.37082717,-0.265752,0.08371117,0.48362526,0.2773279,-0.72359383,-0.3434953,0.3747031,0.05750473,0.3504874,0.502773,0.93030936,0.0045018187,-0.5687418,0.4656664,0.36038795,-0.200995,-0.49567157,0.4057461,0.36898667,0.66904396,0.8341111
IND382430AAB,-0.6952601,-0.42935,-0.1366196,0.007582301,0.88280964,-1.3730947,-0.07900264,0.0886481,-0.20692697,0.08251042,-0.69108146,-1.2487737,0.6826001,-0.38667655,-0.06414663,-0.5397654,-0.07083945,0.36288646,-0.6638245,0.57252306,0.51635265,0.8889126,0.23466605,-0.5029467,0.3671483,-0.060947098,-0.7071733,-0.41568953,-0.1944044,0.24612625,0.1146802,0.289157
IND390022AAA,-0.14797889,-0.4183705,0.41163576,0.39627337,1.2243208,-1.2579579,-0.3445913,0.39168584,-0.22791553,-0.018868161,-0.2932838,-0.6350995,0.59698546,0.17692143,-0.15037793,-0.43011138,-0.43599194,0.5273939,-0.5847705,1.1722898,-0.29833442,0.75621897,0.68809694,-0.666834,0.719703,-0.09528521,-0.9246468,-0.5571959,-0.09502389,0.30799112,0.16133784,0.24857447
IND421302AAG,-0.049320307,-0.6514504,0.20631038,-0.6650963,0.5987356,-0.71150297,0.591565,0.013206335,0.0064270445,0.41376585,-0.30187818,-0.81219625,0.10883857,-0.23285125,0.40862203,-0.60910624,-0.38327903,-0.011911535,-0.15189222,0.38914216,-0.09890947,0.5843844,0.3811329,0.059730433,0.25059792,0.28407294,-0.22058468,-0.4989592,0.43339598,-0.29956093,-0.6283966,0.17205995
IND462022AAA,0.32701212,-0.722725,0.2393723,-0.35597607,0.23558223,-0.4466445,0.94696957,0.6945248,0.31095082,-0.13428357,0.2558098,-1.4163624,-0.16548792,-0.026773466,0.19400176,-0.50987893,-0.9759092,-0.4063608,0.050049376,0.78474045,0.1616656,-0.047588896,0.5656252,-0.01750083,0.35219306,-0.022167984,-0.18033,-0.26980725,0.333746,-0.45817554,0.63509125,0.45823205
IND474003AAA,-0.6482345,-0.16040036,0.97308147,1.037879,0.6161487,-0.25546792,-0.14957859,1.0539263,0.11854681,1.0652084,-0.5289776,-0.09748184,-0.04192906,0.6390617,0.26178393,-0.08690874,-0.32383612,0.17377934,0.04299672,0.5189182,0.8146952,1.2991824,0.12605183,0.027073279,0.8003098,0.7236717,-0.013248031,-0.9399788,0.38191232,0.27037033,1.2594328,0.8598729
IND501359AAE,-0.13669425,0.101263404,0.16218162,-0.3786484,0.52601945,-0.28699258,0.8127311,0.97596455,-0.2903668,-0.031321846,-0.09321114,-0.4826014,-0.49864936,-0.67648315,0.77632004,0.18000111,-0.68443125,0.058033407,0.090299144,0.84978765,0.014866629,0.36357075,0.066553734,-0.4162047,0.4919013,0.045035858,0.13570413,0.27717257,0.2420015,-0.25958392,-0.18637794,0.36235875
IND521225AAB,-0.16425078,0.14629133,0.060561944,-0.009305568,0.8940675,-0.28439724,0.066698216,1.378436,-0.2403117,-0.4169528,0.11329069,-0.19277136,-0.0965215,-0.61018026,0.072808474,0.5656378,-0.21961327,0.16221805,-0.21583994,1.1122484,0.45296285,0.52757835,0.34248194,-0.7104975,0.8444913,1.0385813,-0.00407648,-0.3186004,0.18967813,-0.534526,-0.43341988,1.1749679
IND600056AAB,-0.30693552,0.2704177,0.38041654,-0.064787194,0.54458964,-0.5733215,0.3190624,0.68868035,-0.8859781,0.098237574,-0.5013869,-0.05927729,-0.6944774,0.08493654,0.24268304,-0.21723746,-0.16510816,-0.26110402,0.17595457,0.95958805,-0.22945726,0.47070664,-0.30474573,-0.37575454,0.5886436,-0.11623701,-0.522862,0.67433876,0.4477737,-0.9093893,0.72032076,0.22937608
IND712311AAA,0.017618006,0.07225599,0.61449003,-0.5938675,-0.2908614,-0.42062247,0.5821157,-0.12835859,0.07389181,0.18390213,0.33596638,-0.17751862,-0.35324267,-0.11689532,0.54949224,-0.119409814,-0.8063813,0.38097388,0.27316418,0.430334,0.31251392,1.1915828,0.39444023,-0.6077945,0.514615,0.3679426,-0.72189546,0.21360813,0.65916306,0.3043192,-0.48683706,0.12120509
IND751002AAB,-0.26989385,0.26531297,0.50632155,0.12032825,0.114381336,0.19301982,0.30760124,0.19109976,0.2212065,-0.10203185,-0.40181547,-0.04868637,-0.41933414,-0.56853527,0.93972915,-0.44938016,-0.65242666,0.32975742,0.31811944,1.0238856,0.18459505,0.5314716,0.5758423,-0.5910817,1.4307158,0.081662744,-0.48021004,0.35593006,0.3905949,0.43152896,0.33076778,0.120878406
IND821115AAB,0.6757375,-0.6064059,-0.51022434,0.6239133,0.86899483,0.040716484,0.24566144,0.44571897,0.2183748,0.140831,-0.24232787,-0.8169092,-0.13622797,0.92254406,-0.3277063,0.32584852,-0.7999867,0.32642812,-0.23355855,0.54884547,0.082513556,0.4969602,0.33968475,-1.0400321,0.9132559,0.35983324,-0.77658916,0.07780051,1.1092113,0.09938293,0.7372262,0.9996387
IND834002AAB,0.31653234,-0.6597819,0.45473227,-0.8041216,0.4167968,-0.9123156,-0.09442827,0.2750975,0.5426495,0.60406214,-0.077970386,-0.4491042,-0.07086546,0.24953054,0.2035543,-0.1881115,-0.72412336,0.64651567,0.39035383,0.3948954,0.3689068,0.9756895,-0.25858396,-0.14776042,0.809515,0.5485942,-0.8095468,-0.22441995,0.99267936,-0.13386868,-0.3952891,0.23178309
IND842001AAA,-0.41880983,-1.0375445,0.3832139,0.41577053,0.8367779,-0.06233277,0.9038756,0.421073,-0.08135688,0.39627805,0.16944435,-0.53939366,0.24473435,0.012560305,-0.13374275,0.83078665,-0.38150808,0.11798102,0.90942407,0.29457152,-0.64312613,0.712965,-0.4595026,-0.3623579,0.9725036,1.2548295,-1.5454575,0.09163675,-0.3951148,0.22024542,1.1620127,1.0470492
IND000000ACK,-0.13963023,-0.33834353,0.70081294,-0.19269381,-0.3753494,-0.55771,0.8709179,0.3000435,0.5001888,2.1322832,-0.98869014,-0.86060137,-0.31100392,0.7739752,1.0852052,1.1808075,1.1812816,-0.75858694,-0.12064918,1.9569004,0.6363454,2.2622356,0.47588125,-0.13244615,-0.71466684,0.66459924,0.6233129,1.035898,0.5555727,-1.108713,0.6364479,1.5929705
IND000000ACN,-0.013914944,-0.01028514,0.9547713,-0.10458737,-0.5585643,-0.39124826,0.97974557,0.335346,0.40012386,1.9363034,-1.2488226,-0.99183935,-0.036316875,0.6376708,0.616073,1.3790798,0.9995149,-1.0151875,-0.20083569,2.0388894,0.9407067,2.448775,0.7998384,-0.2543729,-0.6340188,0.44868225,0.7817859,1.0785637,0.5732859,-0.98221177,0.7084343,1.6632653
IND000000ACT,0.2770455,-0.4111587,0.5578566,0.32685864,0.85085547,0.46212637,-0.5210289,0.2933838,-0.236179,0.13281566,-0.8197752,-1.0135249,0.33581474,0.35528404,-0.09980429,-0.087973036,0.20310342,0.14262453,0.12905537,0.36083096,0.3006107,0.5022581,0.4650078,0.011023013,0.99110055,0.7671696,-0.5166686,0.23551612,0.35180655,-0.22863568,-0.19234307,0.18917991
IND000000ADV,0.35862178,-0.93185997,-0.24395502,-0.52270377,0.6947131,0.040970225,1.1957525,-0.7562924,1.1377043,0.97973174,0.23061584,-2.6418188,-0.40193135,-0.8713968,0.18629697,1.8068352,0.086617246,0.99739695,0.5033965,0.16963375,0.62968975,1.6792328,0.05680774,0.08608947,-0.47802565,1.3935504,-1.1857418,1.0302302,-0.11756809,-1.8081813,0.4922791,1.1149777
IND600044AAC,0.3250809,-1.0744132,-0.24973118,-0.58333707,0.8322735,0.031753004,1.3363563,-0.84277624,1.3050761,1.115317,0.2603489,-2.8681955,-0.4066038,-0.896677,0.2678595,2.0125961,0.15070094,1.155964,0.5349974,0.19608334,0.7364407,1.9204603,0.05181272,0.06282702,-0.48194236,1.5176569,-1.2970092,1.166009,-0.11624056,-2.0070906,0.60811824,1.2428011
IND000000AEM,-3.463428,-1.4632787,-0.48253524,-0.47562787,0.15342364,-0.38799205,0.7671485,-0.28878048,-0.029591622,-0.20213808,-1.1270878,-1.1019741,-1.2332294,0.91368276,1.2688025,1.3823363,0.017313063,1.7642632,-0.30753905,0.6853598,0.7823946,1.8195288,-1.1785209,-1.2275664,0.44460127,0.17435697,-0.7737971,-0.5817242,0.98404324,-0.6003704,1.380493,0.7565812
IND110037AAB,-3.147046,-1.3439713,-0.41444394,-0.4882625,0.18176325,-0.36381772,0.6685496,-0.31140012,0.0026506605,-0.17892508,-1.115306,-0.95245504,-1.1601032,0.8690119,1.1590801,1.2656579,0.054480065,1.6486106,-0.28071114,0.7501151,0.708043,1.6316358,-0.97720176,-1.1270503,0.34054926,0.15033795,-0.7953967,-0.53191286,0.86930394,-0.5752077,1.3388357,0.7523946
IND110064AAB,-3.0556965,-1.3349464,-0.39041513,-0.47519678,0.12296825,-0.3505647,0.6640866,-0.28094038,-0.04075716,-0.19772615,-1.1100981,-0.9729533,-1.0889864,0.8645672,1.1621294,1.2328871,0.100059696,1.624488,-0.34069672,0.78132844,0.6065101,1.6225568,-0.9738173,-1.1644552,0.3302026,0.1438716,-0.7969171,-0.5178335,0.89589167,-0.6171478,1.280134,0.74712473
IND000000AET,-0.86075526,-0.8001694,0.085595936,1.6100947,-1.2583272,-1.5472617,0.21788837,-0.39841878,-0.4209911,1.8204098,0.5749069,-0.37612316,-1.2419279,-0.31223023,1.1780752,0.8091956,-0.04363243,-0.19054279,-0.3372583,0.3840484,0.6194332,1.8367133,0.7536085,-1.3266275,0.75467485,1.3656993,-0.31615543,0.043024477,0.19538777,0.102782056,0.27671805,-0.37354606
IND000000AFF,-1.4251345,-0.37181756,0.07301953,0.35935962,0.38147447,0.8763676,0.47250733,-1.1249714,-0.39976585,1.7619457,-2.049639,-1.2191935,-0.12850599,-1.4280891,0.67605346,1.5103562,-0.39650208,2.2123263,-1.3475896,1.3615409,-0.9362212,1.2388366,0.71130484,-0.7469762,-0.5233107,1.4279076,-1.5028301,0.1775398,1.3398947,-1.0813136,0.5365263,1.1148891
IND734203AAA,-1.3067315,-0.44709805,0.117915064,0.33162275,0.41099495,0.7462708,0.47386456,-1.1575589,-0.3616468,1.6231052,-1.8211328,-1.0870641,-0.09158696,-1.3747597,0.6291965,1.4624317,-0.27617836,1.9705008,-1.281879,1.2710223,-0.76902306,1.2247394,0.58030456,-0.7621804,-0.41026452,1.313322,-1.419055,0.2705244,1.2557977,-0.9881507,0.41340432,0.93965465
IND000000AFG,0.56944203,-0.7494615,0.6305938,1.0353416,-0.15656011,1.3581009,1.1304376,-0.33154806,-0.36860722,1.2173301,0.6023539,-1.9628619,-0.83975375,-0.2530418,0.063124225,1.9080576,-1.0314739,1.6503813,-0.19005816,0.875373,0.19916256,1.6678299,-0.8109821,-1.6478884,0.5765122,-0.36026245,0.15693863,-0.6508136,0.46009105,-1.6818472,0.74820125,0.17043906
IND673027AAB,0.5699159,-1.1341035,0.58583736,1.0351005,0.08602703,1.2386491,0.9405991,-0.39274132,-0.30704063,0.95162433,0.56800807,-1.9541498,-0.8408738,-0.23051846,0.10018074,1.822274,-1.2597072,1.9771049,-0.31354743,0.89222157,0.4064325,1.915743,-0.6561947,-1.8733339,0.34082595,-0.35103586,0.44073883,-0.38855103,0.23140983,-1.4820596,0.7567642,0.005511137
IND000000AFJ,-0.75788957,-2.0259671,0.001644898,-1.3768353,-0.9737882,-0.64791584,0.88766766,0.12539753,-0.3077178,0.9582479,-0.47907707,-1.211115,-1.8654592,0.21981831,-0.38607183,2.515015,0.69914454,-0.30380693,0.07737091,1.5989311,-0.64681387,0.93251675,0.6524995,-0.22923848,1.04901,0.8869708,-1.4864942,0.26555344,-0.25460708,-0.67248785,0.25074363,0.3521227
IND695121AAA,-0.82242715,-2.013092,0.02246361,-1.3888752,-0.9223239,-0.64495605,0.9285374,0.032798585,-0.29652873,0.93660754,-0.40880758,-1.197557,-1.8585572,0.22983515,-0.45310196,2.5346534,0.7379687,-0.31563637,0.061410416,1.6764019,-0.5932533,0.91793585,0.68709075,-0.22533415,1.0394449,0.82514536,-1.6257664,0.27471504,-0.18793854,-0.6857409,0.21699326,0.3517923
IND695572AAB,-0.90225244,-1.9128784,-0.13403864,-1.0686014,-0.9222433,-0.5870523,0.79867965,-0.09798041,-0.068785176,0.8517238,-0.5512292,-1.0898186,-1.666021,0.4054042,-0.29782775,2.4568238,0.72975963,-0.4219902,0.23560514,1.5580393,-0.7017231,0.9931344,0.5740824,-0.045847204,0.97601557,0.8033894,-1.4385476,0.29427508,-0.12228345,-0.9506027,0.22675689,0.23960677
IND000000AFR,-0.8747362,-0.7246225,0.17006584,-0.03410127,-0.02189771,-0.49353033,0.72763884,-0.7450035,0.56610024,0.6240891,-0.62797415,-0.71050686,-1.0394942,0.13266887,-0.04940135,-0.0062250383,0.35003945,0.0211052,0.54926413,0.9904132,-0.79243374,1.2334262,1.1499164,-0.24092479,0.49983016,-0.61487204,-0.34287986,1.1610104,0.05701965,-1.0534985,1.2310644,-0.47762036
IND683511AAA,-0.7254734,-0.59363806,0.06426908,-0.014819603,-0.24511798,-0.5448485,0.8949274,-0.90839994,0.32866538,0.5722358,-0.30443132,-0.6763531,-0.79927796,-0.31909186,-0.3807184,0.08648141,0.12338327,0.11225464,0.54492295,0.879892,-0.42825308,0.90589315,1.0744928,0.15303548,0.61178595,-0.57877684,-0.45590565,1.1838828,0.33312464,-1.1265409,0.8822132,-0.24109237
IND000000AFT,-0.95852333,-0.7755062,0.6150519,-0.9773558,0.56524396,-0.6556156,1.0118451,-0.19381848,0.84084004,0.9246067,-0.08843457,-0.75778604,0.86619735,-0.25532445,0.7313656,-0.5938294,0.017886419,-0.15161198,-0.9872773,0.8588807,-0.16727644,0.36204913,-0.0014501145,-0.21155734,0.4476559,0.7432155,-0.5693697,-0.3630565,0.16227816,-0.9947855,-0.41535717,0.7712997
IND400072AAB,-0.46140975,-0.90553266,-0.115832075,-0.76779085,0.401768,-0.91086173,1.1330849,-0.10764801,-0.17617503,0.64884305,0.03292008,-0.5799136,0.5986099,-0.57218295,0.45769852,-0.1423605,-0.11948691,0.07324714,-0.42101663,0.10086076,-0.005366981,0.5029734,0.56111234,-0.07616346,1.0372797,0.84973574,-0.43690416,-0.8188907,0.29508597,-1.1361914,-0.46290055,0.5356622
IND400701AAA,-1.2115326,-0.7673665,0.7771109,-0.8582952,0.6146982,-0.71373874,1.0998262,-0.39824164,0.75821036,1.0889093,-0.04478695,-0.79191375,0.86941075,-0.24260065,0.92491406,-0.6229083,-0.45990333,0.002778437,-1.2630874,1.304097,-0.35322002,0.21646184,-0.03958527,-0.06999059,0.51922745,1.0704303,-0.7857413,-0.4980881,0.13543802,-1.1636422,-0.13520336,0.803413
IND400706AAA,-1.1285452,-0.6795245,0.7581766,-1.1300528,0.67203975,-0.80088115,1.056487,-0.3321346,0.704935,1.0643986,-0.21026681,-0.8171786,0.76056606,-0.11606533,0.84137344,-0.66884995,-0.118777685,-0.06252322,-1.2078601,1.3290116,-0.1688396,0.3601387,-0.14719044,0.14580667,0.6120167,0.9691682,-0.7373281,-0.57665986,0.19143824,-1.2734108,-0.13410097,0.5004679
IND410206AAA,-1.3717163,-1.0016587,0.6633662,-0.9288193,0.5262063,-0.7326117,1.0437877,-0.1903216,0.95014745,0.9436033,-0.1124659,-0.8230532,0.92838186,-0.27993494,0.93942404,-0.6959601,-0.21026966,-0.14384931,-1.2969251,1.3043623,-0.31131825,0.36181915,-0.105582416,-0.053448852,0.51266056,1.0898099,-0.82811743,-0.39372635,0.17911315,-0.9984112,-0.22735019,0.8193452
IND410206AAB,-1.1313827,-0.73779863,0.66482556,-1.0007308,0.64779323,-0.68574107,0.96129626,-0.3422887,0.6624803,1.0855772,-0.27632865,-0.8390711,0.9687616,-1.6582628e-05,0.950516,-0.6439301,-0.16706933,-0.14196195,-1.3732041,1.4740344,-0.27119273,0.21669765,0.032219373,-0.10204228,0.80620277,0.98820233,-0.7738097,-0.4719412,0.3691954,-1.0753467,-0.23204128,0.67375356
IND410209AAA,-1.4854469,-0.5165839,0.7477512,-0.9507829,0.54735106,-0.5786046,1.0833464,-0.23723616,0.6368152,1.1626158,-0.14386076,-0.7512188,0.72836524,-0.023461299,0.7545074,-0.8541458,-0.21695147,-0.2245197,-1.1631175,1.093866,-0.20116283,0.32761997,-0.015513117,-0.025620965,0.55914295,1.0929248,-0.9118446,-0.56791073,0.29046014,-1.0494303,-0.24858299,0.89175725
IND410210AAA,-1.1659317,-0.65521306,0.9709072,-1.0894678,0.7031152,-0.720858,1.1354759,-0.21472454,0.55459046,1.0426168,-0.18077406,-0.6586972,0.91376936,-0.094689816,0.74191535,-0.5950472,-0.23743927,-0.18974574,-1.1723919,1.1894125,-0.16521817,0.33733517,-0.2319073,0.0033175715,0.6423711,0.9765726,-0.8693593,-0.39396578,0.3997344,-1.1075274,-0.08020316,0.545701
IND110014AAA,-0.2689255,-0.4156162,1.0504752,0.6286289,1.0515579,-0.4719017,0.32699367,0.37437356,-0.04417987,1.0578337,0.2166164,-1.2313683,-0.515178,0.69391733,0.51094556,-0.056444023,0.4189521,-0.028208451,0.46343747,0.2689355,-0.40996295,-0.060078483,0.541301,-0.6947357,1.1130142,0.48744705,-0.768177,-0.31110406,0.67192054,0.58079565,0.0292975,0.64692974
IND110020AAB,0.17854936,-0.5443907,0.55937463,0.8928783,0.06347076,-0.62732863,0.028302155,0.19038546,0.13794531,0.650844,-0.33043104,-1.1061381,-0.5620394,0.65969545,0.12039745,-0.62692916,0.63786054,0.1670743,0.008963456,0.43597984,0.17672844,0.1501366,0.28682145,-0.79812926,0.57240826,0.69340587,-0.5209591,-0.6921898,0.03465337,-0.11191351,-0.3821053,0.5810795
IND110037AAM,0.20216446,-0.6083775,0.47266665,0.86936164,0.017891156,-0.58728063,0.18033682,0.18000051,0.15129068,0.4771403,-0.33271697,-0.94131595,-0.43411988,0.6859092,0.16251479,-0.58214587,0.48771647,0.16221103,-0.075306386,0.33289728,0.20252739,0.11582584,0.23144606,-0.7341395,0.6056599,0.607449,-0.4035262,-0.57645595,-0.1883059,-0.005789748,-0.36639863,0.61364454
IND110035AAC,0.14778818,-0.50688505,0.64297557,0.8143672,0.26272017,-0.726395,0.12910426,0.31203747,0.11511029,0.53280216,-0.25355265,-1.211557,-0.6112449,0.7312098,0.21220677,-0.6099154,0.63147134,0.039014604,-0.09492812,0.39320397,0.077238664,0.22598726,0.3598495,-0.8519769,0.40752342,0.8062563,-0.54725486,-0.69748753,-0.007992232,-0.09454932,-0.4452764,0.43694848
IND201001AAC,0.15256497,-0.3904908,0.4920555,0.8773955,0.3720203,-0.48271915,0.2404447,0.21503359,-0.028012525,0.6371766,-0.31606266,-1.070455,-0.5169184,0.7139757,0.06854662,-0.61479855,0.6982862,0.12091864,-0.1125295,0.24541675,0.11575401,0.20745316,0.1746792,-0.7767917,0.40856475,0.70520234,-0.4241928,-0.73030823,0.21559837,-0.26847067,-0.2995539,0.62661976
IND201301AAD,0.13578238,-0.5406979,0.48117822,0.87163734,0.08585714,-0.55207056,0.16532937,0.1595091,0.10701367,0.57953644,-0.3783486,-1.0782646,-0.4999324,0.63431555,0.19446558,-0.7017643,0.57213384,0.00031289502,-0.079938605,0.3993529,0.1784096,0.0553533,0.3165963,-0.7381995,0.58423835,0.762892,-0.5541823,-0.77910805,0.039638206,-0.04953827,-0.29480034,0.7111214
IND202001AAB,0.3356498,-0.7377273,0.85285515,1.0116118,0.35183766,-0.059789546,0.442938,0.9894876,0.0017374882,1.0872406,-0.7316361,-0.7220513,-0.41403028,0.96381235,0.5073477,-0.44586092,0.43753093,0.37350836,-0.23848894,0.3339795,0.0059574377,1.3106227,0.026310053,-1.2870449,0.10247315,0.4127387,-0.02799908,-1.0446508,-0.26123545,0.048394404,0.37510008,0.47681424
IND226004AAC,0.23989917,-0.49301538,0.5607431,0.8569425,0.2918677,-0.52811825,0.09881435,0.07087596,0.16026974,0.613856,-0.22203383,-1.1534389,-0.70338625,0.72239125,0.108907245,-0.6600901,0.5251731,-0.012416847,-0.18469182,0.37965146,0.14482243,0.09684392,0.36391687,-0.7202175,0.5020178,0.8266965,-0.5957066,-0.81953937,-0.05057155,-0.12961975,-0.21103576,0.60300064
IND282001AAA,0.67119956,-0.63716877,0.1965905,0.95404786,0.048765857,-0.63712525,0.44316983,0.2975266,0.5271129,0.49626958,-0.013415939,-1.232033,-0.4555471,0.9348654,0.122068055,-0.25405833,0.16541849,-0.029438138,-0.3017897,0.40773174,0.39368498,0.05809056,0.4426259,-0.6389219,0.41425556,0.41212237,-0.46989092,-0.75178385,0.58055294,-0.25191712,0.16308428,0.62123364
IND282001AAC,0.14196943,-0.21588983,0.38670248,0.5994058,0.52834845,-0.36297208,0.06758601,0.6202098,-0.18690881,0.19335249,-0.32582054,-0.73028344,-0.28473917,0.4764285,0.23016335,-0.5792746,0.27568698,0.06477537,0.21095,0.45597327,0.0972953,0.28231236,0.18852039,-0.58590853,0.6869384,0.61488074,-0.676172,-0.45851228,0.56285834,0.24289304,-0.062742144,0.48252425
IND811399AAA,0.6448747,-0.75422823,0.56517637,1.2372708,0.078883365,-0.6088337,0.29285213,0.3092397,0.6757856,-0.094980545,-0.24913856,-1.1633171,-0.49264792,0.7140023,0.10293262,-0.05960061,0.17835274,0.06786091,-0.14097553,0.43483302,0.16157717,0.24760664,0.13272789,-0.399159,0.5060388,0.38527256,-0.6172584,-0.3707273,0.61629295,-0.29464912,-0.10056142,0.8755387
IND110039AAA,-0.25420797,0.09010348,0.55889535,0.67368674,0.6940738,-0.30578786,0.15996438,0.79473203,0.47445816,0.4823524,-0.29569164,-1.0023422,-0.80487925,0.73388857,0.11734464,-1.0166222,-0.57787645,0.1500153,-0.76378506,0.046160277,-0.23472714,0.8358328,0.30005714,-0.6313382,0.43889675,1.8450984,-1.4760346,0.15480345,-0.41916418,0.05020804,0.048367366,1.137863
IND110078AAA,0.29933655,-0.35238892,0.75285804,-0.12405908,1.8040614,-0.04576608,-0.19896004,0.6326662,-0.2334843,-0.20400758,-0.1414474,-0.7294797,-0.025478425,0.34627464,0.58174187,-0.3254756,-0.2450277,-0.25955212,-0.022109022,0.15596513,0.46879855,0.6530626,-0.003857213,-1.1146947,1.1834139,0.9439008,-1.1627026,-0.45945463,0.42927393,-0.020092312,0.9138479,0.02064413
IND110044AAB,0.31694508,-0.80393964,0.8944526,1.1854826,0.49956733,-0.27321902,-0.010850742,0.22357748,0.34044972,-0.4472348,-0.5111577,-1.0741615,-0.41465348,0.37137577,0.095323816,-0.03835203,0.20802318,0.3758397,-0.01205182,0.33333048,-0.017258778,0.49409047,-0.14218713,-0.0341829,0.9021158,0.44065207,-0.58650833,-0.56714725,0.5393775,-0.3529521,-0.22779168,0.70266694
IND110005AAA,-0.17497936,-0.5875305,-0.16938093,0.58290076,0.13933992,-1.0239385,0.16449422,0.7441064,0.16670322,0.15977973,-0.8988989,-0.902317,-0.40036708,0.8117781,0.1529374,-0.5454837,0.92856824,-0.05620457,0.522371,0.79722905,-0.25558585,0.72665215,0.00088993955,-0.62714916,1.0532894,1.6521343,-0.5632728,-0.28612584,0.6538854,0.44224206,0.42976218,0.23989886
IND110046AAA,0.017020987,-0.5174885,-0.12911023,0.59681445,0.14956826,-1.0353456,0.12335967,0.7988241,0.15654431,0.09912479,-0.7167624,-0.9624001,-0.2622604,0.6875418,0.32655233,-0.6330073,1.0119869,0.049228087,0.33872098,0.75160646,-0.5551999,0.83349764,0.068133935,-0.7792528,0.99969965,1.8146714,-0.5757219,-0.46876556,0.7120456,0.14726642,0.51096827,0.33743864
IND110083AAA,-0.216706,0.15756316,0.6252052,0.5344569,0.81827724,-0.52007854,-0.03258332,0.7512425,0.36710498,0.48283046,-0.44406953,-1.1179692,-0.9428368,0.627759,0.06448187,-0.91962576,-0.5123199,0.18031259,-0.8441862,0.12740451,-0.25550064,0.6510155,0.45235422,-0.52007556,0.5185451,1.6900321,-1.2031233,0.02817362,-0.4523718,0.06374733,0.025853734,1.3089232
IND110085AAA,-0.043858703,0.13089861,0.753925,0.64532816,0.68441796,-0.2935744,0.16317748,0.73440033,0.59645766,0.53372866,-0.41502708,-1.086989,-0.6688376,0.88258916,0.18303841,-0.9666395,-0.49665356,0.15366837,-0.76817626,0.15695268,-0.24470909,0.78348887,0.41784754,-0.53165257,0.63726145,1.6803792,-1.3783909,0.00091472303,-0.67439896,-0.10747103,-0.052736912,1.2061577
IND110087AAA,0.045037445,0.056065485,0.5770287,0.70645636,0.66907614,-0.43768048,0.21633784,0.7116443,0.49552864,0.5943958,-0.56326824,-1.189584,-0.75270873,0.77172834,-0.005852268,-0.76783985,-0.44090933,0.28738725,-0.74375504,0.17784083,-0.2779614,0.8354273,0.39921278,-0.6402988,0.40350214,1.6524993,-1.4747148,0.039770756,-0.6227119,0.21138273,-0.13801473,1.3613336
IND110093AAA,0.55724657,-0.2710762,0.8755725,0.079304464,0.56676203,-0.40741464,0.3643971,0.34117916,-0.9505817,0.40063277,-0.37288687,-0.9514652,-0.48513117,0.45581156,0.06514054,-0.32088742,0.57160026,0.28428102,-0.09309041,0.2565103,0.3485919,0.021982264,0.59900916,-1.2831093,0.77284586,0.6294286,-1.0348369,-0.87689054,0.5466253,-0.014660888,0.008376358,1.2722689
IND121001AAA,0.64299554,-0.0386319,-0.14894316,1.0570259,0.7761467,-0.29222217,0.02214146,0.28602225,-0.5198053,0.62037355,0.4336208,-1.1158942,-0.14806452,0.9597977,0.692849,-0.3472705,-0.048171625,-0.5479503,0.6664036,1.2777599,0.17678842,1.017559,-0.49467736,-0.663313,1.0753571,0.7005768,-0.98076564,-0.9316466,-0.3753012,-0.51938003,-0.05756066,1.2923411
IND121004AAA,0.46947637,-0.17522159,0.08529971,0.98396796,0.70599365,-0.43715358,0.040813584,-0.010248649,-0.60256565,0.6804245,0.2727986,-1.1186213,-0.09014905,0.7447893,0.763541,-0.6909916,-0.008992627,-0.6423393,0.317753,1.2769051,0.3178832,1.0670046,-0.6082353,-0.44742092,1.1562438,0.73778605,-1.4951019,-0.70791394,-0.290589,-0.106859274,-0.13543859,0.9497164
IND121004AAC,0.38720167,-0.04350671,0.07400568,0.95074785,0.7037204,-0.34962687,-0.21678689,0.06066234,-0.56506,0.7570285,0.20470019,-1.1416585,-0.047816165,0.9229502,0.81482375,-0.59278625,-0.06974952,-0.6771856,0.34141886,1.2706966,0.30730742,1.0925859,-0.45791084,-0.58566666,1.2214882,0.66334784,-1.1959466,-0.9315748,-0.25742936,-0.19596754,-0.22103441,0.9966331
IND121102AAA,0.42387792,-0.019801311,-0.07220287,0.8840351,0.91427624,-0.51271826,-0.15137063,-0.020416116,-0.6604444,0.8689884,0.23576161,-1.2695912,-0.104584455,0.9171059,0.6881515,-0.46261522,-0.084701054,-0.600433,0.4293596,1.1447753,0.23022825,0.87247133,-0.558842,-0.5336147,1.1374242,0.51657844,-1.2284102,-0.8624198,-0.23545223,-0.44204244,-0.23418964,1.0180695
IND122001AAD,0.12522738,-0.095444635,0.65093213,1.5022327,-0.07268733,-0.34860834,0.34284973,0.76088464,-0.094650425,1.1165762,-0.66915756,-1.2406409,-0.2336509,0.04609609,-0.1430262,-0.6186693,-0.5832998,0.4841632,0.17599188,0.82818276,0.09789473,-0.11993912,-0.083011486,-1.3777817,0.8065244,0.91443825,-1.3339672,-0.9044655,0.37139395,-0.63267064,-0.3801638,-0.18114915
IND122101AAC,0.06335324,0.07008321,0.5583707,1.3158541,-0.035912648,-0.4454353,0.32772565,0.7706373,-0.0014001492,0.8334913,-0.6087362,-1.0921478,0.048380323,-0.062317688,0.05402337,-0.4286073,-0.096496426,0.2796145,0.13130474,0.56529033,-0.09556131,-0.016907237,-0.039289307,-1.1203371,1.0072181,1.0190513,-1.3100915,-0.96053845,0.33272105,-0.5906185,-0.29484403,-0.024896171
IND122050AAA,0.10888439,-0.19260147,0.6770377,1.795891,-0.04634062,-0.35531896,0.527966,0.78018874,-0.12452432,1.3628852,-0.7979759,-1.4381251,-0.16562778,-0.15679911,-0.2356716,-0.6600732,-0.68754435,0.58279556,0.072264776,0.97671664,0.109168686,-0.0046861684,-0.2030562,-1.4174447,0.94330144,1.0702981,-1.4326947,-0.9146311,0.46531126,-0.5814547,-0.23148297,-0.13647874
IND122001AAJ,-0.812657,0.6409973,-0.46475896,-0.7355258,-0.0483863,-1.0088261,1.2163901,0.66287094,0.84703994,0.48811466,-0.9250866,-1.420695,-0.9854798,-1.2987098,0.25617474,1.299269,-0.75915813,0.42673615,-0.15188234,2.061175,-0.1956095,0.998253,-0.075701594,-0.76675165,0.25250304,-0.4579122,-0.30748785,0.43886662,0.28240654,-0.5103068,0.25533497,2.3485239
IND507123AAA,-0.7873517,0.45469108,-0.30809757,-0.68898475,-0.17389528,-1.24921,1.4996951,0.5342234,0.8151926,0.49739745,-0.83120435,-1.2233212,-1.0176733,-1.1956356,0.45997438,1.1714653,-0.5647981,0.38717282,-0.14940475,2.1148326,-0.30425337,1.0230699,-0.2798278,-0.59428984,0.5221946,-0.47741467,-0.32622224,0.3841251,0.2592322,-0.48772988,0.02467016,2.3758624
IND122002AAD,0.051132534,0.13772,0.25642577,1.6697938,-0.23117815,-0.19002672,0.42804655,0.6789648,-0.1444323,1.2110286,-0.6701776,-1.3096465,0.087637626,0.09787178,0.5513902,0.009042985,-0.42065296,0.7115746,0.11552085,0.7676625,0.08775466,-0.075,0.39191067,-1.4513141,1.2805226,1.4965461,-1.1341755,-1.4336032,0.20294957,-0.62779945,-0.09165177,-0.10191634
IND122503AAA,0.028895767,0.16272874,0.41033137,1.531163,-0.15449564,-0.25188315,0.47499958,0.71147984,-0.123167306,1.0353124,-0.5695942,-1.2483335,0.010295688,0.097378016,0.45960614,-0.061050154,-0.13015024,0.6190469,0.15590262,0.62178004,-0.07444698,-0.08666284,0.2597734,-1.1942819,1.1783224,1.3027681,-1.1815042,-1.2822274,0.12162309,-0.60623723,-0.08127143,-0.07545062
IND122004AAA,0.33160916,0.16637984,0.34425455,0.5733914,1.3139018,-0.2968834,-0.38410443,1.1154735,0.15213074,0.19661851,0.1259845,-1.0256677,-0.05045823,0.2685249,0.38749477,0.026572494,-0.22380506,0.5619968,0.6820489,0.27372307,0.01576677,0.90411097,0.32950714,-0.33542028,0.91216165,0.58141506,-0.6515631,-0.06054483,0.41063222,0.1266123,0.2750906,0.077183366
IND122413AAE,0.3154477,0.25337225,0.25193688,0.86187583,1.5623506,-0.34149438,-0.39456353,1.1043983,0.24586163,0.39972237,0.091358185,-1.2258818,-0.1472485,0.19959575,0.49268362,0.039918028,-0.2594269,0.6606847,0.73167694,0.46423367,-0.096541904,1.0359017,0.4691043,-0.19718026,0.9682815,0.71834433,-0.8220159,0.048662577,0.4597042,0.1737345,0.3986929,0.11530476
IND123001AAA,-0.2944059,0.14489184,0.52883583,-0.15426224,0.45990875,-0.23524335,0.6015119,1.0161557,-0.25365686,-0.23610885,-0.43786982,-1.062612,0.8216773,1.0771204,-0.036178797,0.1455334,-0.44937536,0.5944865,-0.2502543,0.020389322,0.14487283,0.87720543,-0.3646312,-0.6231843,2.0919874,0.47169143,-0.87322605,-0.29879895,0.11996334,-0.23559852,0.48378605,0.9590117
IND123401AAB,-0.7104374,-0.018158177,0.5011361,-0.12860735,0.21727493,-0.28712645,0.6388676,1.1640786,-0.47745538,-0.26420233,-0.23557799,-1.4041694,1.1523855,1.3417281,0.13798329,0.34383857,-0.60360676,0.76854366,-0.33188128,0.18462424,0.17305574,1.1484479,-0.4814723,-0.87344056,2.4438052,0.5093499,-0.81518066,-0.22394033,-0.036099035,-0.11563462,0.6402713,1.0294048
IND123106AAB,-0.99120027,-0.11454334,0.7172363,-0.040395733,0.07873924,-0.37419602,0.49192914,1.243831,-0.42553392,-0.45627144,-0.17327644,-1.5932856,1.3543591,1.676979,0.31825727,0.7344014,-0.5754795,0.8049674,-0.22465166,0.44289237,0.5799874,1.2625792,-0.43074352,-0.7669854,2.8306892,0.356222,-0.81598675,-0.17185324,-0.28197932,-0.40424654,0.6509256,1.1508174
IND124001AAB,0.47352934,-1.1754346,0.5275616,1.0082564,0.63571554,0.4732083,0.07976888,-0.63570756,0.037488896,0.19568498,-1.2458202,-1.3518676,0.08969867,0.40391633,0.6115952,-0.32184973,-0.24467936,0.039774217,-0.014332606,0.029937102,0.5077612,1.2239931,0.88765895,-0.12549555,0.5339357,1.2949519,-0.06769887,-0.31369406,0.12706533,-0.74503857,-0.5846726,0.5546751
IND126102AAA,0.55130833,-1.1802646,0.51745975,1.0834744,0.63113,0.70568234,0.49589643,-0.779462,-0.22418603,-0.004587497,-1.2878191,-1.535794,0.036357213,0.34967935,0.70429677,-0.54644555,-0.30900392,-0.09764343,-0.04452284,-0.076561116,0.51777345,1.4372619,1.1401039,-0.3309303,0.47419447,1.4734682,-0.026006727,-0.14496112,0.32748225,-0.8710703,-0.61201644,0.4993882
IND124141AAA,0.30344436,-0.43723395,0.26928356,0.50248164,0.7027603,-0.4726055,0.1408628,0.95094484,-0.63574564,-0.17311513,-0.14162764,-0.89174557,0.012147755,0.020198599,-0.15889771,-0.43748647,-0.44054228,0.785483,0.64864165,0.24030322,0.57598567,0.47914645,0.51760197,-0.02869703,0.9608259,0.94729525,-0.8182532,0.11142234,0.41695714,0.2640442,0.3536489,0.4645938
IND124507AAA,0.4824737,-1.4964638,0.85309,0.44119972,0.90954834,0.41804156,0.6952549,0.12044534,0.22118533,-0.038962353,-1.8779625,-1.548964,0.22695318,0.021530442,0.29358053,0.116199374,0.77771944,-0.4401712,0.3154079,0.4615218,0.2108283,0.7891212,0.35743,-0.2160704,0.55027115,0.87048763,-0.23032509,-0.11996666,-0.032600474,-0.7935402,-0.3220417,0.37392148
IND131028AAE,0.5822179,-1.7081484,1.0773166,0.3802256,1.0595295,0.34139,0.8283198,0.04348166,0.15087214,-0.010899244,-2.1347337,-1.5801412,0.22759247,-0.10248342,0.35333836,0.14370747,0.8178838,-0.5912274,0.53091174,0.5309469,0.39199036,0.82707673,0.28927392,-0.4882789,0.61872935,0.79706544,-0.23949333,-0.13033311,-0.22902785,-0.9014517,-0.26987252,0.3566382
IND125047AAB,-0.5307155,0.14535968,0.9323237,0.49242878,1.1391964,-0.5096315,0.52522486,-0.2659146,-0.027417978,-0.07060037,-0.016925626,-1.4412185,0.3222885,0.93635195,-0.31115025,-0.77563334,-0.27028492,0.84036416,0.7458777,0.984184,0.5946842,0.30731004,-0.28576007,-1.5368336,0.4852252,1.5441405,0.16337188,-0.12333273,0.11090663,-0.24721669,0.74905306,0.71966636
IND125051AAA,-0.83123904,-0.116132416,0.71456486,0.7555243,0.94061404,-0.55869704,0.62045324,-0.31656566,-0.10039056,0.07121195,-0.10524262,-1.1519467,0.38380933,1.2264359,-0.35383308,-0.80811685,-0.15944603,0.8909484,0.68548137,1.3032371,0.7743184,0.099241436,-0.3284289,-1.4592097,0.51892275,1.5559679,-0.0485101,-0.1734742,0.13318595,-0.34366387,0.6147358,0.7459392
IND335513AAA,-0.20755242,0.11126292,1.3762378,0.50243306,1.0200835,-0.32718053,0.16422461,-0.032235146,0.39328194,0.5984567,-0.32516968,-1.240356,0.36508876,0.13069837,-0.39253932,-0.42199522,0.28762332,0.8919313,0.7645114,1.2647561,0.7329302,0.12809211,-0.7244401,-1.5332671,-0.012774996,1.2905155,-0.36729664,0.37542304,0.31552684,-0.4152377,0.8391817,1.1712675
IND335523AAB,0.15677564,-0.061187107,0.8630474,0.2177678,1.2184886,-0.36257303,0.43555236,-0.16636574,0.15805322,0.28191748,-0.13089979,-1.0809424,0.29927653,0.6374139,-0.50096333,-0.62170607,0.1672077,1.1398357,0.7294986,1.1980239,0.6043966,0.4535565,-0.47298053,-1.4546385,0.6423181,1.1182865,-0.111928195,-0.26952788,0.027230171,-0.072558105,0.6415827,0.9060125
IND335524AAA,0.08608859,-0.04127522,0.7934037,0.245579,1.2303718,-0.28250208,0.38825834,-0.21350968,0.14303155,0.35433415,-0.12031643,-1.3063517,0.3210379,0.5880732,-0.4142584,-0.77734494,0.0909251,1.1988293,0.7461256,1.1971515,0.7124079,0.3652284,-0.2303902,-1.3609006,0.53638566,1.1435258,-0.23540685,-0.371322,-0.08371573,-0.0025391355,0.6422148,0.9017656
IND125050AAA,-0.892684,0.19154279,0.8356177,0.55495316,0.8557416,-0.68209964,0.45530435,-0.3001033,-0.035983525,-0.06556177,0.077341974,-1.7126395,0.17926018,1.2281117,-0.32809418,-0.95571744,-0.3346859,1.0411336,0.68684167,1.1966319,0.65020627,0.262726,-0.17806455,-1.4646636,0.6086092,1.8581437,0.36265817,-0.24769953,0.18459347,-0.5657411,0.68988353,0.7857185
IND125111AAA,-1.154611,-0.18196726,1.0633096,0.7480592,0.94925016,-0.65309936,1.0182862,-0.63237727,0.02708286,0.12045188,-0.44713843,-1.0744216,0.120195836,1.5614069,-0.6088387,-0.7582809,0.029704317,0.8254918,0.6375714,1.5502597,0.6527545,-0.03358913,-0.384625,-1.2997966,0.71168274,1.5685203,-0.4925203,-0.047510184,-0.022208342,-0.26492617,0.8137136,0.58649135
IND125104AAA,0.0081036445,0.558457,1.1622969,0.40217036,1.2912681,-0.19990988,0.15213871,-0.009919318,0.4719111,0.33276466,0.021450913,-1.3561226,0.42594403,0.017162193,-0.57264584,-0.63051033,-0.12784132,1.0298929,0.46550158,1.1597958,0.40832302,0.7023748,-0.58357966,-1.48899,0.47616273,1.2688383,-0.22961171,0.43060324,0.30988452,0.021412354,1.0183171,1.2796859
IND125121AAA,-0.7991914,-0.26291102,1.161526,0.61814535,0.9107054,-0.68293,0.95529103,-0.43038395,0.081665896,0.027579289,-0.43464515,-1.0391821,0.15383849,1.2198243,-0.24882406,-0.7166201,0.17994104,0.8205245,0.71567017,1.3922327,0.7361371,0.005910068,-0.44282952,-1.4617004,0.46371028,1.2812359,-0.53288645,-0.15429185,-0.0073739556,-0.1566279,0.66442674,0.39068022
IND131301AAA,0.37510267,-0.9688211,0.4917894,0.9583732,0.5957665,0.4242384,0.16860692,-0.58988273,-0.04519252,0.17058581,-1.3802471,-1.3050345,0.09846467,0.18056294,0.44328254,-0.3097058,-0.09229848,-0.0042305035,-0.05884497,0.09372464,0.36112556,1.1419854,0.9293584,-0.2093622,0.51013017,1.222492,-0.06801943,-0.20401439,0.41544518,-0.715255,-0.70857275,0.4401899
IND126112AAA,0.059751254,-0.9669666,0.59797823,0.7365312,0.56013745,0.23695786,0.14112662,-0.30434567,0.107973516,0.10670764,-1.368243,-1.2986075,0.39577252,0.34774816,0.33009684,0.016211096,0.34991762,-0.082718715,0.012607333,0.44041556,0.012330096,0.7890819,0.4317209,-0.11085058,0.7131142,1.0139441,-0.17535411,-0.16216184,0.28168127,-0.54329735,-0.85972995,0.46775073
IND127201AAA,0.28696406,-0.4964994,0.27291587,0.7079257,0.6521001,-0.6120593,0.18599576,0.95451283,-0.97534674,-0.25074565,-0.14600426,-1.0599322,-0.013388006,-0.12118291,-0.2796922,-0.42355326,-0.59991807,0.836216,0.8234707,0.393152,0.80063194,0.5981049,0.57838464,0.10393564,1.0208329,1.0832226,-0.89860964,0.068476,0.37324405,0.27037838,0.35521123,0.59808046
IND131021AAA,-2.2248185,-1.2025821,0.963003,1.5226755,0.13194917,-0.94580895,1.2505271,0.3778938,0.24971642,1.213762,0.4292734,-0.56855977,0.42015842,-0.68433136,-0.31083125,1.7228907,-0.47375646,-1.1435969,-1.0169364,0.24195053,-0.3982151,1.3831955,1.4606236,-1.645588,0.05421202,1.3593062,-1.5305752,1.4771194,-0.2148002,-1.3383247,-1.0679667,1.3224838
IND131028AAA,-2.139153,-1.2166786,0.9958305,1.435472,0.10314064,-0.90630937,1.2329462,0.35054925,0.26775128,1.196745,0.42376977,-0.6781583,0.4064711,-0.69952583,-0.30991417,1.711119,-0.48100182,-1.1241148,-0.99260855,0.29166982,-0.40086696,1.3380934,1.4691052,-1.6674461,0.16464676,1.3568542,-1.5538062,1.4548851,-0.15873696,-1.3351175,-1.0086943,1.2877003
IND132103AAA,0.27967283,-1.36661,1.0443645,0.7276502,0.7385143,0.121292464,0.43893704,-1.0909338,-0.20062523,0.48063308,-1.5518346,-0.89508075,0.20240878,0.7036169,-0.10851783,-0.03169339,-0.15187667,-0.33172935,-0.16095194,1.0081676,0.28330705,0.7349304,0.40797165,0.23126708,1.1002681,1.1782414,-0.52277756,-0.30745363,0.3181144,-0.66452175,-0.59328496,0.17281263
IND136118AAA,-0.52928233,-0.7297969,1.2507985,0.77492625,0.534773,0.33202133,0.5545074,-0.65605605,0.20433912,0.09803091,-1.2481433,-1.6910204,0.48535392,0.33452496,0.07966548,0.124020964,0.29283726,-0.04617229,-0.038554247,0.20289046,0.3362223,0.63946795,1.0872656,0.2028395,0.90330154,0.7569782,-0.023423342,-0.16578378,-0.039579637,-0.32469642,-0.67906374,0.8603853
IND201204AAA,-0.26747912,-1.5188582,0.8348437,0.48726493,0.7624053,0.5549547,0.26724038,-0.1678587,0.041683935,0.23806565,-1.1556504,-1.2458254,0.40833324,0.6871762,-0.013081575,0.5949924,0.10977184,0.24782331,-0.07863963,0.057417747,0.017470734,1.0313785,0.6273476,-0.2628184,0.6158036,1.0996662,-0.913196,-0.37228465,0.09524615,-0.48395124,-1.18191,0.3857597
IND244001AAA,-0.016689908,-1.203867,1.4608698,0.8964604,0.6168391,0.13816243,0.072944865,-0.15438956,-0.046126798,-0.048093826,-0.8085068,-1.0846221,0.44975677,0.17823192,0.50986856,0.6162567,0.35586262,-0.684821,-0.077750884,0.5647313,-0.003061215,1.1970537,0.7194333,-0.01580569,0.5203254,1.1867388,-0.085859574,-0.2341869,0.29503968,-0.3195623,-0.66642565,0.22680397
IND244235AAA,-0.25264055,-0.6710594,0.9142456,0.5801038,0.36720008,-0.0060140453,-0.08435116,-0.39302653,0.101855926,-0.1316499,-1.493117,-1.1317718,0.24521846,0.49699512,0.052854132,0.1534814,0.13973352,0.104746476,0.11902851,0.04030782,-0.03927877,1.1744688,0.10770203,0.11086214,0.39571878,1.3364636,-0.28059357,-0.035866525,0.08313448,-1.1112882,-0.571945,0.42619103
IND247667AAA,0.67230356,-1.0503513,0.92015535,0.5985657,0.39849588,0.096500285,-0.011678511,-0.6971953,-0.2212256,0.2305551,-1.2383841,-1.4775699,0.73246986,-0.018281389,-0.17383465,0.4901474,0.28216162,0.101551756,0.10920624,0.24147601,-0.24771066,1.1044482,0.47211418,-0.28243974,0.830575,1.0437622,-0.26608247,-0.93058276,0.27602565,-0.65338457,-0.289869,0.67804563
IND247667AAB,0.21162684,-1.011615,0.710384,0.7881635,0.69842136,0.26428077,0.016245918,-0.3559777,0.10105339,-0.004701968,-1.4047557,-1.3085049,0.3235936,0.45093447,0.16350652,-0.0264429,0.04278505,-0.18167894,-0.19037035,0.18431501,-0.06064017,0.90944946,0.63855135,-0.1029716,0.83973074,0.83644456,-0.4335769,-0.19260873,0.21728791,-0.46582943,-0.6074977,0.48303598
IND248001AAD,0.03460766,-0.8013819,1.1145331,0.48387986,0.20179226,0.86219835,-0.0777606,-0.21315105,0.3620743,0.20700552,-1.1720842,-1.2197165,0.51385695,0.5344765,0.5580361,0.0716006,0.18923923,-0.27259707,0.04314048,0.6564118,-0.13081318,0.8215204,0.63174367,0.00806801,0.6598921,0.9220766,-0.5485363,-0.4100119,0.6458615,-0.9869175,-0.7112665,0.91311675
IND249407AAA,0.82746375,-0.95656955,1.0232303,0.6199108,0.28444374,0.10064673,0.017266477,-0.98662806,-0.19451343,0.25531897,-1.3733587,-1.7369684,0.76113343,-0.1443402,-0.3140227,0.8228068,0.04060601,0.07729489,0.13911666,0.18884724,-0.35606062,1.4111389,0.5944416,-0.48106268,0.98765135,1.0430208,-0.19811378,-1.0611843,0.12371378,-0.69885343,-0.23393989,0.7465732
IND250002AAA,-0.2932785,-1.6713982,0.7262262,0.6320393,0.68502164,0.6298001,0.280545,-0.22825038,0.05357825,0.16994353,-1.2310426,-1.2240366,0.46953622,0.6023628,0.004538072,0.55173707,0.10511523,0.4439147,0.11396001,0.07114816,-0.0011941604,1.0572283,0.79173255,-0.43139404,0.66474164,1.1298212,-1.0313094,-0.33726454,0.018121425,-0.41254014,-1.2017672,0.3132512
IND250609AAA,0.11374194,-1.119259,0.9240032,0.50135636,0.62465113,0.27247494,-0.018104311,-0.40846637,0.12216129,0.23936754,-1.1932659,-1.2397661,0.39627358,0.22305943,0.14015564,-0.11735949,0.31559634,-0.03696526,-0.011179719,0.32924345,0.10811869,0.88003993,0.45659617,-0.050434507,0.7525833,1.0020293,-0.3150917,-0.23824884,0.24057998,-0.47142947,-0.76950717,0.4218682
IND250611AAA,-0.13087837,-1.2622524,0.94768625,0.53666365,0.95844257,0.34451932,-0.3246769,-0.32973424,0.47720915,0.36992365,-1.2597617,-1.6422594,0.3924419,0.20152484,-0.019519843,0.13624103,-0.15018025,-0.45197496,-0.05708847,0.3262733,0.028997447,0.721167,0.15310515,-0.5856899,0.778161,1.0576776,0.10876333,-0.19373584,0.38766998,-0.675643,-0.7545867,0.491518
IND251001AAA,0.10250669,-0.80628186,0.9444714,0.42483714,0.23349543,0.7909898,0.03581501,-0.20384239,0.18775712,0.3428776,-1.4317433,-1.2557685,0.50976527,0.48689905,0.6523517,-0.018453369,0.2386414,-0.18219793,0.1990575,0.7333949,-0.060413368,0.74861187,0.6656419,-0.063873425,0.6056161,1.0599707,-0.61202973,-0.4743098,0.4519125,-0.77713376,-0.73972636,0.93578446
IND132001AAA,0.21109557,-1.4380606,1.156523,0.668743,0.78527975,0.19459273,0.52324957,-1.0224634,-0.28877628,0.5353832,-1.5017848,-0.86285496,0.11050964,0.8420764,-0.117662586,-0.035682984,-0.21873443,-0.35616976,-0.09317796,0.9622838,0.26954606,0.63729465,0.35200888,0.19623241,1.0345436,1.2862618,-0.51403046,-0.21082723,0.34036514,-0.64850295,-0.5017788,0.2590857
IND132103AAB,0.16492426,-1.4272773,1.1401666,0.6851424,0.78627247,0.15437762,0.4441441,-0.87452114,-0.19414435,0.6923413,-1.5430998,-0.96094173,0.14370196,0.73015404,-0.07036455,0.16320637,-0.08511548,-0.13135262,0.009444394,0.7071196,0.35168612,0.53238636,0.4232729,0.274968,0.7616129,1.2035533,-0.43293336,-0.30640078,0.40073678,-0.6817887,-0.4820292,0.2834996
IND133004AAA,0.64588994,-0.45632255,1.3506979,-0.2546347,0.33040076,0.8694907,-0.27949557,0.53134423,-0.9668407,0.49197346,-0.44898275,-2.4819856,-0.16712357,0.20528121,-0.5410771,-0.21735534,0.5523271,-0.040447142,-0.66192263,1.0136206,-0.41804168,0.88336325,1.0722355,-0.7476718,0.39549243,0.99508625,-0.46662968,0.9015507,0.5269175,-0.5576103,0.6141395,-0.21437326
IND135001AAA,0.52340174,-0.394815,1.143033,-0.08492571,0.09860191,0.8486287,-0.3514189,0.48368707,-0.95589477,0.37166712,-0.5620957,-2.1806762,-0.2729187,0.37874582,-0.3492183,-0.32597986,0.58458453,0.024539173,-0.60887223,0.9532102,-0.37955397,0.95619893,0.87729824,-0.49967012,0.6561577,0.8245512,-0.46956202,0.7780185,0.5426988,-0.33323786,0.49791214,-0.22040075
IND134102AAA,-0.1036787,-0.71949375,0.73930204,0.4815377,-0.19130866,1.0953879,-0.17074525,0.7242591,-0.52000535,0.7028156,-0.21245672,-1.8489506,-0.46875256,0.43979362,-0.93199784,-0.2638041,0.52430964,-0.08511904,0.06590294,1.0669187,0.99527043,1.2313287,0.02245622,-0.51136523,1.4548656,0.9124249,0.029648863,0.6654243,0.261374,-0.8157634,-0.54763424,-0.19893593
IND174103AAA,-0.08535783,-0.7971849,0.6082816,0.23082057,-0.33438516,0.75729954,-0.11121628,0.54058176,-0.58994955,0.7552636,-0.24201989,-1.6480486,-0.31319767,0.54054916,-0.9916199,-0.24375673,0.6733121,-0.011520513,0.001362374,0.8786926,0.82480145,1.0284204,0.15105465,-0.47000164,1.4265846,0.9308751,0.12320042,0.57148576,0.23077735,-0.87596023,-0.4802958,-0.10031608
IND134109AAA,0.24194324,-0.7974028,0.65692014,0.17633525,0.1853559,0.5302923,-0.6943967,0.26726395,-0.42463127,0.75257427,-0.17931694,-1.1849114,-0.035951857,0.43171918,-0.2867123,-0.42418745,0.66950005,-0.18565899,-0.3909518,0.81437826,0.19323629,0.8024128,0.8575691,-0.45180133,1.0516125,0.7991153,-0.27427942,0.58621526,-0.10803717,-0.5691146,0.02195523,-0.27579662
IND134203AAA,0.48226896,-0.5434816,0.7994396,0.5421152,0.331885,0.5631176,-0.7236523,0.13010749,-0.3414443,1.0566752,-0.14230238,-0.9964943,-0.04662326,0.69634604,-0.06381631,-0.42410976,0.70613277,0.76608515,-0.44601753,1.2904435,0.28570858,0.67824465,0.97014153,-0.66111445,1.2359147,1.0175883,0.13059185,1.040032,0.1955033,-1.0222603,-0.13281868,0.24550545
IND140501AAA,0.31792068,-0.5054394,0.74856555,0.48129743,0.23540372,0.59893346,-0.670311,0.12554686,-0.3807955,0.9625051,-0.1605408,-0.96524554,-0.14722158,0.80949134,0.0029879804,-0.44613287,0.74440634,0.7798168,-0.411079,1.2634126,0.19349553,0.7684705,0.9162235,-0.5623105,1.0944867,1.0067413,0.16865914,1.0334094,0.2751123,-1.1501216,-0.1682275,0.105299585
IND173025AAA,0.42263094,-0.42285421,1.0260419,-0.10689844,-0.029898942,0.83339494,-0.42640096,0.49904072,-0.75971156,0.36228567,-0.6636517,-1.8602457,-0.08865707,0.29407918,-0.4562671,-0.39326856,0.69290566,0.06757466,-0.6229375,1.0770502,-0.20377436,0.8314783,0.77542347,-0.54932255,0.68020475,0.76941377,-0.39706847,0.6871382,0.31229216,-0.33024284,0.41600817,-0.19423328
IND136027AAA,-1.2259991,-0.4012455,1.850941,0.82523704,0.60725033,0.6391032,1.223102,-0.77704614,0.5099485,0.12555103,-1.7058043,-2.3971295,0.1980486,0.34471008,-0.27176765,0.5381753,0.3285206,-0.1353689,-0.19633584,0.6773409,0.87188286,1.0185137,1.4985609,0.023233233,1.2245269,0.74657935,0.3388279,-0.21154706,-0.26984006,-0.2642077,-0.60700643,1.1143054
IND132039AAA,-1.5018088,-0.13951136,2.0348673,0.65696466,0.6083547,0.7110829,1.2376523,-0.647582,0.70538026,0.07314266,-1.8313496,-2.4636054,0.1685665,0.39867827,-0.4309064,0.71655697,0.046238795,-0.20587124,-0.14160319,0.8198542,0.9664886,1.2554977,1.6595118,0.05612339,1.2530869,0.99945503,0.5795124,-0.32509074,-0.17883778,-0.15257078,-0.44978207,1.1071025
IND136128AAA,-0.9660462,-0.513884,1.5613288,0.69017,0.39042795,0.5387476,0.9714535,-0.74322563,0.56160027,0.09181022,-1.4124769,-2.0850487,0.36888778,0.37698543,0.06277072,0.34708783,0.45295388,0.019351058,-0.19511037,0.39076206,0.66075516,0.80608034,1.2737755,0.051450554,1.066137,0.84726745,0.15477943,-0.29242274,-0.27695143,-0.38188615,-0.68548036,0.85391176
IND140001AAA,0.01828647,-0.28599012,0.1683796,1.156189,-0.55427015,0.6358125,-0.26708394,0.16306026,-0.8629101,0.7097128,-0.61747855,-1.6532004,0.18231961,1.1155066,-0.22287422,-0.1531674,0.10076062,-0.088874705,-0.60233426,1.1253597,0.02890821,1.2200228,1.1317842,-0.034720458,1.631916,0.95499957,0.035474557,0.36135507,-0.12183795,-0.7266369,0.55564827,-0.52201974
IND140118AAA,0.08484556,-0.38672465,0.3506644,0.91700715,-0.34125113,0.7560468,-0.3974914,0.26120907,-0.7340434,0.6502393,-0.373573,-1.3650846,-0.0014287097,0.8553148,-0.1815859,-0.27114716,0.19427559,-0.17406723,-0.4152649,0.98655677,0.015755564,0.9890119,0.9452783,-0.26664028,1.3517637,0.7940923,-0.046162,0.25126815,-0.15617539,-0.6606274,0.44569212,-0.56700927
IND140301AAA,-0.0983918,-0.3868868,0.3565416,1.0401788,-0.28012952,0.68295723,-0.27372688,0.111577645,-0.79898334,0.56994826,-0.24289374,-1.5578802,0.19993421,0.9011369,-0.27919653,-0.06722325,0.27689487,-0.118901014,-0.44296876,1.0273012,-0.045721784,0.8750713,1.1175103,-0.106402986,1.5837327,1.1157387,-0.030077614,0.2261478,-0.31453946,-0.6339842,0.71490663,-0.45508736
IND140901AAA,-0.021592591,-0.5187106,0.43923113,1.0548245,-0.13639177,0.5924266,-0.2348342,0.014938668,-0.5992463,0.54422027,-0.011517391,-1.6825604,0.3415369,0.64471024,-0.25528982,0.0102325,0.5789782,0.024763485,-0.22643825,1.0764893,0.14356287,0.7212203,1.1853317,-0.11457066,1.6691604,1.0201957,0.121382356,0.24125127,-0.10861056,-0.57280606,0.760514,-0.48112333
IND140401AAA,-0.44390443,-0.69141155,0.29001665,0.5474404,-0.09207008,1.5038949,-0.3421173,-0.07200714,0.086329535,0.8499066,-0.06620175,-1.9718214,0.32486528,-0.09917864,-0.030799482,-0.37519503,0.95166063,1.1663079,-1.0284108,1.2940893,1.298261,1.2870003,0.3944864,-0.044097222,-0.021628302,0.797627,-1.0387477,0.3389943,0.3181984,-1.4263681,1.0957704,-0.38408443
IND160055AAA,-0.04510306,-0.5263575,0.4166554,1.0128446,-0.034492016,0.5856605,-0.26181582,0.042834617,-0.5146003,0.63219565,0.18734111,-1.6051185,0.40934604,0.5375975,-0.16620882,0.0013389922,0.58311725,0.041514095,-0.19119637,1.0537417,0.070525005,0.7288762,0.97549975,-0.1386056,1.5643029,0.968571,0.061366964,0.18049343,-0.06528231,-0.635994,0.6143392,-0.6071763
IND141003AAB,-0.2894667,-0.094023086,0.10097722,0.020046392,-0.4114086,1.1638489,0.022303784,0.09033935,-0.3500889,0.9784225,-0.15758668,-1.5823914,0.19265097,0.057457384,0.26574653,0.08844554,1.3387499,0.587155,-0.87953824,0.747315,1.2457317,1.0920298,0.3884223,0.030178048,0.9758086,1.1406976,-1.4249043,0.005705544,-0.05597306,-1.4975295,0.5262448,-0.27432203
IND142026AAA,-0.27578804,-0.13077267,0.10420999,-0.006718207,-0.47305882,1.0263841,-0.047586333,-0.0029941914,-0.59803,0.97892565,-0.18531866,-1.7008182,0.24369444,-0.15117905,0.23961434,0.12511103,1.4036049,0.5788232,-0.7530221,0.8723302,1.1272697,0.91060054,0.32214952,0.06751058,1.036997,1.130456,-1.5817146,0.14466727,-0.09130121,-1.633602,0.6448062,-0.20215023
IND141010AAA,-0.47660866,-0.56898004,-0.030372845,0.11393299,-0.3256612,1.2885678,-0.43616098,0.10159526,-0.33091542,0.84523034,-0.014467989,-1.3734114,0.3347199,0.14814621,0.061202466,-0.10089697,1.0442299,0.7791944,-0.8731845,0.69994473,0.9559428,1.1415873,0.5554046,-0.102663554,0.7720645,1.1495961,-1.2236273,0.17041034,0.28841928,-1.4181906,0.6004787,-0.10100711
IND141109AAA,-0.2569269,-0.12898622,0.09555551,-0.04553981,-0.29911318,1.1216698,-0.06188201,0.13072824,-0.7087334,0.86229384,-0.1808129,-1.7263627,0.21768199,-0.107886545,0.4386739,0.07808822,1.3557411,0.7454333,-0.79958385,0.7501962,1.3273975,1.0625803,0.26674697,-0.013009932,1.0335758,1.2213063,-1.4303762,0.072445296,-0.19130275,-1.6930883,0.6055133,-0.15836042
IND141115AAA,-0.57963926,-0.62593997,-0.3984323,0.6526255,-0.4928053,1.0623562,-0.62870324,0.88449454,-0.6596585,1.3992158,-0.24199636,-1.2823297,0.3559521,0.23469399,0.29347512,0.5022475,1.0145121,0.9970501,-0.71576756,0.73264307,0.93017095,1.9630239,0.8035481,0.045036234,0.26016098,1.0552336,-1.4608417,0.5400258,0.38549712,-1.3738517,0.21329863,-0.22686985
IND151001AAA,0.04705419,-0.20539398,0.79587835,0.2513864,-0.038713295,0.75976217,-1.2219741,-0.6418668,-1.0506387,0.5934845,0.28031847,-1.468237,0.15539229,0.35580993,-0.39512634,0.33790553,0.84642434,0.234711,-0.7160851,0.69549835,0.9700604,1.4751642,0.5584656,-0.6840186,0.8941927,0.44250673,-0.38779894,0.18015714,0.3358596,-1.0384111,0.35961682,0.46550405
IND144001AAA,-1.049888,-1.530458,0.7711384,0.26299807,0.11224927,1.1941361,-0.2332551,0.5366305,-0.66469103,1.0611277,-0.28508955,-1.3757505,-0.8868614,0.035397124,0.3393285,0.10084532,0.66134,0.22336248,-1.854725,0.7303196,1.064981,0.3907963,0.96291184,-0.07782242,1.2363483,1.5472562,-0.70372677,0.45007008,0.46906856,-1.0200592,0.69015145,-0.32932818
IND144040AAA,-0.9687254,-1.4102987,0.6272984,0.10949727,0.11017429,1.275259,-0.18657863,0.75969523,-0.5082178,1.1790577,-0.24239236,-1.2902944,-0.728827,0.13121775,0.2745539,0.12696287,0.67632914,0.22449414,-1.6632813,0.69559383,1.0780504,0.4410071,1.2903916,-0.016319497,1.1330001,1.3748109,-0.7637244,0.51283693,0.4043797,-0.7828181,0.7141173,-0.09465102
IND144401AAB,-0.74590886,-1.2074653,0.56301576,0.22104017,0.16375712,1.2009879,-0.2048084,0.5798592,-0.3549872,0.8931942,-0.3094007,-1.5444921,-0.7332147,0.19974682,0.17640999,-0.14690834,1.1558053,0.20146483,-1.5146071,0.85092676,0.93970233,0.46125883,1.0841343,-0.12691876,1.1900958,0.9124735,-1.0118153,0.3173175,0.071353115,-0.82213277,0.33304232,-0.0006450554
IND144601AAA,-1.022722,-1.3417227,0.61399305,0.2636215,0.21901877,1.1197817,-0.18580389,0.52670616,-0.41422257,0.80629975,-0.1948243,-1.353909,-0.63643545,0.061028548,0.17239527,0.035347104,0.95865977,0.17443793,-1.5318547,0.830367,1.0488986,0.39730808,1.1102397,-0.026237847,1.0427524,1.2641801,-0.666501,0.49952134,0.2787921,-0.9047983,0.5675314,-0.15452752
IND144001AAC,0.14835511,-0.5481453,0.2279235,0.19741407,-0.16367733,0.8227813,-0.42034197,0.2745558,-0.27847794,0.8803173,-0.31666324,-1.5004475,0.24619383,0.39817515,0.07785677,-0.2844095,1.0387392,0.6020759,-0.33921513,0.80702305,0.6306825,0.80621386,0.55983156,-0.19324751,0.7875129,0.6561981,-0.78207976,0.2810353,0.17647257,-0.84205145,0.28943202,-0.4903555
IND144527AAA,-0.5546911,-0.88484913,-0.25336346,0.7491208,-0.657187,1.0056969,-0.7514515,0.9459109,-0.56936187,1.7918746,-0.14619173,-1.2313608,0.14415637,0.13532096,0.5368665,0.4723961,0.99713606,1.1109201,-0.540287,0.6362847,0.7404109,2.0535612,0.7910138,0.23305972,0.2899305,1.1099664,-1.4735719,0.28639376,0.5345532,-1.7563897,0.30222803,-0.15457904
IND145001AAA,0.57908475,-1.0179186,1.4898967,0.6052727,-0.26983836,-0.39599234,0.1669999,-0.44024402,0.34999752,1.0145452,-1.5203406,-0.87727696,0.087156765,-0.015275597,-1.0247873,1.7098917,-0.8635612,-0.11574124,-0.20354302,1.3576787,-1.1109443,1.5283476,-0.54906934,-2.35775,0.6340109,-0.38017252,-0.05500094,0.3876767,-0.4493731,-1.7996312,1.886058,0.86635333
IND176201AAA,0.57917064,-1.1888816,1.427251,0.64004046,-0.31715184,-0.5013148,0.30994508,-0.34442106,0.2856331,1.0984199,-1.4686612,-0.87341475,0.079264134,-0.059803255,-1.0369241,1.5745705,-0.7865841,-0.18331465,-0.11542348,1.350127,-1.1802973,1.5064148,-0.57183063,-2.3738272,0.58381295,-0.3432746,0.061859462,0.37809166,-0.3543691,-1.659875,1.8090011,0.8940358
IND176303AAA,0.5072441,-0.9584628,1.4785146,0.6509589,-0.16188715,-0.3835647,0.1905026,-0.42971152,0.35998896,0.9120735,-1.5212578,-0.92410153,0.126997,-0.020933183,-1.003449,1.6833334,-0.890607,-0.13564406,-0.26701424,1.2887616,-1.0708486,1.5221843,-0.5215059,-2.3867443,0.63430774,-0.4316486,-0.028359435,0.38433975,-0.4679523,-1.778761,1.8485638,0.8082719
IND147001AAB,0.06567297,-1.2203727,0.1800262,0.4830666,0.2741145,1.0051425,-0.5828855,0.06433833,-1.0082208,1.1324401,0.044816803,-1.655886,-0.2377315,0.51995903,-0.15430507,-0.13552052,0.226496,0.2630126,-0.18642949,0.90211236,-0.0942239,0.27899,0.6755065,-0.8170729,1.0118684,0.433377,-0.4996044,0.627389,-0.41853458,-0.5656299,0.111759484,0.13328323
IND147201AAA,0.011747667,-1.4105831,0.09808192,0.5541811,0.2400027,1.1338826,-0.7008669,-0.024562523,-1.0614643,1.3525093,-0.014726578,-1.8651326,-0.0043193097,0.40601033,-0.18949617,0.012900036,0.055878732,0.2971975,-0.18760335,1.3638084,-0.031666845,0.33810732,0.72744536,-0.9971968,0.98504174,0.5246676,-0.74837434,0.8244195,-0.6875713,-0.44735464,0.029248789,0.3596974
IND147001AAD,-0.01313954,-1.2599546,0.11437919,0.51897544,0.11847356,1.0569032,-0.6970817,0.041338835,-1.047702,1.1482545,-0.1368699,-1.673127,-0.1573251,0.32594445,-0.1439084,-0.09628092,0.13533403,0.33883175,-0.20404793,1.0542306,0.0731671,0.368427,0.6837657,-0.8516414,0.9371647,0.5254244,-0.59000146,0.73967904,-0.5623605,-0.321452,0.017343063,0.1529354
IND148023AAA,-0.42970935,-1.494656,0.023794819,0.55336714,0.07419078,1.2220495,-0.81325966,0.07764091,-1.1825051,1.4484025,-0.28227928,-1.930131,0.28596509,0.20550619,-0.08277636,0.079069026,-0.15010512,0.2182657,-0.24493648,1.397766,0.3161507,0.42065102,0.71849,-1.3586632,0.7653562,0.69883156,-0.46981034,0.8549307,-0.9288088,-0.08267818,0.1289001,0.53353745
IND147101AAA,1.0718358,-1.0272505,0.50311166,0.41412023,-0.22296274,0.46171483,-0.4081671,0.57492936,-0.41281527,0.40312573,-0.3432947,-1.2021229,0.32502076,0.20937225,-0.55488944,-0.13303919,0.6629844,0.26267773,-0.5017914,1.083271,0.5148735,0.7979488,0.6438475,-0.57405573,1.2607613,0.5877447,-0.5935512,0.4417408,-0.25788748,-0.78417516,0.14179954,-0.1482198
IND147105AAA,1.0753696,-0.9996715,0.6788064,0.42302078,-0.17311694,0.5104419,-0.5271403,0.5329681,-0.31244236,0.4434536,-0.3900112,-1.2589216,0.39796162,0.23403837,-0.45325452,-0.21507809,0.63193524,0.29244536,-0.5814039,1.003735,0.4638106,0.8235121,0.69169,-0.6783919,1.3701097,0.37965012,-0.54287356,0.40877455,-0.18855992,-0.9057842,0.14100511,-0.14112553
IND148001AAA,-0.5272936,-1.2352244,-0.003137859,0.38002077,0.11891696,1.2836164,-0.7326551,0.012749411,-1.3529257,1.5872661,-0.40301433,-2.0316885,0.42433202,0.11224312,-0.12969603,0.2609691,-0.20001903,0.13612737,-0.14859484,1.3593949,0.56363684,0.4132918,0.7615722,-1.6054875,0.86909544,0.9116071,-0.5113568,0.7108229,-1.219638,-0.0002802315,0.14882603,0.63096917
IND148024AAB,-0.5894056,-1.3214921,0.021257797,0.29266697,0.10852645,1.3040034,-0.8177809,0.14382814,-1.348661,1.729412,-0.3095102,-1.969986,0.5202345,0.12162138,-0.022166202,0.18745175,-0.1831315,0.31260097,-0.08499924,1.3838867,0.25341952,0.57989687,0.72971725,-1.5580515,0.8353812,0.7583307,-0.55406165,1.0444382,-1.1160837,-0.2134408,0.34446663,0.57777625
IND148028AAA,-0.09519519,-1.2874829,0.070538856,0.57880026,0.36569747,1.1486902,-0.57891303,-0.07778859,-1.2114893,1.2746826,0.04444928,-1.8741088,-0.33371842,0.5218995,-0.089966305,-0.21226005,0.31403905,0.2828714,-0.23456465,1.1867483,-0.08830356,0.3786981,0.6778982,-0.9442485,0.9892754,0.42558733,-0.76160866,0.78806794,-0.46004197,-0.50848323,-0.020576702,0.20497417
IND148101AAA,0.13935688,-0.118161924,0.7537845,0.35078663,0.51188093,0.94564605,-1.3522604,-0.7968518,-1.2520968,0.77813524,0.6269692,-1.7712592,0.0957237,0.24487847,-0.21695384,0.26356655,0.60519624,0.045645244,-0.57661974,0.7377228,1.1597307,1.8994788,0.6402094,-0.9902884,0.9520412,0.27635568,-0.5494972,0.15641646,0.48292077,-1.3097342,0.3381386,0.33885077
IND148102AAA,0.23103301,-0.08687036,0.77516854,0.40678328,0.5229056,0.9214575,-1.3103755,-0.87245643,-1.1290895,0.6632844,0.69571304,-1.8314072,0.037948992,0.3343373,-0.27473104,0.4523944,0.57470196,0.14481151,-0.6756462,0.80488783,1.0622638,1.8313056,0.66675967,-0.8978066,1.0698316,0.4111869,-0.6660533,0.18682274,0.4960386,-1.4008136,0.36244485,0.22768934
IND151103AAA,-0.035538744,-0.091877885,0.56180733,0.24159047,0.00014395139,0.67662865,-1.370889,-0.74006695,-1.0646582,0.6201005,0.5928256,-1.6598966,-0.0021317448,0.10012115,-0.34728813,0.47009575,0.74622905,0.039131936,-0.87543625,0.8014821,1.031803,1.8931851,0.75860655,-0.7776423,0.9426302,0.8361352,-0.26666084,0.2891443,0.39908028,-0.9686173,0.32267582,0.30511215
IND151302AAA,-0.21793868,-0.21295561,0.7904706,0.32713252,-0.013749759,0.5748679,-1.6105702,-0.7641003,-1.1178415,0.6840821,0.40136823,-1.7492056,-0.06326667,-0.16547856,-0.5641981,0.65500426,1.0945914,0.32376596,-0.95384204,0.79371107,1.1364923,1.7510307,0.46483225,-1.1105744,1.0146867,1.0677782,-0.24492864,0.17492597,0.19300553,-1.034569,0.41586873,0.7572861
IND151505AAA,-0.14562702,-0.11836111,0.68059796,0.36067522,-0.23157457,0.56178206,-1.6979283,-0.6758966,-1.0571836,0.3547391,0.44182393,-1.6487396,0.061842605,-0.20267057,-0.4924533,0.8713864,1.1822662,0.23649459,-1.1463068,1.041251,1.2810944,2.0477617,0.5962105,-1.4348574,0.99661726,0.98014474,-0.14015223,0.095115386,0.17535797,-0.99677026,0.42917606,0.74027526
IND151506AAA,-0.070263006,-0.17954773,0.5859149,0.27755818,-0.15423505,0.4912906,-1.5769119,-0.6813965,-1.1368941,0.4749797,0.51366097,-1.7152827,-0.0007675951,-0.19934922,-0.5135157,0.8354755,1.0853386,0.2658938,-1.0537992,0.9602411,1.122804,1.8489473,0.5687014,-1.0410107,1.0529257,0.9772405,-0.17279688,0.13587317,0.2686057,-0.9153182,0.5207982,0.6146268
IND152024AAA,0.35970175,-0.6401742,0.3285492,0.1753995,0.051123217,0.8641137,-0.62534684,-0.31855282,-1.1397238,0.5822262,-0.06544143,-1.4176894,-0.16828679,1.199776,-0.80694777,0.021824714,1.0497094,0.21407817,-0.5574752,1.2329695,1.1681002,1.6143838,0.8773752,0.18980147,0.30568284,1.0232054,-1.1600193,0.14425567,-0.033100497,-1.2598376,0.7957394,0.73476905
IND152123AAA,0.5514213,-0.8085834,0.31009334,0.05657989,-0.016345449,0.8257607,-0.4174278,-0.42541414,-1.2454911,0.67597294,0.08193854,-1.5312576,-0.4327009,1.1507537,-0.7245251,0.045996394,1.2446164,0.07690089,-0.3601224,1.426449,1.2365689,1.789118,1.0235837,0.27306837,0.21634686,1.2563217,-1.0915272,0.011397715,0.08486253,-1.3783379,0.8154129,0.6489574
IND140603AAA,0.20644233,-0.6078265,0.6216416,0.25445405,0.30812255,0.63688076,-0.3369672,0.39643583,-0.676399,0.49642998,-0.11829016,-1.2479243,-0.11183961,0.6311023,-0.24852529,-0.5421607,0.72710437,-0.03974363,-0.44425318,0.89627016,0.4148053,0.86356294,0.6160709,-0.4087583,1.0835783,0.764511,-0.480967,0.3626002,-0.1351771,-0.43390432,-0.2014743,-0.29311696
IND160003AAA,0.32223216,-0.625974,0.61790305,0.18744841,0.07484239,0.5435129,-0.6356678,0.061613977,-0.4691333,0.44101158,-0.35946178,-1.3177944,-0.047601312,0.46641213,-0.2688614,-0.42930976,0.4816233,0.232224,-0.43808398,0.90643847,0.4702037,0.5469154,0.51237845,-0.2980738,1.2718766,0.677608,-0.4544529,0.57703185,-0.18967491,-0.62235034,0.024906136,-0.25534686
IND160102AAC,0.35129452,-0.62736154,0.6512956,0.46786302,0.056566045,0.6264301,-0.4100665,0.24126393,-0.47429267,0.7492864,-0.14479956,-1.1425786,-0.008393671,0.45168886,-0.18612017,-0.2994137,0.6563736,0.19954462,-0.31144974,0.97640765,0.41350114,0.63949037,0.7313466,-0.41074693,1.1446103,0.60946554,-0.19490962,0.52442014,-0.124599256,-0.35097432,0.03617816,-0.2401172
IND173212AAA,-0.15792093,-0.74837756,0.7178428,0.22044383,-0.28287297,0.8203756,-0.24144466,0.5133594,-0.60275596,0.77652866,-0.22894011,-1.8181022,-0.3578912,0.5682108,-1.0084578,-0.2342842,0.44499475,0.13906986,-0.10629561,0.9001623,0.90521044,1.0311248,0.10656312,-0.5178317,1.5310942,0.8261623,0.11541264,0.5476746,0.18550041,-0.7419821,-0.46029726,-0.13106216
IND174001AAA,0.2582194,-0.13589917,0.721506,0.31548566,0.52009404,0.43583202,-0.9921637,0.22675493,0.07968696,1.2745731,-0.7045894,-1.6152065,-0.69867074,0.52275556,-0.8287688,0.5640898,0.5422556,0.38567778,-0.4571498,1.591024,0.42637601,0.56805253,0.67170453,-0.42944893,0.9733031,0.6297401,-0.43646967,0.37091354,-0.31428388,-0.7761942,0.1688072,-0.6028677
IND174307AAA,0.670972,-0.43366733,0.60286456,0.55426705,0.07533376,1.0967888,-0.11019612,-0.2627873,-0.33266383,0.5645892,-0.40124592,-1.2547112,-0.1356015,0.39259008,-0.2625094,-0.4917459,0.465805,0.06179908,-0.72590405,1.447563,0.8449333,0.7702984,0.85671,-0.7666321,1.3787426,0.79012525,-0.6048315,0.35818294,0.05949181,-0.21871491,-0.17367874,-0.3094225
IND176041AAA,0.57383513,-0.44737354,0.62494445,0.5756117,0.0667955,1.0339193,-0.18600373,-0.1996712,-0.23069234,0.394496,-0.25406706,-1.3208932,-0.044763196,0.44189173,-0.34557042,-0.5055863,0.56562173,-0.045186855,-0.8638785,1.3622462,0.82733387,0.8393844,0.8832028,-0.90563434,1.3245513,0.7380199,-0.74488604,0.49302998,-0.0067796945,-0.018212626,-0.09792283,-0.21391669
IND181152AAA,0.5496051,-0.74928397,1.0402094,0.78111774,0.40221092,0.41605663,-0.0058507454,-0.013949946,-0.5510472,1.0939633,-0.23780982,-1.223981,-0.18117124,0.52850294,-0.48610213,-0.23235433,0.69822127,0.37002444,-0.47917014,0.30802917,0.51873696,1.0589908,0.56909215,-0.42922682,1.2882525,0.73674506,-0.65439457,1.2837489,-0.3105659,-0.40480846,0.506972,-0.44907495
IND184104AAA,0.4819519,-0.72035176,1.021603,0.73739,0.3662311,0.35847983,0.1550302,-0.11802412,-0.60720026,1.0875401,-0.29412815,-1.3620379,-0.22897203,0.4721644,-0.60281396,-0.2770061,0.7020546,0.47238895,-0.5808952,0.11497845,0.5673717,1.048337,0.58952445,-0.44555655,1.3086154,0.8172976,-0.58046097,1.1253562,-0.5362548,-0.51174116,0.41128248,-0.31949183
IND160102AAD,0.35699448,-1.1025335,0.44928852,0.4011568,0.26791963,0.6101003,-0.57799554,0.10607336,-0.6214036,0.6547947,-0.59180325,-1.3500044,-0.1961384,0.30181342,0.10041741,-0.22894566,1.140791,0.112210676,0.034806035,1.3179209,0.750897,0.93202454,0.67129046,0.003484906,1.6410458,0.07464672,-0.14113702,0.52117866,0.23274168,-0.26938283,0.28563666,-0.074584804
IND160002AAD,0.43240246,-1.3504909,0.38535228,0.4845771,0.4834041,0.5751775,-0.64222944,0.074686654,-0.6743711,0.79849744,-0.79487276,-1.5138339,-0.20240635,0.3762629,0.09236338,-0.2144682,1.404658,-0.10699445,0.052898824,1.6175858,0.8364512,1.0046842,0.78476274,-0.068914704,1.8352761,-0.087048665,-0.25151584,0.61042607,0.4804655,-0.3790173,0.52202314,-0.04830808
IND173220AAA,-0.3038965,-0.70005167,0.4950414,0.35606036,-0.2946573,0.88239676,-0.19254756,0.7477908,-0.5329447,0.8077656,-0.26478964,-2.078085,-0.38096133,0.5430784,-1.071962,-0.28776595,0.482789,-0.12956223,-0.040996768,1.0341576,1.1410875,1.3309418,0.058494136,-0.55687815,1.4877948,1.0188408,0.08931027,0.7539638,0.3535136,-0.8413433,-0.6014665,-0.21119793
IND175018AAA,0.13261706,0.025386574,0.9633901,0.2243135,0.45346308,0.51371276,-0.8626641,0.19917549,0.06792922,1.7385662,-0.66520745,-1.7463404,-0.8260648,0.35281494,-1.1723268,0.78795075,0.5416528,0.40035316,-0.2899318,1.6419101,0.51831067,0.62289035,1.1326911,-0.3747403,1.1427975,0.70970184,-0.6280244,0.074367635,-0.26897824,-0.7015553,0.17514504,-0.58554256
IND174021AAA,-0.37562963,-0.6140425,0.95494545,0.3069429,0.96714973,0.20642462,-0.83017486,-0.26186275,0.57817054,1.2155646,-0.93700975,-1.9768327,-1.0117023,0.6571322,-0.9826964,1.9114527,0.7013126,0.5384083,-1.3311309,2.355715,0.051376898,0.82070255,0.029798992,-0.99650896,0.70457053,0.56210536,-0.65288687,0.9692389,-0.13016036,-0.80196625,0.19850393,-1.0969375
IND176048AAA,-0.15428203,-0.5437391,0.7802506,0.5367174,0.810869,0.25204295,-0.93857676,-0.09110423,0.45274568,1.3759001,-0.9998974,-1.9228766,-0.82729447,0.6156236,-1.0584817,1.6108037,0.74371344,0.6143349,-1.0478175,2.4003644,0.077279426,0.80241084,0.28131768,-0.90369785,0.80638826,0.71730053,-0.73109186,0.86220807,-0.12459211,-0.87092406,0.10703595,-0.9996677
IND174101AAB,0.099137045,-0.814715,0.71979874,0.32194597,-0.057479437,0.78320265,-0.28915247,0.46992525,-0.5331916,0.6064813,-0.2113553,-1.5874143,-0.21960945,0.4796959,-0.73611814,-0.18921106,0.45966098,0.08786058,-0.16479817,0.7326625,0.6540616,0.80507714,0.33962867,-0.47295243,1.3326875,0.65743953,-0.17805749,0.6032717,0.40063772,-0.8091477,-0.34291345,-0.36760914
IND175001AAA,0.32129654,-0.10645479,1.0095837,0.26460037,0.37533078,0.5605478,-0.7803094,0.22502236,0.08845879,1.6311135,-0.6638348,-1.7264234,-0.84727037,0.11226975,-0.99063265,0.6849183,0.5885932,0.31103316,-0.15110312,1.4212228,0.5071531,0.60758764,1.3382975,-0.3227957,1.1288561,0.7479464,-0.40607822,0.05063141,-0.35949886,-0.870662,0.15288398,-0.5855244
IND175101AAA,0.33642182,-0.23833378,0.91941315,0.27696747,0.22354813,0.71626544,-0.76792425,0.27545664,-0.1516049,1.2985057,-0.5931881,-1.5658352,-0.56409764,0.13297331,-0.6504921,0.1777026,0.6851974,0.34149188,-0.09183296,0.9881136,0.41527808,0.56854606,1.1978916,-0.24204923,1.1125993,0.7431096,-0.26635396,0.13123164,-0.3558307,-0.724357,0.0796381,-0.2884787
IND175015AAA,-0.025717307,-0.23822053,0.7743267,0.3979986,0.6718346,0.5141527,-0.7597856,-0.014314019,0.17637756,1.397863,-0.8328923,-1.6648023,-0.57281804,0.7136007,-1.086482,1.1997607,0.7090706,0.5517855,-0.8279217,2.2462165,0.04307961,0.620233,0.59086245,-0.6155561,0.86506474,0.6924732,-0.5890156,0.5941503,-0.17664813,-0.8707481,0.082178555,-0.71533716
IND176061AAA,0.1483598,-1.1264343,0.9942659,0.6581703,-0.5109438,0.17470172,-1.171817,0.1279488,-0.14644912,0.7371816,-0.11787648,-1.2672578,-0.07035316,0.19288108,-0.44318292,-0.6090747,0.61426127,-0.10576997,-0.3272986,1.1229031,0.093766876,0.9376857,0.7107261,-0.3146215,1.1059961,1.1010418,-0.7350315,0.8499239,0.14142922,-0.27654248,0.19103709,-0.20898792
IND176110AAB,0.35815248,-0.95152146,0.14229116,-0.50227165,0.4812479,1.1076766,-0.69413525,0.04925592,0.3824956,0.7635327,-0.15328193,-1.7546566,-0.5273712,1.0548677,-0.036041353,-0.055890795,0.92113215,-0.08556532,-0.87331265,0.6906882,-0.12965363,1.7788061,0.48591223,-0.59699374,2.0866804,1.2080781,-0.2157289,0.66488886,-0.5621053,-0.6506399,0.46432036,0.3113859
IND177033AAA,0.4295602,-0.7845715,0.23581491,-0.2504071,0.37158155,0.88939714,-0.79420215,0.14572425,0.16380033,0.6700324,-0.20513304,-1.5411458,-0.39937255,0.9167958,-0.09040646,-0.09074127,0.72220755,0.08389103,-0.69964874,0.64467186,0.007187912,1.3650779,0.3501434,-0.4723448,1.6869248,0.8711036,-0.24113576,0.5316024,-0.51066333,-0.6242052,0.28692508,0.094280094
IND176215AAA,0.028769234,-1.2730507,1.1413661,0.7144413,-0.5281785,0.20224226,-1.2485636,0.009622338,0.013364638,0.94267076,-0.021501118,-1.2862858,-0.0316917,0.19282249,-0.40958866,-0.735568,0.50342506,-0.21304324,-0.25266135,1.3129315,0.03580887,1.0213819,0.78597575,-0.40959918,1.2511634,1.3614869,-0.814238,0.96576285,0.21186717,-0.25390732,0.281581,-0.20733388
IND176310AAA,0.60728043,-1.1501974,1.412374,0.60047406,-0.26075003,-0.46561968,0.27273786,-0.2989011,0.3047636,1.1136265,-1.4885187,-0.82208383,0.08983729,-0.042420417,-1.0378379,1.5811527,-0.81468284,-0.21594337,-0.12043544,1.3333493,-1.1510928,1.4994564,-0.54586506,-2.3358254,0.56410134,-0.3668588,-0.0049445545,0.3563208,-0.38352245,-1.6499331,1.7541271,0.7904626
IND177001AAA,0.40840816,-1.0458546,-0.0054901256,-0.65893596,0.37444776,0.97898287,-0.7500135,0.12834477,0.37168208,0.9440372,-0.30912742,-1.73696,-0.46995276,1.273161,-0.0183754,-0.090342045,0.8556089,-0.113471694,-0.93595886,0.59779155,-0.19013824,1.9803658,0.6615263,-0.8595175,2.1258643,1.2590313,-0.117759764,0.58273333,-0.6861095,-0.7149357,0.45177326,0.40022522
IND177101AAA,0.4833354,-0.23669517,-1.5304224,-0.36181942,0.12413004,-0.52811503,1.1997805,-0.6749607,-0.21724206,0.9862506,-1.484906,-1.9543302,-1.1732364,0.047171507,-0.18795753,2.1946273,1.1227151,1.8623776,0.29416224,1.9902118,-0.042861857,2.823676,0.48963276,-1.1090578,0.909881,0.5035995,-0.3629846,-0.99980587,0.9326411,-0.4574086,1.0678105,-0.7000677
IND176001AAA,0.3811774,-0.22211787,-1.3789324,-0.2762647,0.13774247,-0.4966964,1.0844312,-0.6210815,-0.18860719,0.94461113,-1.3469588,-1.7424558,-1.0750979,0.07961765,-0.14178516,2.0440323,1.0723403,1.7084376,0.25454116,1.8782688,-0.053422175,2.6092205,0.5339359,-1.0677634,0.86764973,0.40508527,-0.38956237,-0.8928299,0.8769664,-0.4267085,0.96088177,-0.61370176
IND177203AAA,0.41040823,-0.22290826,-1.3971367,-0.3352096,0.07918104,-0.5022461,1.1006818,-0.60226023,-0.19425358,0.85192883,-1.3367903,-1.7633393,-1.0816714,0.08697973,-0.16666931,2.0592897,1.1171646,1.7383912,0.241814,1.936689,-0.04477492,2.6094298,0.50983965,-1.0238496,0.85821444,0.38233313,-0.34481934,-0.92054725,0.87822545,-0.39909175,0.99548924,-0.6169985
IND184121AAA,0.695573,-0.7411269,1.0522923,0.87154424,0.4404191,0.42470095,0.15044847,-0.17935526,-0.6694324,1.2804823,-0.27040046,-1.4426187,-0.17504637,0.43991718,-0.515168,-0.27163255,0.57408005,0.38673344,-0.74127555,0.25326833,0.64612615,1.1348552,0.61729056,-0.44975403,1.1542982,0.6406779,-0.5307773,1.0618175,-0.4640134,-0.47663602,0.47860196,-0.39041775
IND181152AAB,0.55251825,-0.9064161,0.8059922,0.76825356,0.6392696,0.31638896,0.1402114,-0.2491861,-0.7677382,1.3457395,-0.4070367,-1.5558379,-0.2760542,0.27349895,-0.5161392,-0.28575885,0.6484915,0.59572953,-0.7231707,0.0982832,0.58777225,1.3223859,0.64686203,-0.45186603,1.2635777,0.84619087,-0.49848273,1.136085,-0.5061835,-0.36517584,0.5103979,-0.60894865
IND181201AAB,0.6396774,-1.0088081,0.836455,0.87040955,0.76115906,0.3216269,0.3694446,-0.2401577,-1.0257658,1.4852737,-0.4086383,-1.4622062,-0.2952029,0.23731928,-0.5372429,-0.26703185,0.6172373,0.58069026,-0.75559783,0.2298901,0.7427642,1.5281848,0.62660104,-0.45763052,1.2266741,0.94070566,-0.61429626,1.1660492,-0.5580228,-0.31916094,0.45408273,-0.780053
IND201001AAA,-0.047029298,-1.3673041,1.1204667,1.4532746,0.6389271,-0.2962712,0.08511993,0.18419658,0.29793555,-0.41953713,-0.26440084,-1.2077692,-0.35121417,-0.15737797,0.63429934,-0.761908,0.4598853,0.56990564,-0.5314795,0.3962688,0.037605233,0.71985835,-0.84356844,-0.7250301,1.2539532,0.5878393,-0.90924186,-0.5386026,0.43336797,-0.46454892,0.046216406,0.8075716
IND201005AAA,-0.09523739,-1.3139442,1.0973041,1.4587777,0.4290771,-0.19079159,0.07314153,0.14501952,0.26895195,-0.45041522,-0.13039403,-1.1002579,-0.39811108,-0.12281435,0.485898,-0.69344014,0.54440325,0.37405694,-0.29367155,0.4467698,0.020312784,0.6669933,-0.7292817,-0.69178283,1.2970241,0.3955161,-0.71608615,-0.5684674,0.5481406,-0.5355139,0.09844048,1.0287033
IND201007AAB,-0.074855715,-1.114329,0.91327,1.3414195,0.48701134,-0.07528077,-0.10358199,0.18956074,0.2914952,-0.5017165,-0.1461446,-1.306234,-0.67475915,0.04347619,0.29145765,-0.24303843,0.33879,0.70816904,-0.24313052,0.5737719,0.03906573,0.6737688,-0.5597524,-0.30198205,1.1936373,0.48201668,-0.73189706,-0.8805031,0.38306832,-0.19121638,-0.12042215,0.8153929
IND245304AAA,0.2382834,-1.1130662,0.9866764,1.6645619,0.636755,-0.16122685,-0.08466848,0.12562336,0.555938,-0.28940082,0.37797916,-0.9286,-0.30358282,-0.36414483,0.6661632,-0.5802516,0.708884,0.82547694,-0.47667208,0.47051063,-0.09346552,1.2032125,-0.7790699,-0.8239058,1.5076864,0.9461569,-0.7097334,-0.44493234,0.3905117,-0.922283,0.08307422,1.1787571
IND201304AAA,-0.17732178,-1.1858889,0.6940764,0.9393255,0.46433404,0.190944,0.12952138,0.18469627,0.6592663,-0.28468236,-0.3431574,-1.4586813,-1.3734937,0.49216953,0.2592182,0.4155326,0.26240847,0.863532,0.069148436,1.144499,0.1359584,0.5136093,-0.21772744,-0.2968281,1.4820843,0.68704045,-0.7418894,-1.5481887,-0.119499624,0.30481943,0.11576693,0.7080329
IND203205AAA,-0.41332945,-1.041911,0.7247722,1.2288872,0.46461937,0.08899372,-0.10602354,0.43345267,0.3433586,-0.37337372,-0.3003711,-1.5938904,-0.9844906,0.3711216,-0.053299338,0.16448227,0.300417,0.84695524,0.009831771,0.92059326,0.08981062,0.6319046,-0.11034701,-0.10077255,1.3393236,0.47141656,-0.74855846,-1.3587178,0.045931365,0.0870699,-0.13904448,0.73882926
IND201301AAL,-0.20572159,-1.5122857,0.6637858,1.2476038,0.25719437,0.07136829,-0.043413986,0.24653956,0.30009958,-0.08618383,-0.058887627,-1.7239848,-1.0389868,0.45841062,0.22576344,-0.022243192,-0.1810487,1.416508,0.5021729,1.2751392,-0.24156965,0.7155632,-0.114400804,0.26730973,1.0943425,0.37591514,-0.8711533,-1.2560236,-0.14936714,-0.034013633,0.0014262183,0.7446318
IND201307AAA,-0.35829592,-1.6217341,0.6952176,1.4533993,0.27969816,-0.034489676,-0.17367844,0.25367174,0.27062845,0.12147722,-0.16436276,-1.8300672,-1.0293553,0.37669718,0.3279036,0.1279115,-0.47493982,1.6653036,0.43075705,1.3899995,0.031285096,0.8203449,-0.29626063,0.30261138,1.3394108,0.3456365,-0.91471314,-1.518547,-0.2975421,0.11866824,-0.0040341886,0.6387909
IND201306AAA,-0.28887853,-1.1187637,0.78618705,0.9163119,0.5111075,0.037052333,-0.017863506,0.1144549,0.70923436,-0.48079,-0.30931988,-1.557971,-1.296972,0.4858312,0.21885735,0.3441174,0.12172619,0.7153553,0.110903986,1.2346334,-0.0047939667,0.5689652,-0.3553505,-0.31898457,1.3507277,0.67442065,-0.809678,-1.5312439,-0.11855368,0.30843902,-0.0051860735,0.7755229
IND205001AAB,-0.07825065,-0.5593686,1.072175,1.0924858,-0.07149629,-0.16598773,0.71046925,0.9322793,-0.025751757,1.2094463,-0.40516782,-0.78666687,-0.10065649,0.96543825,-0.18954246,-0.53588736,0.55524457,0.34601375,0.02544585,0.504261,-0.14703584,1.2188153,0.004824395,-0.6649899,0.12216879,0.430144,-0.298523,-0.9684674,-0.07197452,0.009171804,0.13583308,0.9788726
IND207123AAA,0.25002474,-0.50809973,1.0945866,1.1131344,0.27101457,-0.17609648,0.45314458,0.8981289,-0.02015931,1.1711715,-0.86931866,-0.85651654,-0.3525113,1.1489567,0.91563046,-0.5138226,0.50886065,0.57024986,-0.39186484,0.40852386,0.011446709,1.5704244,0.15197502,-1.3314569,0.15757906,0.29786828,-0.077764615,-1.1369756,-0.3033152,-0.03916866,0.45656177,0.51065594
IND202001AAC,-0.1140823,-0.94320214,0.71739966,0.03575109,0.45470956,0.32882115,0.82256705,1.28715,0.85772467,2.1167314,-1.0319699,-0.8597042,-0.9384376,0.8555646,0.73276806,0.091498084,0.6912014,0.5648912,-0.9708191,0.60096014,-0.33404306,2.8748858,-1.02725,-2.4029462,-0.18049678,-0.2963185,-0.08388392,-0.4187235,0.008981004,-0.7230054,1.0399555,-0.437055
IND204215AAA,-0.14287835,-1.1096457,0.92740804,0.43757153,0.58757985,0.23261045,0.77582586,1.3997886,0.90457505,1.9708916,-0.991083,-1.0446872,-1.0273011,0.89891803,0.6538202,-0.23858337,0.73866713,0.7057464,-1.0544299,0.703548,-0.39947698,2.6723819,-0.9549173,-2.1914268,0.099003576,-0.28463435,-0.3205448,-0.5200359,0.12405794,-0.538072,0.90447485,-0.09485983
IND203001AAA,-0.9285643,-0.677948,1.1028308,0.20864324,-0.25105816,0.21861798,0.39759928,0.14403881,0.0170517,-0.78005683,-0.1467944,-3.1700382,-1.4589858,-0.47233877,-0.64545816,1.3467672,0.6514375,2.226444,-0.78078276,1.255982,-0.62018746,1.2903905,0.11707748,-0.7657808,0.33118218,0.6030128,-0.32788134,-1.0557724,-0.20276134,0.35465613,0.84075594,1.1896893
IND203131AAA,-0.70982033,-0.6800735,1.3486676,0.4124706,-0.16228494,0.13412184,0.34122798,0.29683977,0.17324458,-0.81457335,-0.17949024,-3.014027,-1.3774292,-0.39062342,-0.47259536,1.2801157,0.5302279,2.0436528,-0.7792441,1.056775,-0.47728816,1.3983369,0.06358087,-0.76783496,0.5936262,0.6656612,-0.48445764,-1.1192803,-0.1562172,0.35311013,0.5920043,1.1486425
IND203135AAA,-0.44767103,-0.8728678,1.0418732,0.65476197,-0.030723087,0.1816211,0.27207375,0.40687886,0.11797333,-0.6384487,-0.39362067,-2.9178336,-1.3068261,-0.11416535,-0.38023427,0.7596967,0.30824286,1.7141414,-0.47579053,0.86850864,-0.5806095,1.2490438,-0.19101322,-0.42708713,0.74332094,0.69182324,-0.669013,-1.0582721,0.26391125,0.5992643,0.26206863,1.0931575
IND203390AAA,-0.22363658,-0.7885504,0.9638262,0.7501892,0.13212994,0.25037798,0.054925434,0.4056998,-0.026645215,-0.56680226,-0.2901483,-2.1157465,-1.177801,0.003824632,-0.20040673,0.36823252,0.23176037,1.2661997,-0.3466043,0.8326149,-0.30245346,0.8753241,-0.35369968,-0.3435058,0.94888145,0.64666986,-0.68419504,-1.1367044,0.09049877,0.4112739,0.081160806,0.90956795
IND203396AAB,-0.29306406,-0.8639645,1.1868773,0.8061075,0.046965096,0.21352796,0.24331178,0.466223,0.031481523,-0.6042542,-0.3472896,-2.7273197,-1.2408861,-0.11716069,-0.32770365,0.7191149,0.35107592,1.7300406,-0.39609662,0.94172066,-0.58164066,1.1723067,-0.31030634,-0.4511717,0.8361349,0.9386834,-0.5904028,-1.1805241,-0.06035739,0.51716214,0.27777544,0.9580613
IND204101AAA,0.29548937,-0.4972986,0.8273937,1.0753578,0.6014481,-0.03662362,0.41777548,1.3200485,-0.15186107,1.178062,-0.89562786,-0.5745305,-0.34432957,0.83649534,0.45053333,-0.567373,0.109831914,0.4367071,-0.062782384,0.40524226,0.06916126,1.3842589,0.052844506,-1.0334016,0.37678283,0.19727063,-0.07623204,-0.9446229,0.17078875,0.24382791,0.6012389,0.7745702
IND207001AAA,-0.043154053,-0.9853042,0.9663401,0.69027245,0.5506151,0.19919322,0.49955285,1.2904577,0.6055114,1.7081796,-0.89577943,-0.81774163,-0.8702307,0.807194,0.5303425,-0.30278268,0.6883878,0.588527,-0.91127133,0.65016365,-0.17947075,2.175776,-0.81158483,-1.986629,0.086036414,-0.01000296,-0.03004948,-0.7431484,0.06658845,-0.3462581,0.8321554,0.072411366
IND205135AAA,-0.032561887,-0.82003033,0.7400187,1.3667583,-0.2886715,-0.38560688,0.94220686,0.45714524,0.00011933667,1.1268994,-0.043311846,-1.1289912,-0.03183776,1.1908746,-0.2639657,-0.7310909,0.39732382,0.3136364,0.0036954018,0.4749896,-0.1918049,1.1635826,0.26262638,-0.7767348,0.39995426,0.5923779,-0.17797974,-0.8987919,-0.103008755,0.07290088,-0.26181376,1.1683986
IND209625AAA,-0.348562,-0.7838795,1.1672021,1.2391222,-0.26539162,-0.43076754,0.7861463,1.1248401,0.010856171,1.4364926,-0.4924742,-0.8979601,0.48922578,0.9975009,-0.48718113,-0.08248518,0.8046759,0.3001455,-0.2860093,0.7280189,-0.1453127,1.5047064,-0.30852512,-1.0989673,0.09423772,0.53665316,-0.40661684,-0.92995185,-0.38457283,-0.072137095,-0.06698391,1.4271724
IND209721AAB,-0.15949166,-0.8119928,1.2070113,1.3745819,-0.24447484,-0.25996575,0.8255132,0.866166,-0.06486338,1.2774364,-0.39811572,-0.91344935,0.32667476,1.0452497,-0.5858614,-0.4224121,0.6613132,0.34426653,-0.1298023,0.63619983,-0.108565666,1.6195008,-0.09684032,-0.8357471,0.0066222697,0.4635512,-0.52649295,-0.9842609,-0.14966959,0.07304116,0.15266693,1.2753433
IND283203AAA,0.03547723,-0.62565035,0.46617606,1.2537509,-0.12048856,-0.3639186,0.8203441,0.24281235,-0.11094424,0.90960044,-0.05621314,-1.1881138,-0.3024961,0.9799919,-0.21022387,-0.73142624,0.54802793,0.21616119,0.057185527,0.43247858,-0.15374497,0.7201856,0.3653704,-0.6728632,0.5587267,0.5873518,-0.25340885,-0.830973,0.010285934,0.06561098,-0.3648542,1.0886128
IND206001AAA,0.38487267,-0.52677184,0.283643,0.597448,0.7851729,-0.85971534,0.05810313,1.0803721,0.26796624,-0.17721207,-0.028011223,-0.6719498,0.08117991,0.6666678,0.14951135,-0.088914186,-0.21630011,0.36851615,-0.043786656,0.33136207,0.9561874,0.062411003,0.43763363,-0.1830572,0.80306566,0.54597574,-1.0618948,0.21733816,0.50072056,-0.2975426,0.3460918,0.46890903
IND206122AAA,0.5948122,-0.6198165,0.34047347,0.7309318,0.77953994,-0.9048901,0.31601635,1.0511898,0.62182516,0.012155404,0.012422973,-0.82523715,0.003785351,0.834517,0.06774129,0.05768244,-0.2087133,0.12700775,-0.25502208,0.42520618,1.0472449,0.1168343,0.56314576,-0.3202797,0.7023185,0.5095844,-1.1197057,0.30759284,0.80938387,-0.42945158,0.4694979,0.52090925
IND207302AAA,0.22729689,-0.6683237,0.98562366,0.8434235,0.5552087,0.16204049,0.51142895,0.9227097,0.4333371,1.3969977,-0.9986289,-0.8418485,-0.6595971,1.0541294,0.7415465,-0.61388594,0.51910824,0.465587,-0.5327145,0.55791795,0.037518825,1.7878889,-0.412448,-1.5685529,0.0067087784,0.021768404,-0.073339716,-0.8646317,-0.17576073,-0.029328072,0.5928371,0.18574443
IND207247AAB,-0.18233183,-0.9230814,1.8228903,1.2298732,-0.2341785,-0.020017304,1.6350096,1.0067192,-0.13716029,1.3833835,-0.003705265,-0.6482863,-0.05868853,1.1564773,0.01155745,-0.577415,0.8728981,0.52194935,-0.13066457,1.0555536,-0.33503956,1.4395895,0.08430881,-0.48283428,0.16389377,0.687475,-0.6172667,-0.86022305,-0.36537933,-0.24267076,0.36218256,0.9396449
