hub_id,0,1,2,3,4,5,6,7,8,9,10,11,12,13,14,15,16,17,18,19,20,21,22,23,24,25,26,27,28,29,30,31
IND000000AAL,-0.22858882,-1.4787304,2.5071783,1.8601217,3.6305096,-0.16990742,1.8888555,0.28996405,1.1251595,0.65913606,-0.5901413,-0.6935975,-0.42587745,0.5332495,0.4378928,1.1121676,-0.2257778,-3.107541,1.2197757,-0.41954157,-0.34323257,0.3795304,0.8217405,0.063352585,2.1322744,1.2785211,0.051157057,-2.621551,1.1915976,-1.2671199,-0.0766087,-0.6177894
IND411033AAA,0.188168,0.57883394,1.9462298,1.5834026,3.694952,0.3758107,1.5429223,0.9140716,0.6974483,0.56166685,-1.1814245,-3.5163114,-0.95714986,1.5848426,-0.15348057,1.8698158,-0.5130458,-3.151459,0.32827199,-0.6024163,-1.2979171,0.17034318,1.3617383,-0.17305022,0.5565616,1.528279,1.3821774,-1.5649254,1.4057302,-0.17310083,0.64161426,-0.37545437
IND000000AAS,-0.12116213,-0.17871112,-0.1506078,0.12218367,-0.123826824,0.16035017,0.12854877,-0.16854134,-0.014273129,0.20723623,0.35420743,0.15813589,0.096650876,0.19122984,-0.07787235,-0.15154868,-0.068316855,-0.081549846,0.09623941,0.15997517,-0.0073845163,0.15362975,-0.15443502,0.014426045,0.04232815,0.13385761,0.022638857,0.28690162,-0.33470315,-0.046621613,-0.15602258,0.0027177408
IND783370AAC,-0.15099768,-0.13858232,-0.17440759,0.09270654,-0.1032604,0.121090785,0.13638645,-0.10213046,0.03177829,0.1665438,0.34151804,0.036731064,0.12766159,0.24622725,-0.015452732,-0.14844245,-0.0011409968,-0.14964822,0.03929756,0.12234084,-0.0131145045,0.14705142,-0.12851633,-0.022070616,0.079838105,0.09644742,0.061064385,0.29220185,-0.34191468,-0.08613399,-0.14265804,0.009298403
IND000000AAZ,-0.2838284,-0.15340635,-0.13211294,0.3094287,0.12545505,0.24896371,-0.10547274,0.20974946,-0.31626385,-0.04998271,-0.10401473,-0.49256957,-0.13249424,0.049567863,0.05840611,0.20340294,-0.5093332,-0.30611277,0.096310854,0.07770309,-0.04793252,0.089462385,0.293055,-0.36068648,0.3265279,0.57241386,-0.30787423,0.09920265,-0.5906788,-0.10248693,-0.19458428,-0.27279535
IND444203AAA,-0.20153084,0.05433911,0.03219603,0.10751952,-0.27102435,0.34306568,-0.008665323,-0.12652363,0.27905357,0.283179,0.06191507,-0.30291986,0.05080934,0.39503914,0.009413995,0.14098658,0.00961335,0.052349243,0.03404101,0.14866515,-0.020033479,0.2221415,-0.16830546,-0.31281692,0.1818857,-0.16206515,-0.13450561,-0.22890815,-0.1831575,0.1490472,-0.02371842,-0.14314511
IND444303AAA,-0.82480067,0.6324428,0.16354068,0.28521192,-0.73830384,0.7517989,-0.17321655,0.23321947,0.43763947,-0.22631039,-0.17108893,-0.85489404,0.3133039,0.55730087,0.39256698,0.5449436,-0.37685037,-0.30938828,-0.004234016,0.5344983,0.29449737,0.5000871,-0.5172822,-0.53992206,0.69027865,-0.52665764,-0.37965626,0.29749635,-0.7149922,-0.33509502,0.09136346,-0.2784141
IND000000ABA,-0.061357915,-0.6296628,0.8057318,0.44207138,1.2798824,-0.07950073,0.78439784,0.22907645,0.06078738,-0.16904932,-0.08380852,-0.49116373,-0.5783794,0.00793097,-0.039021846,0.5480913,-0.18474281,-0.61455524,0.26127377,-0.33633024,-0.24888277,-0.25981295,0.2114675,-0.4118154,0.254605,0.50393397,-0.09060828,-0.6675116,-0.111596584,0.109903984,0.06514819,0.09032138
IND683565AAA,0.4509154,-0.12092717,-0.42710835,0.14331363,0.23194444,0.2679535,0.26149392,-0.04089621,-0.24468553,0.0022146553,-0.19098473,-0.236586,-0.1531482,-0.2666343,0.28376275,-0.323529,-0.32199594,0.028478436,-0.47774303,-0.42591745,-0.3703319,-0.2106142,0.28768343,-0.21068309,0.09859945,0.30756366,0.102200404,-0.4011038,0.16328228,0.24642535,-0.22313592,0.07276234
IND000000ABD,-0.22485946,0.20246832,0.024373231,-0.0050826482,-0.12991215,0.1852753,0.030455112,-0.029415375,-0.3368743,0.18032086,-0.1353143,-0.09140563,-0.16577156,0.19505946,-0.08717648,-0.35315105,-0.24890044,0.02535934,0.030456666,0.10183658,0.1406061,0.033445433,-0.046054788,-0.037633337,0.19875734,0.26697895,-0.14489564,0.32960534,-0.31073186,-0.18072931,-0.30396938,-0.114397965
IND562132AAA,1.1599138,2.6587706,2.9761434,2.0510292,5.734288,1.0423291,0.14915359,2.6511455,1.1673615,0.68066955,-0.8038477,-5.676484,-0.8025779,4.00643,-0.84922165,1.7451448,-0.87440264,-4.791154,-0.9260964,-0.81981504,-1.8323046,1.5382245,0.36149567,0.35237885,2.169088,2.5276256,2.6876278,-2.5974874,2.9600353,-0.97241366,1.0375463,-0.5277111
IND000000ABG,-0.1471484,-0.30279848,0.01018999,0.19032675,0.10162977,0.2355397,0.34704426,0.024784796,0.12642708,0.24375287,0.5243172,0.17074546,0.15885827,0.21886644,-0.067439884,0.030885547,0.20699897,0.13384129,0.021530915,0.04576182,0.22313106,0.058935106,-0.04400495,0.112176396,0.06944678,0.044317037,-0.11491648,0.2140465,-0.2240173,0.035312466,-0.071229845,-0.07117176
IND501359AAF,0.05083497,-0.17104234,-0.10363051,0.2131276,0.19267106,0.28190854,0.11293919,-0.133102,-0.15227796,0.37994456,1.0168815,0.06918779,0.17770779,0.40110767,-0.31741726,0.0929314,0.3217528,-0.28148073,-0.009236127,0.2706577,-0.20713833,0.2749167,-0.049180076,0.03168364,0.10611607,0.34028777,0.112113185,0.18559262,-0.19126827,0.0557972,-0.08604312,0.32621908
IND000000ACA,-0.13430208,0.2639705,0.85539937,0.530199,1.269948,0.30450177,0.61518985,0.36057037,0.15060039,0.48805147,-0.38976645,-1.5518647,-0.20491603,0.55319524,-0.15440425,0.93168557,-0.05149749,-1.2375139,0.32447422,-0.04785857,-0.52522326,-0.051123507,0.611531,-0.048898667,-0.025159165,0.50223714,0.5410111,-0.3371147,0.41228986,0.067140594,0.1632299,-0.189183
IND140406AAA,-0.06924859,-0.7114235,1.0327091,0.42440912,0.934871,0.15893784,0.8046072,0.10673746,0.68875235,0.52649,-0.16924928,-0.16101494,-0.31055355,0.317478,-0.06056997,0.29502466,-0.36406654,-1.124445,0.42463753,-0.14176074,-0.084200054,0.23345646,0.4160912,-0.20087022,1.039265,0.6322717,-0.20274332,-1.1329253,0.48971194,-0.42928267,-0.03554555,-0.11053926
IND142001AAB,-0.11598292,-1.483355,2.043521,1.3724508,2.0910237,-0.10501324,1.546008,0.058045536,1.3561691,0.8722354,-0.65293014,-0.7293922,-0.5382242,0.594922,0.19052541,0.67826176,-0.23348764,-2.605311,1.0632672,-0.42233402,-0.58693546,0.34769285,0.7524418,-0.5357576,1.5951426,0.665921,-0.064650714,-2.4616284,1.2357163,-0.951157,-0.006608635,-0.3032139
IND142401AAA,-0.11765122,-0.33555707,0.44089758,0.16447863,0.5182441,0.17683618,0.56164795,-0.002160604,0.26723439,0.41847104,0.00640722,-0.18008478,-0.3132573,0.25012216,-0.21823423,0.17971307,-0.16129372,-0.5875043,0.19787508,0.028232098,-0.121713355,0.1004982,0.23708375,-0.18726118,0.5633578,0.43089944,-0.21896107,-0.56358874,0.13671698,-0.09692556,0.002820462,-0.024814386
IND143001AAA,-0.06348711,-1.1074995,1.3696877,1.100667,1.5393118,0.033851057,1.1924881,0.11012297,0.7440474,0.60263443,-0.5751115,-0.59997636,-0.54263735,0.24431683,0.148146,0.536429,-0.31604406,-1.8472238,0.7645794,-0.41690183,-0.39306504,0.15815023,0.5848916,-0.49330527,1.0761493,0.6874911,-0.13313663,-1.7715893,0.8515113,-0.70382935,-0.009344816,-0.17282021
IND144001AAB,-0.039063893,-0.5187963,0.7790709,0.77140397,1.2937762,0.11161878,0.94116116,-0.029378086,0.32593155,0.33280197,-0.41296557,-0.9377827,-0.52152336,0.15949944,-0.010986477,0.49769533,-0.12491509,-1.3606279,0.5203711,-0.3879519,-0.41341513,-0.00083947554,0.58196175,-0.46052116,0.46445012,0.67731535,0.1565459,-1.1444795,0.67349434,-0.35242987,0.13780423,-0.111558825
IND144514AAA,-0.13198535,-0.7020704,1.0318753,0.42333826,0.9751826,0.12593058,0.8630798,0.08047654,0.6846844,0.54696786,-0.19099405,-0.1797441,-0.3304449,0.3457705,-0.052785367,0.28535828,-0.29201287,-1.201314,0.45207414,-0.14445803,-0.05293203,0.23000002,0.3937248,-0.22738776,1.001796,0.58890855,-0.10383314,-1.1360427,0.55440104,-0.46927208,0.03402716,-0.09340146
IND147301AAA,-0.0986786,-0.3511927,0.44285294,0.13427415,0.4694116,0.18558839,0.54119974,-0.00930343,0.28275192,0.41223913,0.056162927,-0.14576723,-0.2870121,0.24353331,-0.21397656,0.193328,-0.16417584,-0.55403733,0.18566938,0.061772354,-0.09318538,0.111507446,0.24529746,-0.18206571,0.5921616,0.42872733,-0.26662815,-0.58929914,0.12315996,-0.08792943,-0.020487823,-0.012411639
IND152026AAA,-0.038105454,-0.55303776,0.037016347,0.5133388,1.0615435,0.31426543,0.4222178,-0.15051383,-0.18204197,-0.039832093,-0.36536193,-0.7867553,-0.42129368,-0.16534083,0.2618369,0.22687595,-0.72093713,-0.81793576,0.23536913,-0.092333004,-0.31906185,-0.18913765,0.6500406,-0.36067733,0.4250105,1.1076638,-0.04128921,-0.9719274,0.34074518,-0.17395014,0.16716088,-0.15884978
IND160002AAC,0.34051347,1.4051011,1.907154,1.0372113,3.4276474,0.82807225,0.8093325,1.6016126,0.08800876,0.7161452,-0.6538008,-4.0816755,-0.13280979,1.7623819,-0.35199696,1.5093844,-0.37844032,-2.9336836,0.36489493,-0.04233118,-1.2019634,0.26634422,0.46576035,-0.029850364,0.26679093,1.1406876,2.0226924,-0.6333084,1.8231992,-0.509768,0.28778836,-0.38068
IND000000ACB,1.7556982,3.1411042,2.7119074,2.7715008,7.9573793,1.711693,0.029928386,3.086649,1.2153063,0.3536359,-1.1992681,-7.3361287,-0.29306698,5.21868,-0.3348322,1.9182085,-2.1064532,-6.339317,-1.6403561,-0.5586141,-2.3009443,1.6130723,0.14499569,0.58095825,2.773419,3.3257065,3.6601558,-3.5553517,4.0844235,-1.1944263,1.2727802,-0.5517311
IND000000AEL,-0.30880928,-4.667413,6.6956215,5.609956,7.6061864,-0.71092975,5.268682,0.692683,3.4274633,1.0050261,-0.311073,-2.3788815,-1.7765592,0.2726052,1.4222454,1.8786383,0.6261215,-6.5270004,3.639554,0.20754015,-2.8937838,0.39919558,2.07347,-0.4189124,3.869814,2.2812645,-0.072537184,-6.6310654,2.977896,-1.6953733,-0.56510586,-2.605991
IND110024AAA,0.19428638,-1.8240762,2.7116375,2.4090722,3.3660457,-0.24975257,2.5196571,0.19764492,1.3084483,0.39380875,-0.44886315,-1.3066156,-1.0993756,-0.07581186,0.5316761,1.2336423,0.2665645,-2.9342003,1.5277033,-0.37173817,-1.1833651,0.007722698,0.9842869,-0.5593035,1.5035682,1.0035187,0.16005695,-2.815469,1.4235592,-0.86763275,-0.04868397,-0.8348762
IND110030AAD,-0.34139833,-2.2654243,3.6406605,2.5621011,4.044129,-0.23517595,3.2400498,-0.01730609,1.6816077,0.49006295,0.041950107,-1.7545929,-1.0069633,0.31203002,0.44338584,1.2543893,0.121183634,-3.654904,2.0051637,0.5715501,-1.4866533,0.33947313,1.235358,-0.55002916,2.4948523,1.4241177,0.17833817,-3.3689597,1.5634573,-0.77422374,-0.13373154,-1.4237642
IND110037AAK,-0.15347177,-4.5889664,6.765261,5.6057496,7.661828,-0.68556094,5.349453,0.67215276,3.522155,0.99191374,-0.418083,-2.4199634,-1.7976434,0.2802345,1.4709154,1.8979099,0.6196953,-6.604959,3.643263,0.16297045,-2.9498565,0.37491655,2.106141,-0.42536235,3.839252,2.306481,-0.00660789,-6.730014,3.1158354,-1.6711209,-0.4777952,-2.6086092
IND110043AAA,-0.05423996,-2.309804,3.3523595,2.751631,3.8181095,-0.34569845,2.7027423,0.33471972,1.6726553,0.58424926,-0.22441116,-1.3549218,-0.9804204,0.11628178,0.69195575,0.9273007,0.2864644,-3.2984364,1.8311648,0.014837578,-1.5148698,0.17178662,1.1668721,-0.31329024,1.8646007,1.2593338,-0.015744269,-3.249449,1.518595,-0.8276925,-0.31703895,-1.2472036
IND110043AAC,-0.40486252,-4.7138214,6.643435,5.6190705,7.566819,-0.7250275,5.2207303,0.70814157,3.3923829,1.0031664,-0.24731106,-2.3308966,-1.7503684,0.2664282,1.398554,1.867307,0.64648557,-6.4836507,3.6467884,0.23439983,-2.8348074,0.39069504,2.0619369,-0.4181769,3.8815038,2.2532191,-0.12119186,-6.5791197,2.903723,-1.7224746,-0.62768793,-2.6008182
IND110052AAA,-0.356911,-4.7409167,6.6643567,5.6590557,7.545431,-0.70208585,5.1637287,0.7250451,3.4242184,1.0017881,-0.26717538,-2.2668133,-1.7276902,0.25985438,1.432084,1.8496802,0.5953438,-6.4708104,3.6185937,0.23340079,-2.8701868,0.3664374,2.0759063,-0.37586236,3.8670053,2.2698996,-0.15559578,-6.6284018,2.9231975,-1.7084484,-0.62026775,-2.6103072
IND110064AAA,0.050331175,-2.811708,4.3173437,3.5329025,5.1119194,-0.5346136,3.6068377,0.36545253,2.0298634,0.4491042,-0.63849044,-1.8207359,-1.3773407,0.13302277,0.98056686,1.8060496,0.28198147,-4.380907,2.3285248,-0.26341856,-1.8716173,0.06343206,1.4762616,-0.6002581,2.24399,1.5491738,0.3608247,-4.0092998,2.2124012,-1.2196093,-0.11567643,-1.2353524
IND110085AAB,0.010079041,-1.3279184,2.0723104,1.6816013,2.603568,-0.28551498,2.038062,0.077563316,0.94886917,0.207504,-0.225465,-1.1511059,-0.8236377,0.103230685,0.44724512,1.002846,0.17344955,-2.342084,1.1338687,-0.26890853,-1.0127633,0.04252094,0.930351,-0.48337305,1.0154132,0.8490398,0.398126,-1.7815328,1.1266625,-0.5910972,-0.010151148,-0.5106839
IND110092AAC,0.0145793855,-1.9721036,2.757183,2.3183124,3.255928,-0.38090473,2.3813605,0.24364972,1.1942676,0.36059374,-0.25913614,-1.176938,-1.0213058,0.051858917,0.54409266,1.1836939,0.12525281,-2.8004036,1.4675052,-0.14904347,-1.2632256,0.0015430637,1.0258834,-0.43090296,1.4365225,1.1108143,0.07724798,-2.5321236,1.237869,-0.6973997,-0.2030133,-0.7319533
IND110095AAB,-0.35196376,-4.6353893,6.6445694,5.5589643,7.6248317,-0.7547668,5.3040648,0.6786305,3.3698108,1.0279549,-0.2888865,-2.4304025,-1.8139654,0.28347525,1.3960944,1.9161317,0.69281936,-6.5210915,3.640265,0.21820998,-2.864709,0.42965886,2.0564933,-0.4602356,3.8865333,2.24562,-0.041501522,-6.5520134,2.9231727,-1.7170916,-0.5877934,-2.5734239
IND121002AAB,-0.22099656,-4.5547824,6.7445745,5.550364,7.6981664,-0.7221043,5.432153,0.64493644,3.464392,1.0020808,-0.38113695,-2.5218658,-1.8363333,0.29211113,1.417837,1.9325233,0.69331384,-6.6292567,3.664487,0.15622786,-2.9098632,0.430373,2.071916,-0.48106098,3.8704748,2.2819586,0.054578543,-6.6592503,3.076514,-1.6818595,-0.47427878,-2.597764
IND121004AAB,0.18111762,-0.31595913,1.1895348,1.1635649,2.2313657,-0.035143733,1.5071341,0.08881381,0.3723023,0.22336672,-0.47319236,-1.553902,-0.874871,0.25643593,0.16586585,1.0837495,0.06421554,-1.8117024,0.68233186,-0.38737494,-0.7783085,-0.18447784,1.0899646,-0.35623103,0.23545521,0.935026,0.5723359,-1.1392888,0.78175366,-0.27297366,0.23452342,-0.28622133
IND122001AAA,-0.19222713,-2.1586676,3.2321496,2.6227334,3.7805848,-0.49717543,2.9248333,0.14346838,1.6160676,0.6093099,-0.16535807,-1.4172252,-1.1110945,0.26592603,0.6834365,0.97593737,0.39288825,-3.3715925,1.9150529,0.23303202,-1.5163581,0.3122758,1.0942616,-0.35693502,1.864305,1.1882704,0.2012726,-3.021882,1.4961143,-0.81937486,-0.3229491,-1.3102119
IND122015AAC,-0.345829,-4.73967,6.650589,5.664586,7.5003777,-0.6815934,5.159748,0.70580447,3.3731487,0.9987807,-0.20722705,-2.2710862,-1.7376802,0.2262997,1.3725826,1.902453,0.62303054,-6.44467,3.5800352,0.23673795,-2.8326051,0.37533474,2.0367236,-0.4036758,3.9142265,2.26912,-0.23337996,-6.6158257,2.802697,-1.6817417,-0.64114344,-2.5968494
IND124103AAA,-0.14974976,-4.66089,6.6756525,5.528394,7.5700746,-0.6240574,5.3030224,0.68580604,3.4868505,0.95430154,-0.37087888,-2.1875753,-1.7452209,0.25360915,1.4532782,1.8914886,0.5891459,-6.508642,3.606163,0.19066888,-2.8665385,0.41567886,2.016078,-0.43966842,3.9669437,2.1372356,-0.10957956,-6.6586285,3.0292637,-1.7018204,-0.44090557,-2.5551863
IND124112AAA,-0.22110903,-4.678173,6.646358,5.5310497,7.575752,-0.6355334,5.2826552,0.7102289,3.5097888,0.95394045,-0.36031193,-2.1272812,-1.7018704,0.28440365,1.4757551,1.8641722,0.605127,-6.5149674,3.6487746,0.21891263,-2.834682,0.40986744,2.0457582,-0.4197905,3.9718108,2.1029358,-0.08698976,-6.637842,3.06696,-1.747338,-0.45299742,-2.5512729
IND125001AAA,0.13352458,-1.2664046,1.2453952,1.6482415,2.3783765,-0.17011952,1.7581334,-0.08032027,0.5375981,-0.07746012,-0.45222527,-1.1638802,-0.7697434,-0.0015354753,0.693541,0.86509824,-0.2272115,-2.2140718,0.7392538,-0.11536251,-1.0978872,-0.06705497,1.0169873,-0.5316119,0.76670635,1.030697,0.3764224,-1.6451007,0.91742676,-0.40565106,0.09432715,-0.3863427
IND125005AAA,0.6401193,-1.9074647,-0.21568477,2.2681246,3.3269563,0.28248978,1.3849595,-0.14730054,-0.26409423,-0.9262549,-0.9134551,-1.6254659,-0.63688236,-0.64287204,1.5550277,0.6508399,-1.3619401,-2.7754962,0.053487897,0.06140909,-1.8596301,-0.41908965,1.6249247,-0.7502844,0.86798114,1.9782572,-0.050371587,-2.5079672,0.7252193,-0.3210847,0.0154098645,-0.24358116
IND125033AAA,0.9391649,-3.4876523,0.8668938,3.9850426,5.6630516,0.39582294,2.5005095,-0.027097225,0.26494813,-1.1674858,-1.3069363,-2.3310165,-1.0341973,-0.9754576,2.4339986,1.0418262,-1.8561987,-4.6344047,0.63659006,0.16073966,-2.906422,-0.5179667,2.3197625,-0.9463419,1.8786494,2.9495823,-0.29122055,-4.708273,1.5016556,-0.71669614,-0.040211514,-0.77251965
IND127021AAA,0.904096,-3.4791338,0.8779777,4.016235,5.658752,0.36753792,2.4905987,-0.028597355,0.2228651,-1.1299307,-1.2814848,-2.4003901,-1.0801632,-0.98682636,2.4087791,1.009786,-1.851699,-4.603402,0.6020658,0.14203554,-2.8897352,-0.53230304,2.3103604,-0.9454112,1.8594683,2.9772334,-0.3651988,-4.7056036,1.3814874,-0.7038432,-0.090770006,-0.79990804
IND131028AAB,0.17292117,0.67465603,1.6588169,1.2117226,2.8122766,0.15183404,1.4449651,0.87025785,0.43153137,0.45220017,-0.5278484,-2.8852134,-0.7681062,1.2987425,-0.09743206,1.4884061,-0.06614798,-2.637343,0.49384254,-0.2702964,-1.2864289,0.53604877,0.95854163,-0.17333436,0.6105166,1.2569338,1.1524526,-1.0268729,1.2293077,-0.30351126,0.49604654,-0.19786054
IND201007AAA,0.051213846,-0.63764966,1.2759486,0.9532918,1.7280104,-0.159683,1.5690982,-0.08542177,0.4748026,0.19454366,-0.122532636,-1.155211,-0.8155827,0.120353,0.097021565,0.87334234,0.055642992,-1.5800165,0.7890521,-0.14502731,-0.7580351,-0.029967666,0.8173038,-0.49172089,0.5576688,0.7449692,0.4118419,-1.104844,0.75488013,-0.2100709,0.16732895,-0.2620601
IND201301AAF,0.01519835,-0.4213724,1.2685668,0.8290813,1.547648,-0.123149976,1.4015837,-0.03970179,0.39562118,0.24287598,-0.11248568,-1.2647328,-0.8167936,0.19275069,-0.022457331,1.0022218,0.11056116,-1.4827074,0.7048577,-0.09089963,-0.7825906,0.02909623,0.7450254,-0.50578266,0.45200714,0.70551956,0.38942787,-0.90876865,0.58666575,-0.01870364,0.21702717,-0.24087578
IND201301AAM,-0.24934483,-4.6107073,6.7267075,5.588029,7.650581,-0.7118144,5.344096,0.66976714,3.4556525,1.0035548,-0.35063523,-2.4387393,-1.8027353,0.2822927,1.4258446,1.90852,0.6561531,-6.5817294,3.6422653,0.177003,-2.9076405,0.4100049,2.07339,-0.44244838,3.8686032,2.2821844,-0.011229038,-6.6583796,3.0330322,-1.6843278,-0.512732,-2.6032276
IND209304AAA,0.35852253,-0.025623798,0.8361434,1.1145003,2.0746205,0.105108365,0.95482725,0.53717315,0.22127515,0.11824748,-0.7029836,-1.9046887,-0.8074012,0.6239681,0.104062386,0.88692904,-0.48991257,-1.8929875,0.14324933,-0.5902073,-0.9082105,0.13803965,0.82441396,-0.46950886,0.39642286,1.0580056,0.5713327,-0.82142633,0.7569819,-0.2254091,0.3189676,-0.15560126
IND282002AAD,0.1270886,-1.650084,1.7346091,2.0369773,2.840801,-0.1867052,1.952949,0.17341739,0.7333093,-0.07788214,-0.42964906,-1.2155827,-0.7398579,-0.11348593,0.7652766,1.1071132,-0.25409597,-2.4874573,0.962571,-0.18072611,-1.2217507,-0.080451705,1.1164739,-0.6050862,1.1572558,1.1856118,0.17710221,-2.0281734,0.984711,-0.5491976,-0.015860245,-0.44554403
IND301001AAB,0.10072282,-1.263216,1.7451284,1.4539689,2.336447,-0.23582083,1.8640764,0.20679983,0.8428353,0.25444978,-0.24932417,-1.1221994,-0.8601667,0.053348556,0.33216462,0.76425713,0.13580793,-1.9411339,0.99869066,-0.22435911,-1.0599298,-0.107994914,0.7217884,-0.5445194,0.8061545,0.7606605,0.15515748,-1.7745094,0.8304981,-0.3235474,-0.012261644,-0.5535352
IND301705AAA,-0.21671551,-2.2887974,3.1626167,2.872964,3.6389952,-0.09995529,2.4967704,0.36841774,1.7654142,0.5970231,0.14510852,-1.328157,-0.77297413,0.1628701,0.69492555,1.2534451,0.40472394,-3.251369,1.8393618,0.23080152,-1.4753706,0.32394937,1.1160902,-0.32230663,2.1694674,1.1946728,-0.18193233,-3.422092,1.279866,-0.7383221,-0.25909328,-1.3782471
IND302014AAA,0.32034814,-0.08580494,1.1972444,0.9354419,1.9378288,-0.2882458,1.6351326,0.05781132,0.44040596,0.16818188,-0.19748092,-1.1310048,-0.8335683,0.6461958,0.19671744,0.8217827,-0.06778565,-1.9249684,0.5108797,-0.18812336,-1.0536394,0.30312192,0.85856366,-0.52438766,0.8187288,0.6384555,0.5872791,-0.998941,0.6586157,-0.21511838,0.31115684,-0.33691114
IND302022AAD,-0.36531484,-4.697592,6.667781,5.613552,7.5899463,-0.72736293,5.2436495,0.69953346,3.3994353,1.0103463,-0.2706483,-2.358977,-1.768384,0.2712472,1.4076985,1.8786144,0.64272654,-6.5059276,3.628861,0.2145763,-2.864824,0.40726817,2.0551543,-0.41696405,3.8793538,2.2591949,-0.08723009,-6.597085,2.92886,-1.7078443,-0.5932999,-2.6031604
IND328001AAA,-0.047886267,-1.6760631,2.1927488,1.9285892,2.660661,-0.31070355,2.0571873,0.17033145,1.0069666,0.28823546,-0.20430535,-0.9723617,-0.7842001,0.051036537,0.4767559,0.8326742,0.06875652,-2.3361742,1.1879526,0.037337106,-1.1864784,0.06251246,0.87403345,-0.43512416,1.2858115,1.0051404,0.027451158,-2.1042871,0.9129293,-0.43109375,-0.20749682,-0.7535336
IND382430AAB,0.14899842,0.38089138,1.3674489,1.150993,2.4878547,0.1889749,1.1602404,0.5456975,0.43446934,0.41667905,-0.65071666,-2.3492942,-0.6246853,1.0672519,-0.082838856,1.2317679,-0.36183745,-2.234411,0.24843481,-0.29809988,-0.898295,0.19156718,1.0368155,-0.07893658,0.49133298,1.1706997,0.924912,-0.97007823,0.8735221,-0.047802642,0.5127355,-0.2647737
IND390022AAA,0.10800664,-0.927637,1.3474302,1.2799246,2.0531697,-0.034874845,1.4159338,0.1688816,0.56016666,0.32141453,-0.21217683,-1.1140323,-0.62982666,-0.044214353,0.2658439,0.83649564,-0.028426737,-1.6494205,0.81208706,-0.22692174,-0.9534939,-0.049552947,0.86551094,-0.44515228,0.70620716,0.92719156,0.16974813,-1.5413849,0.7692578,-0.23694596,0.050569817,-0.4887777
IND421302AAG,0.36589074,1.2756872,3.074127,1.8475058,5.941442,1.0209321,1.3472064,1.1639245,0.945974,1.4226834,-1.703383,-5.205807,-0.42755464,2.8132567,-0.5585915,2.8310478,-1.1313142,-4.1413536,-0.18087512,-0.06434458,-1.4017735,-0.078090966,1.9121004,0.92093396,0.93547046,2.2071095,2.7808173,-2.082286,1.8504683,0.0683741,0.6756438,-0.9288526
IND462022AAA,0.22705677,-0.41974038,1.6137161,1.219955,2.3747911,-0.2701596,1.96458,0.068724185,0.6381057,0.31142193,-0.46223354,-1.5337956,-1.0552654,0.6530891,0.12038165,1.1194885,0.06134996,-2.332457,0.6996585,-0.43580687,-1.097094,0.1714674,1.0325772,-0.5383692,0.6435648,0.8444099,0.7260916,-1.3145909,1.0275497,-0.2650647,0.38446864,-0.23057193
IND474003AAA,-0.021431409,-0.38428998,0.42709818,0.9550586,1.3990886,0.08835971,1.0671022,-0.04012753,0.25658864,-0.04644368,-0.1990012,-1.1342981,-0.47901437,0.17022578,0.32230568,0.77646554,-0.2026178,-1.4478685,0.40303585,-0.023311123,-0.7576353,0.014484849,0.8412124,-0.57353795,0.39670375,0.69791555,0.1592387,-0.7553401,0.35407674,-0.071514726,0.2736407,-0.19406226
IND501359AAE,0.6014434,0.8664462,1.7839645,1.6639869,3.6290581,0.45904887,1.1808665,1.6039659,0.25409806,0.34159684,-1.0670116,-3.8939965,-0.94983006,1.6346805,-0.19135275,1.5216482,-0.3772556,-3.4667294,0.277798,-0.7832628,-1.334487,0.31882983,0.93795925,-0.7135556,0.5039181,1.5653749,1.4197109,-1.172004,1.9083799,-0.6085819,0.5522101,-0.21529439
IND521225AAB,0.10965949,-0.4659184,1.3640205,0.9884485,1.9697256,-0.11076217,1.5792668,0.028413296,0.71406955,0.31623003,-0.2397958,-1.0825769,-0.6218085,0.37278244,0.15027687,0.79765123,0.22270396,-1.8814642,0.71344525,-0.3385216,-0.745856,0.15061165,0.7318244,-0.35753083,0.68822503,0.6747638,0.47811562,-1.2536606,0.88707507,-0.2826334,0.24426079,-0.39142752
IND600056AAB,0.26526633,0.3364923,1.3954874,1.2968724,2.8591282,0.27067408,1.0973842,0.71106565,0.46372283,0.21282545,-0.9126474,-2.7716622,-0.702422,1.1326896,0.016640281,1.2610805,-0.5142599,-2.3945506,0.14316827,-0.5057735,-1.1017333,0.15034585,1.0803992,-0.24215472,0.55239385,1.4053924,1.1001089,-1.1581912,1.1026427,-0.13668358,0.5396357,-0.3644312
IND712311AAA,0.73842055,0.43657607,1.4337376,1.4297595,3.5319152,0.09718052,1.3724878,0.97712183,1.0363166,0.15235691,-0.78111875,-2.5584254,-0.9060521,1.6937035,0.33343184,0.9494468,-0.6609617,-3.142848,-0.09196544,-0.7877369,-1.4776206,0.5970547,0.90438586,-0.29396474,1.2651955,1.1245289,1.1497905,-1.6602435,1.4810815,-0.6083615,0.4756597,-0.58143896
IND751002AAB,0.22727177,-0.39852837,1.6435065,1.2320212,2.2281141,-0.32611203,1.9208198,0.054783493,0.57806,0.27829188,-0.42489028,-1.4031835,-1.0604308,0.4389542,0.16654226,1.2419645,0.194621,-2.1257281,0.79493487,-0.40148193,-1.0301706,0.030001745,0.9000097,-0.58644354,0.4209214,0.6423392,0.53138936,-1.237412,0.8790517,-0.24822828,0.32994598,-0.21116407
IND821115AAB,-0.021851435,-0.9845448,1.609936,1.2500367,2.042008,-0.23727717,1.7318838,0.056634635,0.79343283,0.40490112,-0.09322381,-0.93542194,-0.7056838,0.19212322,0.22714639,0.5941777,0.2641872,-1.8125275,0.9563689,-0.04030624,-0.8605583,0.1246981,0.6900268,-0.30838293,0.8386178,0.7168635,0.26574162,-1.4823534,0.8398184,-0.34774143,-0.07876091,-0.5939062
IND834002AAB,0.032891423,-1.4429942,2.5933375,1.8935578,3.461083,-0.20990686,2.5066168,0.098617494,1.4074287,0.40126112,-0.42406625,-1.5504135,-1.0065167,0.47333035,0.4123817,1.1915803,0.11202508,-3.2354915,1.3587493,-0.146755,-0.94720614,0.11525891,1.1977422,-0.4363625,1.5482862,1.1546414,0.42067784,-2.5839167,1.4839911,-0.7965368,0.26882553,-0.7607068
IND842001AAA,-0.023918144,-0.011637956,0.99266446,0.81525886,1.7943438,0.10892297,1.0458465,0.18319255,0.5420227,0.40238723,-0.41465363,-1.548491,-0.4234941,0.7244697,0.10065393,0.737057,0.17019776,-1.5907303,0.36367673,-0.16620725,-0.6622928,0.2761633,0.71218646,-0.15892151,0.44722235,0.6985927,0.75136924,-0.81408995,0.91358334,-0.075873196,0.383201,-0.37812018
IND000000ACK,0.033790667,-0.36588332,0.15755859,0.06987835,0.17439085,0.23845518,0.36846936,0.0038463473,0.10056287,0.2851884,0.54050773,0.14858985,0.102504246,0.21420132,-0.13884221,0.019882262,0.1347793,0.23418172,-0.044496976,0.020474043,0.056458533,0.015007326,-0.050960034,0.18560824,-0.0015520938,0.11733372,-0.0053953603,0.06802209,-0.13698342,0.1364909,-0.11182229,0.014748987
IND000000ACN,0.13691889,-0.5318319,-0.1283317,0.15393233,0.34732747,0.20595087,-0.019795269,-0.16596162,-0.10673696,0.17272961,0.7558104,0.21368219,0.22891182,0.52163035,-0.2118361,-0.11786544,0.1862689,-0.09482801,-0.22373797,0.1338453,-0.23272617,0.09837758,-0.119218916,0.20603338,0.06599474,0.28437555,0.049497932,-0.20637497,-0.1661657,-0.081840485,-0.29885775,0.3468449
IND000000ACT,0.48432785,-0.009330923,0.8280186,-0.6073953,0.6659221,0.23593755,-0.037291966,0.36266467,0.3053562,0.8795235,-0.21988127,-0.3807565,-0.64448327,0.48844916,-0.34019193,-0.7559356,-0.41522738,0.82664114,-0.6745512,-0.60566974,-0.6610153,0.08240519,-0.18258986,0.66627276,0.08379944,0.7411858,0.6572002,-0.39557415,0.75609475,0.45600364,-0.5321433,0.22654793
IND000000ADV,-0.110440835,-0.3154593,0.038260117,0.16850686,0.116747595,0.23105954,0.35186666,0.018281408,0.11586431,0.25225517,0.52975744,0.17220914,0.14560568,0.2196819,-0.08091785,0.026103295,0.19507068,0.1515095,0.012625847,0.039591547,0.18850732,0.050385296,-0.047480922,0.12842456,0.051394086,0.061432246,-0.09343925,0.18768081,-0.20965773,0.054854102,-0.08077271,-0.05123456
IND600044AAC,0.13135557,-0.19726846,-0.14322756,0.20026295,0.33249334,0.31654692,0.021887891,-0.12216297,-0.24391055,0.2931092,0.9281554,0.100716144,0.16000089,0.41484722,-0.3386157,0.058887318,0.31780583,-0.32906517,-0.07151559,0.23174533,-0.15397175,0.19498077,-0.015582502,0.11156905,0.102186255,0.33537602,0.04495567,0.09034197,-0.13431482,0.02209983,-0.112769276,0.40038082
IND000000AEM,-0.12042926,-0.34475315,0.11581196,0.14499584,0.1608977,0.18549898,0.32801798,0.03943827,0.12582515,0.28308353,0.5535461,0.11394023,0.13898471,0.22281261,-0.0712748,0.02044598,0.14912179,0.19930752,0.009796746,0.06042828,0.12495668,0.046718642,-0.07882805,0.120513745,-0.018114965,0.070342734,-0.008068621,0.08363669,-0.09947897,0.019841488,-0.07117841,-0.030049304
IND110037AAB,-0.09835662,-0.4215116,-0.18456301,0.23747025,0.21559219,0.20543711,-0.021320313,-0.11812303,-0.13039334,0.21609639,0.85807806,0.094606906,0.20521617,0.38984048,-0.12763022,0.0021777824,0.22326748,-0.19195846,-0.13466346,0.2096258,-0.13618416,0.10917373,0.016580492,0.15780093,0.1723141,0.23435538,-0.020227343,0.118036196,-0.1786605,-0.07112038,-0.15609898,0.2788246
IND110064AAB,-0.09849055,-0.42131692,-0.18476588,0.23735246,0.21548958,0.20550457,-0.021437645,-0.11821065,-0.13045932,0.2159929,0.85766965,0.09452641,0.20527893,0.38989037,-0.12742956,0.002224557,0.22322805,-0.19199863,-0.1347169,0.20971958,-0.13621391,0.10921262,0.0166208,0.15776876,0.17246523,0.23417959,-0.020319745,0.11824109,-0.17887735,-0.07116397,-0.1560994,0.2786737
IND000000AET,-0.120889336,-0.21090305,-0.20533228,0.106286705,-0.07722685,0.19540021,0.017608006,-0.13944805,-0.10803512,0.23105651,0.1926299,0.14496613,0.030304238,0.18131116,-0.06835719,-0.17673047,-0.050209932,-0.04936104,0.120723665,0.06283003,0.08287299,0.1915056,-0.22336045,0.04992818,-0.018311635,0.16187875,-0.08724732,0.20833844,-0.26398242,0.008562669,-0.21545598,0.02634003
IND000000AFF,-0.044239074,-0.5078893,-0.19322559,0.22327746,0.21896687,0.23020303,-0.049529612,-0.1511442,-0.05288832,0.07644965,0.6567553,0.21407548,0.29390883,0.5612514,-0.14340517,-0.063716434,0.218757,-0.12000026,-0.21038866,0.17729686,-0.100444525,0.14733917,-0.13258788,0.124942616,0.16607481,0.23274559,-0.059559397,-0.08875755,-0.2987929,-0.13680422,-0.31550932,0.2890647
IND734203AAA,-0.265925,-0.38920212,-0.12726863,0.22986639,-0.253633,0.17624132,0.12760851,-0.28140593,0.18691644,0.3173175,0.9427825,0.21460938,0.40905368,0.542817,-0.09836574,0.079448715,0.26818186,0.031037927,-0.064186215,0.28395134,-0.2272991,0.35762697,-0.30789003,-0.09032491,0.23066229,0.28191394,0.08232307,0.25633705,-0.5650382,0.010603312,-0.25965393,0.11570792
IND000000AFG,-0.31686273,-0.24396685,-0.09310821,0.26329198,0.026094835,0.25830477,0.3239633,0.06525398,0.16892739,0.18176183,0.48030925,0.14732048,0.20798886,0.23880583,0.007875526,0.05728797,0.25973782,0.05839297,0.046671607,0.08876495,0.3529168,0.082186766,-0.028924508,0.042831786,0.14984001,-0.019385442,-0.21015236,0.3477928,-0.3070666,-0.054555167,-0.0461743,-0.15595767
IND673027AAB,-0.17327523,-0.4522552,-0.12695153,0.21563771,0.18054149,0.27582568,-0.09530011,-0.023156963,0.05486842,-0.00943774,0.61723846,0.06305228,0.2927882,0.594705,-0.0660123,0.0014048107,0.23335421,-0.085461855,-0.2831839,0.20922485,-0.042244703,0.23331003,-0.18241265,0.017223798,0.2138678,0.20484965,-0.10353268,-0.16927522,-0.282522,-0.23325945,-0.32770336,0.2503562
IND000000AFJ,-0.043854963,-0.100935355,0.26734164,-0.20003954,0.21269327,0.3207372,0.15270898,0.10366118,0.12235497,0.29124102,0.4439168,-0.16202044,-0.30625015,0.2980882,-0.3300439,-0.015717495,0.005619034,0.13938999,-0.17945406,0.06442941,-0.23886487,0.22840315,-0.09224998,-0.09693964,0.114068255,0.35064593,-0.09856546,-0.344845,-0.027111545,0.20196483,-0.079246715,0.19427592
IND695121AAA,0.11013844,-0.13028502,0.23482051,-0.06677003,0.07533099,0.2140427,0.1614533,-0.0969892,0.10556412,0.3707109,0.5279135,-0.11765931,-0.042260606,0.12320088,-0.23858577,0.16214374,0.15161279,0.30089936,-0.10168846,-0.09425349,-0.37074563,0.04036787,-0.05543392,-0.06597623,0.076772586,0.39263037,0.08771283,-0.6026219,0.13546441,0.39083958,-0.06304231,0.15003088
IND695572AAB,-0.19568984,-0.02945549,-0.13516933,0.20052825,0.1159089,0.33153665,0.10946315,-0.058015764,0.096555226,0.2080896,0.32935873,-0.10140932,0.13198666,0.27008733,-0.07934481,0.20590508,0.089677945,-0.14462301,0.039684925,0.16277452,0.0052870214,0.08987871,0.09824821,-0.18704319,0.14000507,0.27468142,-0.13596362,0.022924334,-0.08714052,0.13424852,0.08048371,-0.11757798
IND000000AFR,-0.045021433,-0.12972271,0.046659183,0.020680744,-0.13158298,0.11248817,0.11231645,-0.020463593,0.003717959,0.043176875,-0.02326205,-0.019863889,-0.1281048,0.13835107,-0.03099402,-0.26396468,-0.0645694,0.20222041,0.063935354,-0.19112127,-0.03355761,-0.005079506,-0.108482026,0.11346524,0.0014020279,0.18813604,-0.09355204,0.27619946,-0.1112197,0.09341082,-0.15420724,-0.0034164656
IND683511AAA,0.19510765,0.1935372,0.85164195,0.5884726,1.2688155,0.018768368,0.88975906,0.18113807,0.25606906,0.32171744,-0.094518825,-1.0589049,-0.53156465,0.5901681,-0.13049406,0.6488005,-0.09247513,-1.2899014,0.32530275,-0.10265103,-0.5931005,0.36923814,0.5648279,-0.23606798,0.58884007,0.6260902,0.31727263,-0.6097494,0.34877613,-0.10552925,0.15606108,-0.27628678
IND000000AFT,-0.30154014,-0.36974886,1.0687532,0.59441894,2.1494813,-0.10576406,1.336075,0.15822068,0.42561084,0.5340828,-0.08469198,-1.4491594,-0.3864189,0.5790215,0.023310006,0.9232353,0.15692139,-1.9134687,0.73743397,0.060221743,-0.524709,0.54009783,0.9848942,-0.091941,0.98357606,1.0206333,0.76171625,-1.1727823,0.8474389,-0.436181,0.18002748,-0.33133066
IND400072AAB,0.14667517,-0.17991537,1.2825723,1.1897084,2.8087323,0.30858856,1.1188952,0.36135715,-0.029235005,0.5171353,-0.82714933,-2.1549003,-0.53883576,0.49871498,0.081796065,1.5537175,-0.6103904,-2.2820349,0.39651358,-0.24495424,-0.8731749,-0.08678144,1.6580722,0.109846175,0.3717001,1.6922352,0.8575253,-1.0607505,0.53741467,-0.047269538,0.2523269,-0.43178606
IND400701AAA,0.02062897,-1.0441159,0.7135916,0.4326086,0.9270066,0.1833626,0.33824566,0.26192486,-0.21305317,0.5241588,-0.28990573,-0.26578686,-0.119534165,-0.48031843,0.154881,0.6332548,-0.6303214,-0.3783824,0.511702,-0.12152003,-0.5263704,0.2861144,0.74317473,0.052687198,0.6781679,1.17498,-0.21817395,-0.9571172,-0.1395571,-0.22294734,-0.2073453,-0.36812216
IND400706AAA,-0.24357274,-0.9594743,0.51257664,0.5127027,1.086102,0.06186074,0.26708463,0.16927609,-0.28252906,0.6556022,-0.13820717,-0.3714683,0.07561579,-0.40880924,0.0912523,0.6078494,-0.48615313,-0.38281387,0.5312622,-0.13615595,-0.44007325,0.31392688,0.79715186,0.07414213,0.6844406,1.2125572,-0.25790006,-0.81448025,-0.30852658,-0.3328364,-0.28788474,-0.5652387
IND410206AAA,0.048887134,-0.46399403,0.19695133,0.32233343,0.58711094,0.5480184,0.1569944,0.18300477,-0.24029624,0.22327492,-0.103713036,-0.41863,-0.0068238825,-0.37192157,0.1571571,0.5691079,-0.26825052,-0.28717303,0.17994633,-0.09476188,-0.27713412,0.13239543,0.47490066,0.04589635,0.33884808,0.6310185,-0.3404404,-0.66821456,-0.14654765,0.019908667,-0.07004511,-0.2697413
IND410206AAB,0.06876164,-0.9154156,0.65159154,0.44434965,1.1456404,0.095970765,0.27750283,0.21289524,-0.22460097,0.67513645,-0.24288408,-0.36649048,-0.015221059,-0.43114197,0.09153178,0.5697001,-0.54647136,-0.35528502,0.48782942,-0.21986231,-0.6692027,0.24856126,0.8520895,0.14886156,0.6419197,1.3316169,-0.18446213,-0.9593388,-0.13871148,-0.23003016,-0.34392688,-0.47847664
IND410209AAA,0.02005618,-0.88504726,0.5472331,0.34047842,1.1981685,0.11385042,0.35449305,0.17464265,-0.37864062,0.6503724,-0.22857842,-0.48418587,-0.11219169,-0.4357782,-0.012760147,0.58428276,-0.48241287,-0.3970678,0.47737733,-0.22251838,-0.51003724,0.25889114,0.78838146,0.022226721,0.6619882,1.240416,-0.2519343,-0.839091,-0.21339785,-0.22625957,-0.35009435,-0.47734356
IND410210AAA,-0.014812561,-0.9545573,0.5584936,0.41244668,1.1496651,0.1076303,0.2989121,0.18575028,-0.35076883,0.66286993,-0.17135501,-0.39975265,-0.047956884,-0.44474918,0.0033205599,0.5758592,-0.50959337,-0.34154892,0.44199583,-0.2231105,-0.5244941,0.27076867,0.788157,0.08190712,0.6680821,1.2622796,-0.2839238,-0.8505554,-0.26014048,-0.2236199,-0.359299,-0.49650955
IND110014AAA,0.6534786,-1.0101557,-1.9432623,1.1812946,1.5278797,0.81803155,0.067569315,0.056648217,-1.056038,-0.96682096,-1.0121441,-0.93062025,-0.26636404,-0.9611311,1.4327775,0.035532348,-1.656059,-1.1120342,-0.7620995,-0.28544033,-0.96319926,-0.5541197,1.0098319,-0.89717966,-0.24123073,1.2469773,-0.42954448,-0.78083885,0.02119041,-0.0123639405,0.0020860285,0.38963836
IND110020AAB,-0.08317712,-1.4888722,1.8408738,1.7278862,2.132018,-0.4376887,1.529349,0.014342159,0.4105329,-0.03077437,-0.55439657,-0.9641538,-0.9331102,-0.17599851,0.51624775,1.5027844,-0.17774156,-1.8043839,0.9093748,-0.43411434,-0.5822645,-0.18902346,0.7535141,-0.65662134,0.793929,0.94051045,0.2609073,-1.305244,0.6957512,-0.7059781,-0.034634158,-0.009719707
IND110037AAM,0.4377851,0.25483674,1.2660195,1.1569048,2.8814821,0.1830338,0.84519714,0.88354635,0.6052647,9.512529e-06,-0.89156336,-2.6740859,-0.5198831,1.2788812,0.18622902,1.0493563,-0.78156596,-2.5732796,-0.1304987,-0.6598512,-1.1807227,0.36280692,0.83631307,-0.36022568,0.8966018,1.3902633,1.0188885,-1.3162942,1.1488335,-0.44260782,0.49423513,-0.23851386
IND110035AAC,-0.019233938,-1.3690946,1.878365,1.6374241,2.199668,-0.42686284,1.6456201,-0.02213481,0.402829,-0.01791963,-0.60063016,-1.0866566,-0.9955982,-0.17863274,0.45413738,1.51819,-0.110991955,-1.88021,0.9617777,-0.47425517,-0.5936988,-0.22000405,0.73874915,-0.717899,0.7606749,0.95145947,0.33358014,-1.3392096,0.7915076,-0.69001067,-0.010442585,0.0028454475
IND201001AAC,0.028774295,-1.4323844,1.8517895,1.6531538,2.1055565,-0.42137495,1.4914527,0.0681524,0.41548878,-0.022170141,-0.5364524,-0.96340686,-0.9709612,-0.188026,0.5027502,1.5175,-0.20763084,-1.7111616,0.8650183,-0.44967812,-0.64542097,-0.20408522,0.7786509,-0.6116103,0.79812306,0.96417165,0.20201308,-1.2981867,0.65398896,-0.6313064,-0.15275748,-0.0061348807
IND201301AAD,-0.14947873,-1.573146,1.8159373,1.7886429,2.0920694,-0.45001182,1.4890501,-0.015671432,0.3793028,-0.029694185,-0.52632606,-0.9229977,-0.90358055,-0.19929835,0.52260333,1.5162985,-0.18792242,-1.7985497,0.8773525,-0.41658136,-0.5356257,-0.15775749,0.7364917,-0.6698493,0.8221812,0.92564034,0.23177087,-1.2804229,0.64585066,-0.7355603,-0.008033887,-0.0047132857
IND202001AAB,0.078780636,-0.34726235,0.3764758,0.41759992,0.63606286,-0.03271714,0.5896512,-0.03319198,0.05880353,0.11735169,-0.029402383,-0.5049934,-0.43009505,0.04067678,0.056479797,0.43189675,-0.06015873,-0.5642339,0.22501203,-0.14143665,-0.41542035,-0.021488067,0.38300455,-0.25529718,0.095708296,0.45507336,0.17741868,-0.32523116,0.19320853,-0.014674522,0.027518973,0.08142689
IND226004AAC,0.023781229,-1.4376423,1.8512762,1.6579156,2.1050553,-0.42109597,1.4920232,0.066407174,0.41380674,-0.023660898,-0.53564364,-0.9628946,-0.968931,-0.1894995,0.500718,1.5174637,-0.20710045,-1.713983,0.86550725,-0.4504733,-0.6421369,-0.20224212,0.77569807,-0.61409354,0.8002472,0.9632638,0.20164144,-1.2981676,0.65157664,-0.6338049,-0.14885148,-0.0066451486
IND282001AAA,0.17730731,-1.2315781,1.5419202,1.3525013,1.8748479,-0.3203796,1.4102585,0.14496732,0.4407727,0.012447469,-0.6493765,-0.59402597,-0.78492826,-0.14440855,0.5555553,1.058889,-0.22251669,-1.6116067,0.8027923,-0.3830899,-0.48625624,-0.20098428,0.6192089,-0.4794261,0.7280663,0.6736103,0.14504653,-1.366338,0.82483137,-0.6169576,-0.031233728,0.053507768
IND282001AAC,0.1565974,-1.4634542,1.8410901,1.4436976,2.037696,-0.42660537,1.5380876,-0.031212777,0.42207593,0.06489591,-0.6113376,-0.8144202,-0.99818486,-0.24313627,0.6232875,1.4298978,-0.2683588,-1.6718898,0.8913534,-0.32537967,-0.6574615,-0.17460345,0.82714564,-0.64017934,0.85253197,0.88499564,0.25863922,-1.3805559,0.8965044,-0.6324316,-0.11712657,0.055365313
IND811399AAA,0.19290598,-1.3742468,1.9330125,1.5266166,2.1932523,-0.4141812,1.5793123,0.070629835,0.5244444,0.041563764,-0.6830789,-0.89336455,-0.9950052,-0.13174802,0.62855697,1.4144542,-0.2478787,-1.7848494,0.9624876,-0.38800183,-0.7610609,-0.19394064,0.86866516,-0.5663627,0.81514907,0.9500245,0.34699476,-1.4373579,0.95494044,-0.63438475,-0.081240654,0.026711857
IND110039AAA,0.22336511,-0.86092484,-1.0630331,0.9306126,0.9616055,0.2534975,0.08358778,0.080181584,-0.85571116,-0.6821385,-0.63232166,-0.7715837,-0.21289863,-0.7448849,0.9209017,0.21539095,-1.4649422,-0.7934676,-0.53184533,-0.37153292,-0.77787304,-0.17253205,0.8460845,-0.75021505,0.043224663,1.443032,-0.20217101,-0.28544807,-0.082865134,-0.043102488,-0.10216144,0.32192805
IND110078AAA,0.92817503,-1.1530163,-2.1876085,1.4043642,1.940033,0.5220806,0.095801,-0.34754327,-1.612013,-1.4602,-1.1140798,-1.1490321,-0.29821578,-0.94193214,1.7242239,-0.09751158,-2.2554846,-1.4257532,-1.0573599,-0.020760834,-1.3990978,-0.57392824,1.2639467,-0.7332763,-0.012449529,1.9908824,-0.2711823,-1.0571995,-0.19362491,-0.08112135,-0.0039324313,0.52581275
IND110044AAB,0.36101478,-0.089663655,0.34040865,-0.14532095,0.9361297,0.46661943,0.041706495,-0.18706638,0.100704014,0.28686187,-0.38892758,-1.0117955,-0.080162466,0.0759837,0.29122356,0.20116574,-0.9802607,-0.0056025386,-0.44579285,-0.113691986,-0.83698624,-0.08860549,0.5836049,0.40593278,0.27094737,1.0882617,0.73553056,-0.32545662,0.3938084,0.6942772,-0.15451524,0.08220759
IND110005AAA,0.8567567,-1.6444222,-2.5120034,1.5725166,2.1575887,0.78131205,-0.17537187,-0.3203045,-1.7234343,-1.7486367,-1.3144099,-1.5522097,-0.27706474,-1.4628823,1.9809856,0.18007597,-2.874004,-1.4915875,-1.1680416,-0.24522457,-1.8519177,-0.5930127,1.7208862,-1.2011616,0.1586239,2.6356816,-0.4385671,-1.1645526,-0.24052352,0.1342198,-0.06341009,0.50422287
IND110046AAA,0.8420283,-1.6510112,-2.5184808,1.5873386,2.1558554,0.7831655,-0.16946416,-0.3158738,-1.710262,-1.7537041,-1.3029778,-1.5487497,-0.2648775,-1.4599824,1.9866068,0.19605294,-2.867996,-1.4992748,-1.1602606,-0.23600543,-1.8418875,-0.5905268,1.7264359,-1.1989217,0.1634945,2.6228485,-0.44465002,-1.1565998,-0.2556529,0.122894675,-0.05969605,0.49149555
IND110083AAA,0.17157994,-0.8622677,-1.096899,0.9553592,0.9492135,0.24983269,0.08592984,0.07920767,-0.8416046,-0.711712,-0.6116664,-0.75687754,-0.1769745,-0.7295311,0.93791103,0.23823263,-1.4442536,-0.81417274,-0.5004085,-0.32886368,-0.7331077,-0.15947765,0.85543025,-0.7615738,0.064318866,1.4064243,-0.22301832,-0.25954804,-0.11923697,-0.075243965,-0.09276271,0.28312993
IND110085AAA,0.35223463,-0.88075036,-0.9806281,0.89446884,0.951897,0.308677,0.07999702,0.07295333,-0.84911937,-0.6629579,-0.6207167,-0.7323131,-0.2397707,-0.77377367,0.85116506,0.18009017,-1.484821,-0.7048596,-0.5603685,-0.45155394,-0.8492665,-0.17039502,0.8400346,-0.6756217,0.066933185,1.5130888,-0.2322546,-0.30046389,-0.05774346,0.045011714,-0.17371555,0.37848967
IND110087AAA,0.3558407,-0.8784064,-0.9867085,0.878818,0.96539414,0.30852637,0.0750844,0.08445443,-0.8638972,-0.6468831,-0.6191027,-0.74373114,-0.25521034,-0.7741034,0.85028213,0.17504334,-1.4838387,-0.7066241,-0.5663605,-0.4537243,-0.8577106,-0.17444187,0.83593994,-0.68031615,0.051017493,1.5093746,-0.23018074,-0.30877155,-0.056530252,0.046132766,-0.17343698,0.3832839
IND110093AAA,0.5911002,-1.0379435,-1.806127,0.9822383,1.4372185,0.5790332,-0.019847993,-0.36640614,-1.1634231,-1.1324123,-0.8421625,-0.88553476,-0.20871063,-0.798203,1.232053,-0.01910247,-1.8092048,-0.9764815,-0.9693886,-0.36049488,-1.0889003,-0.30243647,1.0596813,-0.7398429,-0.012100103,1.7331256,-0.2679931,-0.468839,-0.14954695,0.10027796,-0.05816713,0.51638645
IND121001AAA,0.026599512,-0.55127627,0.4846186,0.88251424,1.334566,-0.120234765,0.7783826,0.23129901,-0.10067338,0.4860061,-0.3176992,-0.4472102,-0.111702114,-0.16821036,0.32929862,0.36838117,-0.4656575,-0.9106926,-0.009727109,-0.46906173,-0.41810554,0.11825196,0.5411515,-0.18175954,0.8138238,1.0494039,0.08644712,-0.6803521,0.22618231,-0.43575105,-0.14093372,-0.05261898
IND121004AAA,-0.098613285,-0.60326576,0.42353696,0.89590555,1.2972506,-0.14617035,0.7141459,0.23032826,-0.17597812,0.50987685,-0.23640256,-0.41483283,-0.06513381,-0.18316942,0.31560197,0.35531142,-0.44847232,-0.88872355,-0.0033143405,-0.42240268,-0.37394777,0.12581247,0.49594048,-0.17657232,0.80665094,1.0217919,0.054611206,-0.66066444,0.15588257,-0.47738358,-0.17086789,-0.0551953
IND121004AAC,-0.15357786,-0.62124234,0.3924616,0.9038216,1.2650938,-0.15096962,0.6673791,0.23272513,-0.20821244,0.5128267,-0.20790532,-0.38702393,-0.03881216,-0.19361022,0.31416216,0.34348807,-0.4494269,-0.8652087,-0.0068191793,-0.39323497,-0.34874701,0.123104565,0.4803165,-0.16729343,0.8053777,1.0101638,0.023329169,-0.64407146,0.114821315,-0.49409232,-0.19620138,-0.0560337
IND121102AAA,-0.094923526,-0.5285683,0.4367293,0.8680124,1.3630595,-0.14343545,0.7665478,0.21038364,-0.16688877,0.5114465,-0.2880882,-0.4849191,-0.09555504,-0.15560475,0.31084734,0.38370135,-0.427445,-0.9618529,0.030068098,-0.43893588,-0.37593368,0.12799117,0.49510726,-0.21456766,0.795637,1.0092533,0.11712426,-0.6508528,0.21828502,-0.47133252,-0.09447336,-0.064329386
IND122001AAD,0.78717476,-1.3612314,-2.0925257,1.4669442,1.8072741,0.5234943,0.008573009,-0.19120416,-1.4525902,-1.3918862,-1.166384,-1.092512,-0.17406756,-1.0039508,1.6586428,0.04291016,-2.3013985,-1.3672333,-1.0244292,-0.18260324,-1.2745537,-0.35546744,1.4012043,-0.78188616,0.13072473,2.0297236,-0.42775735,-0.9916658,-0.17741747,0.039452378,-0.07361724,0.2980582
IND122101AAC,0.87358415,-1.3809363,-2.0250084,1.4508817,1.778388,0.5821351,-0.014471755,-0.21167302,-1.4503598,-1.3544089,-1.1876047,-1.0814587,-0.21410078,-1.0221936,1.602116,-0.014567189,-2.3281171,-1.3021886,-1.051218,-0.27014238,-1.3078319,-0.35670435,1.3966892,-0.73463804,0.13576266,2.100315,-0.4819077,-0.9905053,-0.16156796,0.10163158,-0.13390067,0.3321271
IND122050AAA,-0.09644893,-0.16358809,-0.15587966,0.07959473,-0.030452944,0.3123263,-0.032061957,-0.1530884,-0.26289168,0.054230757,0.22818188,0.15954763,0.015829928,0.058009602,0.11140431,-0.25030917,-0.18360285,-0.036447458,0.0066526905,0.08923969,-0.025074124,0.09922114,0.06531186,0.08839993,0.040238064,0.0843556,-0.11103198,0.36714995,-0.25381333,-0.13282321,-0.26486623,0.11087085
IND122001AAJ,-0.041228563,-0.10038238,-0.22216278,0.1421388,-0.001912957,0.15720566,0.056496568,0.025717814,-0.2746535,0.14600757,0.14276424,-0.020428592,-0.087246574,-0.026729196,0.049909443,-0.27979964,-0.1788312,0.073978975,0.022377297,0.008945845,-0.09622527,0.04818976,0.034266517,-0.06897346,-0.0363676,0.19731312,-0.06312093,0.22514811,-0.20029399,-0.10167287,-0.2801795,0.050012186
IND507123AAA,-0.05143276,-0.19151612,-0.1316131,0.010537025,0.03756187,0.11673134,0.12289843,0.0028838385,-0.21261668,0.26461923,0.1083156,-0.0035385182,-0.08776892,0.13659337,-0.036885075,-0.27569225,0.039512902,-0.080308646,0.03334904,-0.05361709,-0.038709886,0.12943324,-0.12623854,0.0258925,-0.046662208,0.13614267,-0.04365352,0.07715675,-0.24566497,0.040528543,-0.22756939,0.017062126
IND122002AAD,-0.21042685,-0.112712994,-0.057238877,0.10412311,-0.16226682,0.12781876,0.116574675,0.008840211,0.029777713,-0.0338324,0.019903567,-0.038068485,-0.020933408,0.18984886,0.044631764,-0.15922114,-0.029897355,0.1138929,0.105145395,-0.07327807,0.08639476,0.033120077,-0.09073408,0.040938966,0.08003127,0.0667709,-0.16412646,0.36487156,-0.26466325,-0.0007307939,-0.108885825,-0.13023971
IND122503AAA,-0.38126934,0.022884358,-0.21275637,0.22529039,-0.29799795,0.16622102,-0.083658464,-0.14661832,-0.36229014,-0.021888293,-0.16432014,0.07269272,0.10012274,0.38167536,0.11514646,-0.32792318,-0.29631317,-0.1734865,0.14465186,0.21192884,0.27942342,0.085252866,-0.30050248,0.11297023,0.16077141,0.16442606,-0.24506558,0.6369376,-0.5430317,-0.45104486,-0.38429323,-0.23664196
IND122004AAA,0.26094317,-0.071102045,0.19231708,-0.18026817,0.09523506,0.16553238,0.06678441,0.086732194,0.07125431,0.34412637,-0.09007466,-0.06319626,-0.31144628,0.14257793,-0.11120187,-0.44886708,-0.072540626,0.30904365,-0.06927949,-0.36941785,-0.15221141,-0.0052442364,-0.024107933,0.3267854,-0.03658316,0.37838233,0.077841856,0.080253586,0.2164169,0.22284883,-0.23942566,0.08857322
IND122413AAE,-0.19256386,0.21744004,0.42297024,0.31356293,-0.11108573,-0.05492583,0.34943306,-0.3758896,-0.5826347,0.18507469,0.4066609,-0.02453921,-0.17397745,0.0731755,-0.16333516,-0.07777443,-0.30010056,0.18973055,0.4617606,0.6165464,0.15175283,-0.089046955,-0.0453749,0.18928184,0.19698459,0.5421234,-0.0041676164,0.4596312,-0.3727607,-0.27004856,-0.41755337,-0.24811153
IND123001AAA,0.29708743,-0.7329595,-1.2852869,0.7769794,0.8555916,0.6130082,-0.050580963,-0.38452092,-0.39945012,-0.7047372,-0.58651376,-0.5746206,0.11652811,-0.20860253,0.85695595,0.25761637,-1.1131186,-0.7173137,-0.49417818,0.19885305,-0.5818587,-0.20778872,0.69394624,-0.49235985,0.28087467,0.8000406,-0.3428744,-0.689258,-0.20308457,0.1785742,0.12058837,0.022230223
IND123401AAB,-0.18855812,-0.0868584,-0.24909252,0.21935429,0.13698262,0.27596167,0.13117433,-0.19206846,0.115665145,0.1905613,0.28403598,-0.01627583,-0.034027055,0.35443366,-0.06844334,-0.14885485,-0.17088737,-0.11007829,0.17141561,0.22991565,0.05999215,0.011980703,0.07752049,0.05818103,0.050691288,0.104103014,-0.30516917,0.13828382,-0.2495125,0.036727276,-0.06662297,-0.18167879
IND123106AAB,-0.3150164,-0.1479386,-0.20171544,0.06863225,-0.034516934,0.09062916,0.18811631,-0.1122326,-0.08041038,0.1212766,0.25810575,0.041800894,0.011019923,0.28161278,-0.05257979,-0.17119487,-0.06335473,-0.08958635,0.097837135,0.15771364,0.09111567,0.034411397,-0.014309667,0.087583594,0.081682876,0.1641995,-0.23514226,0.37423733,-0.46446726,-0.0682889,-0.20636767,0.005222412
IND124001AAB,-0.34453753,-1.6849985,2.1889927,1.5402627,2.7312856,-0.19825825,1.0706496,0.31937066,0.79784286,0.486327,-0.83077145,-0.42772406,-0.074781,-0.03312081,0.36419743,1.1979196,-0.5006046,-2.0217624,1.0629332,-0.56266177,-0.60786504,0.24851912,0.69406474,-0.18919325,1.5552064,1.0564182,-0.24095467,-2.0545373,0.43220633,-0.9162247,-0.117369816,-0.72086865
IND126102AAA,0.1777609,-0.65843093,-1.5000976,0.60775995,0.9542373,0.83162344,-0.2601905,-0.47572038,-1.0040425,-0.8806274,-0.40305114,-0.7904362,-0.24759872,-0.32379943,0.76873225,-0.22172126,-1.4295744,-0.44403312,-0.38959232,0.028495565,-0.52597535,-0.62251544,0.5229497,-0.26612964,0.0020389855,1.2600147,-0.39973986,-0.5931577,-0.11391054,0.023046724,-0.12246874,0.07369405
IND124141AAA,-0.20991284,0.05219093,-0.11975157,-0.0067372583,-0.25575995,0.23824662,0.017780453,-0.10974776,-0.37306303,0.38437545,-0.07270007,-0.025622945,-0.20757209,0.2649444,-0.19660033,-0.5047627,-0.15340105,-0.06615902,0.07927989,-0.012549318,0.08985077,0.07890338,-0.29168254,0.03394826,0.09375337,0.16830656,-0.11780538,0.28763747,-0.1929722,-0.13388383,-0.33726728,-0.10077348
IND124507AAA,-0.3646493,-1.6733258,2.2242568,1.5275599,2.7828326,-0.23258227,1.1139117,0.30438036,0.8263645,0.50538486,-0.8674478,-0.46525443,-0.09364092,-0.0034025311,0.38156748,1.187078,-0.46762922,-2.0845652,1.0838232,-0.5903468,-0.6169148,0.2670601,0.70343626,-0.19388795,1.5329449,1.0478438,-0.13544744,-2.0620227,0.5301352,-0.9307109,-0.07282218,-0.7235508
IND131028AAE,0.24382415,-0.81508243,-1.3127049,0.633895,1.0037504,0.76815563,-0.1914871,-0.4058498,-0.9706799,-0.81474805,-0.31201947,-0.7609803,-0.3311525,-0.49261963,0.7016773,-0.08946003,-1.4325279,-0.3662659,-0.38220716,-0.13228232,-0.609163,-0.6601906,0.6920878,-0.16660681,-0.013854727,1.4434959,-0.42760745,-0.6892698,-0.052486643,0.17562793,-0.1263681,0.12424356
IND125047AAB,0.19707239,-0.7346442,-0.73537254,0.7068223,0.93709797,0.20414236,0.30612195,0.016545895,-0.7202097,-0.55128074,-0.58341837,-0.7066226,-0.27094615,-0.54947805,0.6464609,0.29395363,-1.1838869,-0.7406945,-0.44137377,-0.23483977,-0.7345535,-0.16350366,0.693479,-0.53983855,0.06024275,1.2077255,0.037078053,-0.2698136,-0.08870494,0.03377574,0.022866279,0.36864454
IND125051AAA,-0.046270296,-0.35683978,-0.26093754,0.29964578,0.21688293,0.20851555,0.11485942,0.039892133,-0.15231165,-0.08385317,-0.13445833,-0.39422926,-0.12632051,-0.15804854,0.22869433,0.215655,-0.45187846,-0.2639634,-0.022201028,-0.030234404,-0.2885334,3.0329451e-05,0.3686282,-0.4700184,0.09434651,0.4382149,-0.08619203,-0.057738647,-0.18095686,0.06430884,0.034538712,0.08740032
IND335513AAA,0.06915149,-0.47424626,-0.5388943,0.5415898,0.6798358,0.18575174,0.20245656,0.039337706,-0.6141032,-0.25281325,-0.29223472,-0.5452279,-0.22300494,-0.33310354,0.35733077,0.16011065,-0.837152,-0.53143793,-0.29788303,-0.15844414,-0.504461,-0.08348725,0.43154296,-0.3720862,-0.014842086,0.9706289,-0.011542559,-0.13627696,-0.12693396,-0.02781005,-0.021364436,0.24035057
IND335523AAB,0.23315933,-0.4325532,-0.4247175,0.3602936,0.5157265,0.29787904,0.16708443,0.056817852,-0.5271727,-0.27831322,-0.35425943,-0.5348727,-0.21867883,-0.41930604,0.30326158,0.2181913,-0.81340426,-0.43145975,-0.28569546,-0.1892739,-0.64013,-0.08569405,0.5101451,-0.47382683,0.111420795,0.83722055,-0.08999939,-0.19623105,-0.21716589,0.088230975,-0.07504607,0.2954063
IND335524AAA,0.3348332,-0.6944942,-0.70352155,0.6111062,0.9296225,0.27988034,0.28279528,0.019134628,-0.74998266,-0.49536246,-0.54058594,-0.65397877,-0.31047073,-0.5818971,0.5781771,0.25875694,-1.1498594,-0.66758615,-0.473719,-0.26439184,-0.79001063,-0.15573768,0.6906997,-0.4960877,0.089379884,1.2430292,-0.017451063,-0.30420983,-0.09391523,0.08879496,-0.057990313,0.4097917
IND125050AAA,-0.1390725,0.12743858,0.25557056,-0.11071872,-0.21263325,0.41049108,0.120238766,0.30886978,0.05261962,0.13203609,0.08416525,-0.3043252,0.0025721416,0.00016753376,0.035598025,0.12747513,-0.20228918,-0.00815551,-0.06694114,0.015430391,-0.23189168,0.21473673,0.018469855,-0.25982708,0.24396513,-0.003213346,-0.05963365,0.14124714,-0.33227077,-0.08007878,-0.17714122,0.033138856
IND125111AAA,-0.23671976,-0.086010605,-0.227984,0.052176964,-0.007959224,0.24183053,0.10082391,0.0069024563,0.08416369,0.00862094,0.055798095,-0.063847974,-0.0460701,0.2607409,0.0077493936,-0.11280002,-0.031989157,-0.14492345,0.027254766,-0.10453327,0.17499857,0.06329818,-0.0389281,-0.07446652,-0.0062553585,0.03590162,-0.29832536,0.27824274,-0.29130042,-0.0014347732,-0.08304864,-0.10315369
IND125104AAA,-0.18333958,-0.023634166,-0.19604418,0.059134714,-0.19801323,0.1901496,0.010203887,0.030468665,-0.27740297,0.10960314,-0.0008446723,0.02380655,-0.024501033,0.14702697,0.006141357,-0.35020873,-0.18520951,0.0028681085,0.12318481,0.02992475,0.011208713,0.04478021,-0.12723634,-0.031138897,0.009741839,0.12374818,-0.062174913,0.4051361,-0.3051359,-0.2214363,-0.31162283,0.006503597
IND125121AAA,-0.16836074,0.08837929,-0.2730526,0.0706209,-0.148338,0.15546218,0.0046517774,-0.16638131,-0.23728907,0.1708636,-0.09081672,0.035122633,-0.011721857,0.25498676,-0.16261482,-0.3634735,-0.16540706,-0.11906682,0.14651184,0.03541898,0.10026941,-0.0017397348,-0.27704108,0.10198681,0.05820483,0.20211191,-0.09082772,0.27327177,-0.3646273,-0.18626025,-0.25879407,-0.15436175
IND131301AAA,-0.30133778,-0.18504578,-0.18450338,0.14932679,-0.35525042,0.21595675,-0.017888248,-0.19010073,-0.28795505,0.23968242,0.03632684,0.0008917935,-0.118176736,0.28326482,-0.038636096,-0.3630339,-0.11108367,-0.0914762,0.16501689,0.08496692,0.10179761,0.2112702,-0.31355456,-0.038418084,0.087193035,0.07430346,-0.19151479,0.36782557,-0.38307476,-0.06314891,-0.34648585,-0.11558239
IND126112AAA,0.117256716,-0.12966871,0.10756293,-0.050118648,-0.055015326,0.12002048,0.12325596,-0.011761881,0.0132864565,0.15265226,-0.023649428,-0.0033253878,-0.19666195,0.10969088,-0.08759341,-0.33531025,-0.062323432,0.25121692,0.032293774,-0.2918307,-0.094775,-0.016156478,-0.08354561,0.2033318,-0.034603562,0.25328034,-0.027141206,0.16923082,0.01843904,0.17764002,-0.18754357,0.06582859
IND127201AAA,0.7889893,-1.0536444,-2.4561555,1.4302007,1.8008456,0.74936795,-0.10175201,-0.4431552,-1.4286252,-1.5780464,-1.3268344,-0.99955773,-0.119634494,-0.73494947,1.6932222,-0.16961074,-2.1939983,-1.4228687,-1.1452435,0.056037128,-1.2431002,-0.5589761,1.1860164,-0.6498816,0.14907102,1.7312621,-0.43508434,-0.9276072,-0.34596914,-0.053168908,-0.029518604,0.3125782
IND131021AAA,0.22642903,-0.47600135,0.35169938,-0.040461615,0.28504252,0.25485963,0.37354133,-0.012743525,0.09752026,0.38377756,0.5642953,0.12077538,0.043432303,0.17690763,-0.21298712,-0.00515344,0.04126849,0.39489782,-0.110573575,-0.02541564,-0.1728813,-0.01348451,-0.031834368,0.27809805,-0.05323216,0.2414775,0.106968634,-0.13383396,0.0058388114,0.24308345,-0.15987125,0.11097279
IND131028AAA,-0.15943955,-0.2273243,-0.056747288,0.28861716,0.32748652,0.25434995,0.15320563,-0.046440586,-0.1923595,0.23980483,1.1450177,-0.08456178,0.013751507,0.3601436,-0.08784819,-0.15372583,0.2080569,-0.34847045,0.056046218,0.47506595,-0.14759827,0.153285,0.06906642,0.128151,0.19748327,0.18016395,0.08514774,0.22367796,-0.18871215,-0.14907995,-0.019285068,0.24777484
IND132103AAA,-0.081487074,-0.9752886,1.0911427,0.641896,1.3912926,0.059469305,0.777651,0.063764706,0.2988162,0.44184843,-0.29548743,-0.16465059,-0.2725713,0.005612761,0.10174367,0.6130194,-0.32756525,-0.93223417,0.49246424,-0.121101566,-0.41290957,0.038304716,0.4705488,-0.07757598,0.73995197,0.66300786,-0.25467995,-1.1354301,0.24460518,-0.23211497,-0.046878204,-0.23967984
IND136118AAA,-0.20593843,-1.6346476,2.2533505,1.4640309,2.8212407,-0.19575915,1.1193184,0.34156683,0.7821008,0.530932,-0.8851585,-0.49756843,-0.14534754,-0.027769685,0.34604895,1.1811416,-0.49808857,-2.080387,1.0497468,-0.6085707,-0.71565425,0.25065184,0.673131,-0.18004012,1.5273647,1.0649266,-0.16983229,-2.1375394,0.53176874,-0.8805691,-0.10909811,-0.68779147
IND201204AAA,-0.099847496,-1.7601154,2.267081,1.4369733,2.64826,-0.09086722,1.1897279,0.32124248,0.85823,0.46030277,-0.930186,-0.2563792,-0.19593087,-0.0856767,0.41957152,1.1590422,-0.5159804,-2.0016732,1.0369494,-0.526669,-0.5961663,0.2108394,0.69133425,-0.20094216,1.5665832,0.9571239,-0.2524398,-2.1458468,0.5646258,-0.8503449,-0.0322849,-0.56132907
IND244001AAA,-0.08413519,-1.7517632,2.2758665,1.4351565,2.6673577,-0.1094752,1.204965,0.32484987,0.86091745,0.46463376,-0.959227,-0.2912448,-0.22538197,-0.08275314,0.43385726,1.1652179,-0.5136603,-2.0136137,1.0199016,-0.5536108,-0.62382644,0.21026309,0.69406354,-0.20079005,1.5282493,0.9586648,-0.20627794,-2.1403966,0.5985603,-0.8457283,-0.024370477,-0.5584426
IND244235AAA,-0.12201592,-1.4785602,2.1880026,1.4046665,2.8192308,-0.22553745,1.111288,0.3581874,0.7488109,0.5354006,-0.7935379,-0.41310316,-0.09075254,0.07557204,0.36245525,1.175823,-0.52826506,-2.1083617,1.02726,-0.4986116,-0.8143022,0.3338188,0.7261741,-0.13824737,1.6836811,1.0421865,-0.19253734,-2.1649225,0.42216247,-0.89857817,-0.15577108,-0.7128227
IND247667AAA,-0.07336056,-1.7673264,2.2617886,1.4443458,2.64834,-0.09618304,1.1680386,0.33576873,0.87349606,0.46443248,-0.954729,-0.23377419,-0.1866535,-0.087045744,0.45178074,1.1463954,-0.5382699,-1.99516,1.0359885,-0.5159639,-0.62590504,0.20499496,0.7077973,-0.18734932,1.557747,0.96064556,-0.2521125,-2.169909,0.585419,-0.8525946,-0.035606205,-0.56455845
IND247667AAB,-0.27140355,-1.6744866,2.2136614,1.5029432,2.7440894,-0.16704924,1.0979277,0.326493,0.7611433,0.49044865,-0.8424891,-0.48026776,-0.12672174,-0.07640557,0.3092317,1.2071126,-0.5027852,-2.0130444,1.039819,-0.60534304,-0.62500757,0.23237103,0.64794195,-0.20667672,1.5385746,1.0630221,-0.27228433,-2.0789428,0.41629142,-0.8810848,-0.13057914,-0.7011307
IND248001AAD,-0.12634307,-0.8483435,1.059506,0.7837641,1.1897051,-0.09103492,0.5922103,0.09558681,0.29192603,0.30304608,-0.40255314,-0.39019674,-0.15184106,0.0221719,0.119960874,0.6375592,-0.30454612,-1.0173554,0.49419063,-0.24283272,-0.34473515,0.1495992,0.372086,-0.14514792,0.7864846,0.64620566,-0.21719176,-0.89530766,0.0040029287,-0.31554556,-0.16365296,-0.3810375
IND249407AAA,0.20503727,-0.39817518,0.1771946,0.4375874,1.100091,0.14025074,0.45323637,-0.03759317,-0.053028226,-0.09509138,-0.3500762,-0.76498806,-0.24684282,-0.121771395,0.2456458,0.5064482,-0.41423342,-0.8080026,0.07306206,-0.3302017,-0.45645496,-0.17669834,0.55605245,-0.24518466,0.26583296,0.76567674,0.0752323,-0.64587116,0.19262847,-0.08440235,0.07789451,-0.12662622
IND250002AAA,0.15437523,-0.64861405,0.14226702,0.6637602,1.1065385,0.22525312,0.40723073,-0.08671607,-0.120667785,-0.20149615,-0.3917011,-0.62319374,-0.21548155,-0.25828746,0.33048195,0.5414271,-0.6438379,-0.78544986,0.12058343,-0.1513362,-0.39624512,-0.21335788,0.47631904,-0.23292875,0.4341374,0.87874174,-0.29363057,-0.86019385,-0.047603518,-0.12810285,0.057010338,-0.19494236
IND250609AAA,-0.32671514,-1.7149649,2.1779044,1.5591321,2.6997,-0.15776095,1.0563071,0.34176645,0.7729112,0.47000968,-0.79713273,-0.40396088,-0.06563133,-0.071673185,0.3271706,1.2145588,-0.5127193,-1.9916345,1.0390784,-0.55978847,-0.57572335,0.24582848,0.6700958,-0.18514633,1.588072,1.0486481,-0.32915,-2.06743,0.34898502,-0.9052211,-0.13828963,-0.71335876
IND250611AAA,-0.34928834,-1.7179261,2.1961577,1.5650678,2.7337303,-0.18816781,1.0692052,0.3371161,0.81174386,0.4832545,-0.82991695,-0.40593326,-0.060682654,-0.03872323,0.3718043,1.1962793,-0.5025495,-2.030937,1.059488,-0.5633606,-0.5909073,0.25617337,0.6961628,-0.17311203,1.5665984,1.0452285,-0.2478511,-2.0749002,0.43424493,-0.9241612,-0.10490359,-0.7188654
IND251001AAA,-0.2661455,-1.6786401,2.2362509,1.5056937,2.7829247,-0.19816753,1.0987105,0.32724962,0.8017677,0.5128229,-0.8901924,-0.47809547,-0.12832803,-0.04512468,0.36679953,1.1844884,-0.50248003,-2.047411,1.053402,-0.60783374,-0.66499513,0.23434727,0.6780838,-0.18726361,1.5040199,1.0662932,-0.19036251,-2.0996003,0.5158984,-0.89396703,-0.1017409,-0.69791734
IND132001AAA,0.06713277,-0.08805464,-0.6313268,0.3027574,0.23670849,0.38215774,0.025372766,-0.33698073,-0.12462062,-0.32364282,-0.41240144,-0.45371228,0.010786705,-0.16006656,0.495583,-0.12009163,-0.46952105,-0.022838734,-0.12620935,0.014267293,-0.17110747,-0.12525308,0.20258124,-0.21932139,0.100654066,0.41783875,-0.06521212,-0.3353852,0.10813628,0.07537799,0.14392994,-0.16789997
IND132103AAB,-0.11675984,0.050870925,0.28646147,-0.12740359,0.09621802,0.21485958,0.36481544,-0.19541039,-0.06840171,0.6354202,0.02267906,-0.23761229,-0.34323132,0.20772001,-0.16868226,-0.21164402,-0.27348876,0.20737481,-0.14295006,0.03263858,-0.32396686,0.08570871,-0.04445064,0.15013593,0.073652565,0.15309003,-0.072881624,-0.2759354,0.06088659,0.19253862,-0.2811982,-0.15857406
IND133004AAA,-0.11755906,-0.1316401,0.008029869,0.05852676,-0.14293134,0.1083114,0.10825853,-0.011829473,-7.748604e-05,0.015393697,-0.0014449544,-0.027077876,-0.08850715,0.15097457,-0.0033670883,-0.22426385,-0.061145574,0.17783496,0.08202899,-0.14041516,0.0016299635,0.017195318,-0.106441766,0.07840397,0.030739257,0.14916396,-0.11858046,0.31391034,-0.1738799,0.05997099,-0.13858843,-0.05589574
IND135001AAA,-0.06096083,-1.1037719,1.3923087,1.1491373,1.3557721,-0.18170549,1.1217662,-0.053124547,0.879664,0.55595225,-0.37274972,-0.63504505,-0.3541725,0.45434767,0.21452838,0.5904587,-0.24680811,-1.8919868,0.72743374,-0.18911304,-0.47134072,0.22233456,0.51076245,-0.34194005,1.1084071,0.5129483,-0.2168104,-1.6652738,0.5482022,-0.66225445,-0.13361293,-0.2949318
IND134102AAA,-0.166622,-0.3204385,-0.33295596,0.35109463,0.3223991,0.3101431,-0.01058287,-0.17091787,-0.571572,-0.1449651,0.010116376,-0.27377015,-0.13202459,-0.16346036,0.16683099,0.08948249,-0.69403964,-0.14558586,-0.0024234932,-0.022261374,-0.14160934,-0.15899444,0.24261737,5.2124262e-05,-0.041768923,0.8237064,-0.18942273,0.06938763,-0.36412877,-0.036112413,-0.1973622,-0.054401163
IND174103AAA,-0.124960616,-0.71754,0.8979142,0.7581608,0.83963364,-0.06984994,0.8451494,-0.018991232,0.574813,0.4029029,-0.13290566,-0.6408463,-0.3432786,0.34657305,0.0015546083,0.46144694,-0.09233442,-1.3620939,0.49980277,-0.23521309,-0.32284644,0.2106089,0.40010676,-0.41819137,0.7694731,0.35688215,-0.09925306,-0.94897634,0.25050282,-0.38223216,-0.1208816,-0.16381183
IND134109AAA,0.04088085,-0.10579903,0.08029271,-0.037110217,-0.11328087,0.12561774,0.10347322,-0.044529997,0.00030724704,0.12882853,-0.049436,-0.0056298748,-0.1904482,0.12895589,-0.07947853,-0.3443399,-0.06021092,0.24952134,0.03547243,-0.2500382,-0.051474474,-0.0036276076,-0.11015317,0.15362918,-0.008868013,0.23769236,-0.07597378,0.23007187,-0.006907478,0.12070201,-0.19527343,0.023332324
IND134203AAA,-0.055576175,-2.4975498,3.0237985,2.3165681,2.975338,-0.2747623,2.0587692,0.0900138,2.066995,1.2236317,-0.8995313,-0.9762509,-0.61031985,0.76654506,0.49636143,0.95504,-0.22601622,-3.7879353,1.6506606,-0.6021944,-1.0698332,0.49566242,1.0497366,-0.6975739,2.272777,0.74077415,-0.24947906,-3.9270926,1.7614477,-1.4623642,-0.19497919,-0.47557512
IND140501AAA,0.8473529,-0.8501781,-1.4979216,0.72213256,1.4313734,1.0140448,-0.17343807,-0.6539238,-1.5097169,-1.1445026,-0.86932266,-1.4655433,-0.8640406,-1.0557673,1.0473368,-0.3169247,-1.9675878,-0.19875608,-0.34046087,-0.060084466,-1.1976887,-1.0751619,0.82497704,-0.53592646,-0.23793018,2.0320938,-0.3181548,-1.7052,0.14489111,0.29825953,0.04594542,-0.029379196
IND173025AAA,-0.040988892,0.11132461,-0.6648462,0.4445678,0.33296004,0.7657725,-0.15223794,-0.015065819,-0.5464645,-0.65441924,-0.5684712,-1.1151717,-0.24038924,-0.21273017,0.6818297,0.13009176,-1.2304618,-0.35001975,-0.16872719,0.17148758,-0.4268711,-0.2000903,0.17816186,-0.55757433,0.32197496,0.5918498,-0.3101654,-0.19031927,-0.42780864,-0.15278625,0.060423795,-0.115731835
IND136027AAA,-0.01994194,-0.18382934,0.04440599,0.092809945,-0.034874633,0.021028617,0.123089015,-0.074423626,-0.1905719,0.23693696,0.15623914,-0.04026702,-0.18711324,0.08512851,-0.011491757,-0.21308178,-0.026565343,-0.016153071,0.03702676,0.033303097,0.00077424943,0.07689332,-0.02923825,0.081055835,-0.0015961844,0.22806458,-0.050888125,0.12396596,-0.24088651,0.0336517,-0.25613362,-0.008916775
IND132039AAA,-0.19671685,-0.15158395,-0.10547311,0.14219876,-0.08838643,0.0046760496,0.11752638,-0.0075738104,-0.14097431,0.14904587,0.16512275,-0.08529544,-0.06307712,0.14623213,0.11932079,-0.15482655,0.033478864,-0.118122496,0.08876509,0.09174493,0.14269693,0.12104225,-0.030335922,0.033573512,0.06554735,0.111665726,-0.124870956,0.3033292,-0.4021064,-0.084431514,-0.18754444,-0.046057113
IND136128AAA,0.37325507,-0.712272,-1.3250958,0.5568774,1.0397048,0.6731448,-0.121582955,-0.32765093,-1.0034685,-0.76268226,-0.4770101,-0.93385816,-0.43862024,-0.4638125,0.79152536,-0.2518201,-1.450265,-0.3760987,-0.41885227,-0.028831929,-0.59798837,-0.70683765,0.68304276,-0.31625375,-0.029279836,1.3597596,-0.34195423,-0.787719,-0.002716422,0.12509751,-0.04389453,0.1628269
IND140001AAA,0.52146626,-1.160041,-1.494837,0.89651835,1.6087432,0.92354214,-0.16202986,-0.5766935,-1.5600092,-1.225798,-0.60087514,-1.4669995,-0.83212423,-1.1037064,1.0078582,-0.013953883,-2.0796738,-0.33368188,-0.2225118,0.02311144,-1.0431954,-1.1470261,1.1338767,-0.45535076,-0.21289212,2.348866,-0.41461533,-1.4547944,-0.07107276,0.36128476,0.036046848,0.0150700305
IND140118AAA,-0.23788503,-0.018327758,0.1324016,0.0036830865,-0.11824036,0.15619127,-0.048108324,0.07974052,-0.3230434,0.17179814,-0.029168613,-0.055949666,-0.13004045,0.17053756,-0.005840975,-0.33891082,-0.21196856,-0.097984925,-0.030234098,0.056712218,0.08737689,0.10573696,0.06725759,0.016198792,0.18262863,0.28793663,-0.1062354,0.30168208,-0.30736604,-0.13320269,-0.3471735,-0.0016412805
IND140301AAA,-0.093752354,-2.4411912,3.0760672,2.336484,3.102659,-0.3486831,2.086518,0.1050635,2.104815,1.2517691,-0.9461454,-1.115778,-0.65079063,0.8306538,0.51831204,0.9733629,-0.17282349,-3.8820457,1.6444892,-0.6904676,-1.1095697,0.49141902,1.0648881,-0.67872536,2.165287,0.7600607,-0.094475985,-3.9169707,1.8764627,-1.4747669,-0.1676665,-0.50034565
IND140901AAA,0.33049873,-1.6676515,0.74897355,1.4698355,2.3470623,0.29231253,1.1082654,-0.32465503,0.21597886,-0.059264824,-0.8356896,-1.4467092,-0.79812896,-0.17450875,0.72680616,0.593472,-1.1060638,-2.1611648,0.6568416,-0.29718673,-1.0972437,-0.33929917,1.0696344,-0.6788385,0.95976406,1.5421796,-0.19511628,-2.6797428,0.9518416,-0.49077752,0.07823621,-0.18946153
IND140401AAA,-0.033993125,-0.20783141,-0.40199003,0.20732468,0.05457379,0.39571625,-0.07655102,-0.21881297,-0.27867433,-0.23171623,-0.14008856,-0.37238324,-0.121625915,-0.08576794,0.15948974,-0.021180358,-0.2488657,-0.0383655,0.06284826,-0.0020833313,0.07856366,-0.085788056,0.28048986,-0.30497557,-0.048479516,0.4014359,-0.15531535,-0.10079172,-0.14305842,0.049344495,0.0011626408,-0.283063
IND160055AAA,0.15878893,-1.424733,1.1876587,1.3214705,1.8619016,0.11475645,1.1362579,-0.080931604,0.59328043,0.36899567,-0.63286877,-1.017405,-0.59783036,0.057026148,0.41382986,0.61191344,-0.57142705,-2.00453,0.7394522,-0.35754782,-0.8311358,0.022819653,0.81749684,-0.61008865,1.1028011,0.9803796,-0.20437229,-2.2043319,0.83622867,-0.61500233,-0.023501694,-0.21405974
IND141003AAB,-0.10095774,0.14076543,0.42750874,-0.22531465,-0.002638895,0.22400904,0.09264303,0.36388764,-0.036022484,0.16694678,0.07665397,-0.3984839,-0.2298797,0.31311348,0.090731874,-0.1784059,-0.19882491,0.32746455,-0.26334,0.0008508563,-0.24382459,0.21896744,-0.30227253,0.00863675,0.10658032,0.086380616,0.26089093,0.099488884,0.012617417,0.111397415,-0.19520193,0.04177727
IND142026AAA,-0.39753738,0.13004921,0.12046174,0.12572,-0.30075258,0.17568229,0.16530749,-0.31586298,0.31250376,0.39170185,0.22331247,-0.30470198,0.12870179,0.13881446,0.06413978,0.3171147,-0.07424664,-0.0026526288,0.26871425,0.22106302,-0.063906506,0.17616376,0.14187306,-0.1697136,0.32092446,0.061398946,0.109978594,0.015428767,0.0036575533,0.11421497,0.048943594,-0.2983358
IND141010AAA,-0.20099756,-0.108409025,-0.04516894,0.08429752,-0.17320865,0.12809707,0.109693386,-0.0018960536,0.021956772,-0.029683605,-0.0017120466,-0.04137083,-0.03892456,0.18275914,0.03167687,-0.18351889,-0.037257574,0.1288543,0.09773184,-0.08919953,0.06735776,0.02621578,-0.10026703,0.040840976,0.06943981,0.090781525,-0.16069394,0.3655969,-0.23922741,0.005214913,-0.123818114,-0.11091435
IND141109AAA,-0.1965045,0.008317068,0.26233584,-0.09936217,0.2812462,0.2672146,0.4059068,0.15948531,-0.032652363,0.4931047,0.13013127,-0.10243574,-0.29436144,0.16124655,-0.077775955,-0.0823959,-0.14239165,0.04009738,-0.032873128,0.18845269,-0.28765982,0.17826203,0.18009818,0.10353117,0.13016655,0.124875516,-0.17956752,-0.1502103,-0.08813021,0.12264734,-0.20091175,-0.10523744
IND141115AAA,0.07049761,-0.18678392,-0.17319715,0.18347844,0.08026111,0.2552368,0.0058778077,-0.14701495,-0.34629306,-0.044459425,-0.1415744,-0.233918,-0.13457258,-0.06511238,0.07820821,-0.04885643,-0.38365233,-0.031281255,0.10556055,-0.022332352,-0.13851082,-0.07615859,0.14961022,-0.015853006,0.009025082,0.41460413,-0.09167736,-0.013545424,-0.23215626,-0.008987967,-0.18235138,-0.25596988
IND151001AAA,0.10559517,-0.4714908,0.48244017,0.61179596,0.97060996,0.11256285,0.69310427,-0.09266772,0.05356452,0.2269416,-0.24618928,-0.91595435,-0.57010686,0.067588925,0.057928234,0.46956685,-0.29740843,-0.9555731,0.35061467,-0.22590156,-0.50497776,-0.06287415,0.5827512,-0.3874997,0.301403,0.71636516,-0.0153796375,-0.91577494,0.29181352,-0.12931453,0.091657564,-0.1095556
IND144001AAA,0.2655135,-0.17050588,0.07373938,-0.089927286,0.3267961,0.5069597,0.074264444,-0.060059648,-0.13694377,0.09096834,0.11361769,-0.22371891,-0.13130485,-0.048971005,-0.08791405,-0.0021070242,-0.21899414,0.3334091,-0.24805056,-0.0129089095,-0.4544037,-0.02717723,0.0069208667,0.14551571,0.049351454,0.45854348,-0.002805546,-0.65849614,0.044827357,0.23813072,-0.17169285,-0.016248643
IND144040AAA,-0.08354107,0.08672414,-0.14647874,0.11970046,0.10482807,0.3884198,0.061743774,-0.039698597,0.022026457,0.16066429,0.07931797,-0.24908748,0.023080036,0.1893816,-0.009654025,0.1013858,-0.12670347,-0.00939944,0.09622601,0.2216343,-0.11510241,-0.004530862,-0.010071982,-0.12900086,0.17935967,0.105190724,-0.1482798,-0.19367296,-0.119703606,0.05897128,0.054131493,-0.23063047
IND144401AAB,-0.06415115,-0.42545378,0.00026697665,0.57158375,0.5460644,0.23973739,0.18318993,0.37574524,-0.22467726,0.17059007,-0.30195764,-0.27135772,-0.28990036,-0.2821645,0.27501142,0.07464774,-0.47806633,-0.27555025,0.16408727,-0.3498921,-0.0082240105,-0.13150266,0.3233902,-0.100963354,0.055883028,0.78339136,-0.22385839,-0.46671152,0.16923368,-0.24702714,-0.15818387,-0.13188906
IND144601AAA,-0.13593437,-0.4245082,0.053561665,0.528717,0.42097262,0.25347722,0.16490704,0.29808575,-0.25187856,0.15203455,-0.2365461,-0.15187952,-0.19720873,-0.30967987,0.2598546,0.060422063,-0.44408593,-0.2846821,0.22230543,-0.1985984,0.044946775,-0.086090505,0.25457072,-0.14206707,0.15377615,0.7694477,-0.20776126,-0.61299706,0.18522361,-0.2893473,-0.07513882,-0.04024357
IND144001AAC,-0.04279963,0.16140452,0.3870021,-0.2603844,0.03662259,0.16639632,0.10177135,0.367264,-0.059841175,0.23449525,0.03304994,-0.39581466,-0.3169144,0.26426008,0.09829521,-0.24150333,-0.18176293,0.36304468,-0.2573769,-0.08206622,-0.2635424,0.17302713,-0.246806,0.04165899,0.06814766,0.14071724,0.28833306,0.17285138,0.06380232,0.12160356,-0.25234887,0.06917484
IND144527AAA,-0.18911207,-0.1262463,-0.05212126,0.11320746,-0.14121972,0.11899863,0.12456492,0.014776118,0.028407276,-0.025033459,0.041327175,-0.027499683,-0.019168615,0.18894053,0.047741342,-0.1491152,-0.029687025,0.113774925,0.10886383,-0.07374699,0.08008003,0.034732047,-0.083755344,0.054522105,0.07467565,0.06217055,-0.15014876,0.3463776,-0.267803,0.011549169,-0.10163908,-0.12861821
IND145001AAA,-0.4038478,-0.05954499,0.08338879,0.41111326,0.024544943,0.6754074,-0.096286386,0.29789376,0.2916105,0.30092824,0.6974225,-0.1801524,0.43294382,0.3405171,-0.12685794,0.14157026,0.45385128,-0.05685258,0.006318804,0.10716208,0.032932967,0.099053,-0.110435165,-0.06871491,0.15684949,0.38594782,0.0763686,-0.42969072,-0.16168313,0.080807656,0.026888134,-0.22503483
IND176201AAA,-0.34752363,-0.07494302,0.35720178,0.36722156,0.011896107,0.59547365,-0.0968294,0.24608433,0.32805476,0.33575252,0.68435305,-0.23539504,0.34716728,0.3631532,-0.15384452,0.18672518,0.2260243,0.081229225,-0.036441423,0.31817162,-0.21615916,0.15765561,-0.18215364,-0.07233265,0.16638726,0.44466487,-0.046248555,-0.6975859,-0.20799346,-0.04713282,-0.027901672,-0.12822428
IND176303AAA,-0.27488536,-0.03464412,0.098035514,0.403132,0.04787104,0.6949805,-0.11393946,0.1831453,0.29072472,0.38512242,0.66567206,-0.109383,0.44828877,0.39382726,-0.22433147,0.21404561,0.34110364,-0.082950175,0.01099617,0.18600716,-0.008063883,0.11220482,-0.069204,-0.032494746,0.16731723,0.43798476,-0.0824265,-0.41040725,-0.18520415,0.06631227,0.08647512,-0.19018576
IND147001AAB,-0.20592576,-1.1125445,1.4508106,1.2022208,1.4375772,-0.24545525,1.1861589,-0.07885724,0.8844249,0.547797,-0.32159054,-0.73636264,-0.34034857,0.5140046,0.19586849,0.63184196,-0.20369595,-1.9581552,0.7488922,-0.23383531,-0.47199377,0.27313286,0.5531711,-0.3465587,1.0895885,0.57072175,-0.069095075,-1.5947132,0.60020375,-0.6821712,-0.108739674,-0.3309298
IND147201AAA,0.20733848,-0.5325453,-0.7006796,0.30165806,0.8233811,0.50675553,-0.08229181,-0.17428163,-0.8670153,-0.4320456,-0.16437875,-0.6600548,-0.3801481,-0.44306144,0.31867832,0.014900781,-1.0339538,-0.19298127,-0.23106772,-0.17984065,-0.611119,-0.31745127,0.50496686,-0.31406927,0.021903347,1.2733747,-0.26414496,-0.42973602,-0.2130919,0.09258487,-0.1533412,0.14148818
IND147001AAD,-0.28030983,-1.1351514,1.4228177,1.2107657,1.410392,-0.25951114,1.2033792,-0.112018645,0.90301025,0.54903656,-0.29861626,-0.6712953,-0.30515072,0.53681326,0.21377277,0.61918575,-0.16705048,-1.977838,0.78878343,-0.2081469,-0.4196259,0.28413373,0.57618153,-0.3644156,1.127162,0.5396097,-0.03649676,-1.5753491,0.62204134,-0.7224096,-0.09392467,-0.32937133
IND148023AAA,-0.046558425,-0.37286586,-0.41886133,0.21071306,0.35273886,0.34984645,-0.009975562,-0.12979546,-0.5083982,-0.16548936,0.0172595,-0.32773075,-0.22954258,-0.119291514,0.11604811,-0.037415124,-0.4852744,-0.10801685,-0.11008762,-0.08402156,-0.24929076,-0.08919248,0.2447582,-0.29092202,-0.013919428,0.75732905,-0.22136194,-0.095357955,-0.19332373,0.044950783,-0.12153053,0.07640061
IND147101AAA,0.11282636,-1.4773707,1.0995421,1.3798316,1.8185837,0.17486095,1.0267515,-0.120702624,0.65252644,0.32769853,-0.59094286,-0.9033868,-0.51916707,0.08622967,0.41865715,0.56160146,-0.5663134,-1.9403245,0.7921078,-0.24811427,-0.76637006,-0.047424696,0.81498516,-0.534417,1.0995976,0.98880327,-0.30358338,-2.2928193,0.82925355,-0.6089355,0.0055822134,-0.23135754
IND147105AAA,0.113928705,-1.4859087,1.0984354,1.3745047,1.8226483,0.17548913,1.030092,-0.12527019,0.6438041,0.33083814,-0.58437365,-0.9029562,-0.52499074,0.08351323,0.41086146,0.5646418,-0.56456316,-1.938545,0.7903403,-0.25417244,-0.7716138,-0.05093576,0.81367147,-0.53936905,1.1001949,0.9867518,-0.30506015,-2.2959137,0.8247229,-0.6068381,0.0040519536,-0.22398949
IND148001AAA,0.027906876,-0.33122808,-0.010808278,-0.12316226,0.015656304,0.16010666,0.21349488,-0.21233708,-0.1943497,0.2651283,0.2558478,0.2480021,-0.17766216,0.13045184,-0.29704496,-0.25014222,0.01550404,0.18178552,-0.025010774,-0.3214471,-0.21361971,0.13661122,-0.13222389,0.13730094,-0.06982747,0.35007262,-0.08165937,0.1699821,-0.1590866,0.27367115,-0.32340026,0.27521598
IND148024AAB,0.0347744,-0.34294847,0.004606244,-0.12200357,0.01698983,0.16587865,0.22350752,-0.22838694,-0.18965459,0.2707516,0.27311456,0.2668821,-0.18534519,0.13109012,-0.31265134,-0.22693363,0.033517193,0.19889292,-0.035236456,-0.31995738,-0.20179838,0.13773528,-0.11768867,0.13241355,-0.06748626,0.3724174,-0.09790863,0.16730803,-0.1568739,0.27851152,-0.31780857,0.2920289
IND148028AAA,-0.17535558,-0.10282748,-0.009989317,0.07161442,-0.09727148,0.07013657,0.08053219,0.007613629,0.006566085,0.041273296,0.02372301,-0.03358834,-0.07852422,0.15606195,0.029748883,-0.22003838,-0.040597867,0.14794005,0.07858015,-0.102123916,0.035802245,0.03437137,-0.08156769,0.074141495,-0.011198845,0.13263224,-0.05165284,0.29377854,-0.12265343,0.018377269,-0.08528569,-0.07544458
IND148101AAA,-0.0034982003,-0.14625727,0.16425747,0.12603667,0.33176914,0.18871062,0.29670644,0.19977847,-0.2658434,-0.019126981,-0.1262394,-0.35069287,-0.2429288,-0.1545972,-0.030531468,0.17677772,-0.38918644,-0.0600669,0.0010591671,-0.09809723,-0.1666169,-0.058701716,0.1567703,-0.2728199,0.26190042,0.5895375,-0.11703356,-0.10875167,-0.120209366,0.12983748,-0.048985165,0.0373278
IND148102AAA,0.04824449,0.090834364,-0.07775332,0.09065917,-0.18410721,0.41766557,0.13311642,-0.049007952,0.089885466,0.11015705,-0.019048989,-0.17929547,-0.038721994,0.035860315,0.07258701,-0.021888506,-0.023121387,0.14187527,-0.06677326,0.0015147552,-0.050225824,0.07736372,0.1378309,-0.30657393,0.1902371,-0.13543816,-0.10492374,-0.07747508,-0.182605,-0.09199388,-0.11953497,-0.17306408
IND151103AAA,-0.13666216,-0.28403285,0.10531606,0.34658486,0.2946672,0.095054515,0.25986862,0.14285222,-0.23482937,-0.06488054,-0.09566834,-0.29842153,-0.2306,-0.19178687,-0.03239093,0.1788484,-0.41061556,0.014483001,0.05640501,-0.20333797,-0.13270845,-0.08748048,0.19079123,-0.21538164,0.20150837,0.65036905,-0.18685658,0.048054762,-0.21212949,0.09954645,-0.115460895,-0.02493735
IND151302AAA,-0.15210757,-0.22356126,0.09812486,0.3229909,0.38312352,0.057064936,0.2747115,0.1702657,-0.29244095,-0.0072868913,-0.14122277,-0.3989062,-0.28812385,-0.1789504,-0.014889139,0.18924716,-0.41870117,-0.06774099,0.04327209,-0.1869982,-0.16911209,-0.09861493,0.19902407,-0.26894355,0.1421956,0.65788627,-0.12032583,-0.013678363,-0.1761799,0.06638022,-0.036045697,-0.01054365
IND151505AAA,-0.14563741,-0.063992016,-0.14701205,0.06688758,-0.0714912,0.22335923,0.025905859,0.008332128,-0.3139245,0.047439754,0.045029625,-0.060791824,-0.048953753,0.023950562,0.06782921,-0.2410419,-0.23889434,0.031098433,0.014246322,-0.0357007,-0.06647101,0.039916705,0.07056911,-0.116652265,0.024291,0.2233053,-0.090277664,0.36215198,-0.33971906,-0.16094662,-0.28340155,0.013691761
IND151506AAA,-0.11966626,-0.10668829,-0.070589766,0.0955634,-0.22379294,0.23541252,0.059669685,-0.13439634,-0.2495682,0.27862498,-0.027879093,-0.019567445,-0.1520844,0.1411157,-0.07210797,-0.3739267,-0.095028654,-0.024141986,0.123226285,0.014336435,0.010580558,0.15694332,-0.22435477,0.0032978533,0.027485628,0.12877795,-0.055885416,0.20424718,-0.32294023,-0.03207667,-0.27047372,-0.09320223
IND152024AAA,-0.26257178,-0.31252497,-0.043013375,0.35370156,0.14977653,0.16891338,0.08572278,0.07999365,-0.24587047,-0.069354765,0.014987266,-0.21162531,-0.10937695,-0.12219229,-0.0012662187,0.23717363,-0.39715064,0.089878745,0.26551974,-0.09195149,-0.025118694,-0.027657688,0.4055618,-0.052432477,0.21360295,0.58396286,-0.29692772,0.17312466,-0.39232278,-0.014728384,-0.19683766,-0.31808168
IND152123AAA,-0.12717028,-0.24428737,-0.117953666,-0.038874544,0.06389241,0.3220985,0.011767335,-0.2526428,-0.27962652,0.031404555,0.25137043,0.304996,0.08924009,0.23346035,-0.12528919,-0.13643335,-0.19623914,-0.02274625,-0.06909799,-0.0046117017,-0.024169035,0.13608548,-0.029976368,0.18481609,0.03997799,0.23473424,-0.19839376,0.34141716,-0.31248045,-0.05414474,-0.3040841,0.14491586
IND140603AAA,-0.18766081,-2.442143,3.0057664,2.364071,3.043978,-0.3281138,2.0496655,0.10150713,1.9929291,1.2046757,-0.8266973,-1.1805059,-0.6531953,0.7891481,0.40146166,1.0355197,-0.17919403,-3.8011088,1.5819478,-0.7169741,-1.0337696,0.492512,0.99202216,-0.71215534,2.1934268,0.76908445,-0.23353899,-3.7998693,1.6346397,-1.4531296,-0.24503493,-0.5414064
IND160003AAA,-0.37042913,-2.4994442,2.963446,2.4741995,2.975824,-0.3609086,2.0209231,0.081683695,2.0607092,1.1712608,-0.7594467,-1.086319,-0.5131486,0.81305194,0.45613557,1.0391526,-0.15217543,-3.804421,1.6384908,-0.65237504,-0.929669,0.5407392,1.047943,-0.69638765,2.2500994,0.7588536,-0.22392553,-3.76336,1.6095793,-1.5332104,-0.22192216,-0.58230245
IND160102AAC,-0.101632744,-2.3899283,3.078792,2.3425848,3.1339178,-0.3328454,2.1042833,0.11422342,2.0576751,1.233446,-0.91762155,-1.2241967,-0.6762466,0.8164855,0.4314378,1.0250163,-0.15286762,-3.8996916,1.6292951,-0.74277735,-1.0904723,0.4857695,1.0362916,-0.7079972,2.161768,0.78165036,-0.12997186,-3.891293,1.8072345,-1.4566994,-0.19129178,-0.52220666
IND173212AAA,-0.2850632,-1.2270997,1.4278452,1.2339486,1.4118202,-0.20996247,1.1380743,-0.030666739,1.0059311,0.6260238,-0.35035992,-0.73244953,-0.35078162,0.49358833,0.21333992,0.57548404,-0.07827744,-2.0032995,0.831419,-0.36677268,-0.46454126,0.31079853,0.5870233,-0.46644288,1.0776143,0.4657268,0.0057404637,-1.6051341,0.75864416,-0.7241138,-0.08048093,-0.26885405
IND174001AAA,0.010163531,-1.0867939,1.5190437,1.0956612,1.5027412,-0.19014665,1.2475865,-0.0957959,0.9224137,0.60471284,-0.34787118,-0.7828711,-0.47923186,0.45164314,0.13861856,0.5641967,-0.05918753,-1.9836259,0.72004,-0.3390302,-0.553698,0.28925246,0.4897452,-0.3927486,1.1073892,0.5372107,-0.035492003,-1.7623022,0.68818474,-0.59148324,-0.15325208,-0.32396954
IND174307AAA,-0.053546637,-2.469863,3.036213,2.2932386,3.0138547,-0.28550005,2.0851412,0.073518634,2.0365732,1.2273304,-0.9279157,-1.0548075,-0.66487217,0.7740658,0.4664684,0.96656275,-0.22789419,-3.813445,1.6374471,-0.64470726,-1.0853786,0.5040077,1.0347575,-0.7255652,2.2568548,0.7472721,-0.21364981,-3.8939507,1.7737632,-1.4492329,-0.17570236,-0.4889489
IND176041AAA,0.40269524,-1.7174151,0.6249962,1.4785705,2.1913874,0.40585917,0.94030356,-0.2351017,0.18193495,-0.055019736,-0.77609396,-1.3315494,-0.7648681,-0.27796257,0.66424084,0.5459069,-1.1275916,-2.0050292,0.6104012,-0.29211247,-1.0608627,-0.36447254,1.0218021,-0.6875752,0.9761772,1.4796826,-0.46969596,-2.743535,0.7514981,-0.46196905,-0.003619209,-0.20715109
IND181152AAA,0.071129486,-1.0412817,0.73705876,0.86037207,1.1685319,0.15928274,0.83118474,-0.097254395,0.33436918,0.30315268,-0.3127831,-0.71730685,-0.5023402,0.046454236,0.14068791,0.48263076,-0.44337785,-1.2707627,0.5241425,-0.19697456,-0.64975417,-0.034400497,0.5972876,-0.48581973,0.70770246,0.8034984,-0.31968793,-1.5260439,0.40572757,-0.2951424,-0.059442624,-0.10218793
IND184104AAA,-0.28158692,-1.3462331,1.4848316,1.1633077,1.4401158,-0.13474879,1.2492673,-0.11154778,1.0826602,0.7816179,-0.40118235,-0.62871265,-0.41177177,0.47859472,0.18517482,0.5159432,-0.060989767,-1.9552653,0.9018217,-0.32434624,-0.56011134,0.287309,0.64399314,-0.54478204,1.0806634,0.50706035,-0.042346418,-1.9157786,0.9289533,-0.7015569,-0.0028845668,-0.2199681
IND160102AAD,-0.14727992,-0.07751311,0.020559687,0.013225984,-0.115456894,0.106008336,0.04102823,-0.0022452176,-0.011188053,0.08094847,-0.029217135,-0.058923386,-0.12633297,0.16046992,-0.0072930153,-0.28132987,-0.06314345,0.18679889,0.034862064,-0.1387307,0.020737693,0.03201948,-0.09140928,0.086752184,-0.0155844055,0.20468,-0.09208271,0.28889123,-0.06652845,0.020219557,-0.13631755,-0.028333906
IND160002AAD,-0.25204363,-0.061289772,0.09136626,0.23725049,-0.21073508,0.14478433,0.1377233,-0.29570547,-0.3919009,0.17942202,0.16463843,0.19264162,0.039065376,0.21444003,-0.07254363,-0.19686787,-0.22470829,0.043319933,0.15104766,0.07507767,0.24252559,0.054840975,-0.17457017,0.337332,0.047894266,0.36769456,-0.13341919,0.53035784,-0.4827735,-0.09576222,-0.3808367,-0.17658822
IND173220AAA,-0.1671507,-0.53292423,-0.8534692,0.53893924,0.6804048,0.40482742,-0.14245482,-0.15577102,-0.8310734,-0.51412237,-0.20789088,-0.6727097,-0.34359887,-0.43364173,0.48751494,0.082216606,-1.1039691,-0.29622644,-0.105275504,-0.13003239,-0.3619836,-0.36719483,0.5003492,-0.33003357,-0.103159785,1.2263242,-0.3429472,-0.33941942,-0.27083734,-0.07301133,-0.063790984,-0.0072040707
IND175018AAA,0.025090456,-0.5506374,-0.8696613,0.4439149,0.79356456,0.40658548,-0.045579124,-0.06949966,-0.7724776,-0.42680728,-0.30097443,-0.819287,-0.48228076,-0.32465702,0.522483,-0.09156283,-1.0391518,-0.24252132,-0.13537751,-0.11317017,-0.3354286,-0.39501995,0.5012991,-0.4274176,-0.10763781,1.0494156,-0.38084456,-0.31689152,-0.31528163,0.003526453,-0.09786188,0.043914445
IND174021AAA,-0.10620555,-0.16904488,-0.027579086,0.12728986,-0.074928954,0.110822216,0.14746201,0.029562794,0.038583614,0.019085377,0.09624312,0.0021905825,-0.012095101,0.15634917,0.041464154,-0.13167669,-0.032550357,0.12786396,0.107988104,-0.091980726,0.050662085,0.031217465,-0.05788187,0.09485602,0.057100445,0.05887978,-0.09371308,0.28085545,-0.23215443,0.055161253,-0.089131564,-0.117899686
IND176048AAA,-0.24115524,-0.06459433,-0.1669171,0.19394588,-0.105600275,0.14746669,-0.032274775,-0.1831173,-0.29828465,-0.014496531,0.13655871,0.100671284,0.14029768,0.2713166,0.044457138,-0.16521126,-0.29206783,-0.13843173,0.12807575,0.27315354,0.18510774,0.03266154,-0.11174886,0.12568104,0.11330458,0.23870464,-0.14336814,0.5069659,-0.40964943,-0.30707163,-0.26750463,-0.11009643
IND174101AAB,-0.17104805,-0.09715395,0.0033821645,0.06345703,-0.10617805,0.07743215,0.07173133,0.0012988597,-0.0012454093,0.04635255,0.007868569,-0.036217485,-0.09217147,0.15166013,0.016394863,-0.23592147,-0.042633165,0.15670352,0.06692166,-0.11689773,0.028422117,0.03170925,-0.0866479,0.0786391,-0.014801245,0.15741143,-0.06350512,0.29136366,-0.11436537,0.017439874,-0.09364219,-0.060201723
IND175001AAA,-0.1187136,0.05110705,-0.26574397,0.17923789,-0.14263946,0.09988222,-0.008990346,-0.07365128,-0.1524894,0.15964836,-0.08221835,-0.15121806,-0.03744124,0.115527466,0.06269632,-0.19780454,-0.09700549,-0.17073587,0.12863286,0.04075459,0.19577926,0.06397776,-0.082564875,0.022228096,0.10115109,0.100855365,-0.1240951,0.22180662,-0.26793587,-0.11323163,-0.22401434,-0.13330393
IND175101AAA,-0.19298375,0.06347631,-0.12599751,0.11025133,-0.28541526,0.16891024,0.050768696,-0.07807941,-0.2553602,0.13091436,-0.06797753,-0.05743282,-0.08224086,0.22976206,0.03499612,-0.28829032,-0.07474699,-0.100421205,0.1421251,0.16992661,0.095325634,0.094479226,-0.21642594,-0.05366763,0.09679833,0.09863304,-0.13518025,0.2882853,-0.3896634,-0.22255349,-0.24558756,-0.15881124
IND175015AAA,-0.23431824,-0.16175571,-0.06031598,0.13185304,-0.29339883,0.11719904,0.09145638,-0.18357383,-0.1266344,0.13509507,0.12337888,-0.0025229882,-0.11135903,0.20014697,0.08015855,-0.3281306,-0.14091545,-0.15960816,0.025059886,0.2019452,-0.000118114054,0.22968,-0.07428347,-0.018870179,0.18685667,0.20075102,0.0010896046,0.3301353,-0.41377008,-0.042184446,-0.33159783,-0.10617774
IND176061AAA,-0.41720983,0.06516099,-0.2052708,0.24620144,-0.33876732,0.16673343,-0.08105645,-0.14512363,-0.3669297,-0.023266748,-0.18092947,0.05162778,0.104352504,0.38730595,0.12715581,-0.33195284,-0.30063012,-0.17760283,0.16502413,0.23341207,0.30989438,0.087190345,-0.31306762,0.10187421,0.17310005,0.15494275,-0.255522,0.67763746,-0.5697543,-0.47696763,-0.3742159,-0.2690487
IND176110AAB,-0.25410974,-0.045686305,-0.16866724,0.1895688,-0.16555676,0.15568459,-0.024207102,-0.18812332,-0.3389765,0.010016646,0.025374224,0.124065265,0.10997673,0.3006119,0.051728148,-0.24303608,-0.3001657,-0.12557903,0.116893835,0.22398482,0.2117499,0.036531944,-0.19293897,0.14900863,0.10733153,0.23544261,-0.1685225,0.53852713,-0.44503912,-0.33161837,-0.33022264,-0.14768201
IND177033AAA,-0.15029287,-0.10756015,-0.030668663,0.09224652,-0.33154732,0.16362783,0.09511352,-0.2353209,-0.24157277,0.24236229,0.06547061,0.06473088,-0.18974556,0.19015487,-0.0039603114,-0.45122397,-0.14423907,-0.07949356,0.054184295,0.17464957,-0.02293852,0.20462449,-0.18396005,-0.0034400113,0.13734534,0.23158109,0.011804791,0.31519663,-0.30272162,-0.070651725,-0.41600192,-0.117680356
IND176215AAA,-0.1889224,-0.11534951,-0.041577578,0.087760955,-0.1627146,0.12339535,0.11348478,0.000523597,0.02067113,-0.024680719,0.008230172,-0.035946537,-0.03924979,0.18177246,0.032426998,-0.1798243,-0.037664473,0.12984723,0.099199,-0.09057436,0.06263381,0.026591312,-0.09720422,0.048104994,0.06582538,0.09001379,-0.15296951,0.35574841,-0.23911276,0.012207946,-0.12099299,-0.10868232
IND176310AAA,-0.2514548,0.021764874,0.2665131,0.36073756,0.06295387,0.60208166,0.013533205,0.3019889,0.38061947,0.39205977,0.8123416,-0.21832907,0.23610279,0.47373122,-0.27066758,0.07174474,0.25939155,0.028570168,-6.0245395e-05,0.20668167,-0.17874168,0.15134476,-0.1747039,-0.118916646,0.12310049,0.39414936,-0.034803122,-0.6216793,-0.22407228,-0.061268315,-0.057418607,-0.081174344
IND177001AAA,-0.1487504,-0.14220811,-0.037656162,0.11317612,-0.11903189,0.11026494,0.12962466,0.019006647,0.029470779,-0.0049142167,0.05119317,-0.018779434,-0.028070942,0.1749522,0.04193074,-0.15278348,-0.037367076,0.12705195,0.10692979,-0.08979514,0.059497148,0.032692112,-0.07704154,0.0734211,0.065340854,0.07102211,-0.12637392,0.3170306,-0.24464373,0.036540322,-0.09777202,-0.115575075
IND177101AAA,-0.08008301,-0.5059234,-0.20750937,0.23411833,0.19445261,0.23266172,-0.055733025,-0.1507266,-0.045398533,0.05934841,0.6251836,0.21626821,0.30701175,0.56610614,-0.12952426,-0.053367123,0.22291155,-0.11576058,-0.2037774,0.18396881,-0.07220766,0.15926571,-0.13767412,0.10955341,0.18456504,0.22389078,-0.088569984,-0.06574406,-0.32825047,-0.14490347,-0.3265642,0.27547985
IND176001AAA,-0.26283374,-0.3877455,-0.14503461,0.22302824,-0.26013267,0.17581546,0.105356716,-0.30642536,0.17304724,0.31562284,0.925766,0.23875539,0.4190091,0.546964,-0.10285723,0.088604316,0.26558495,0.046821386,-0.05840062,0.29062432,-0.22276117,0.37171793,-0.32394585,-0.094117165,0.22899808,0.28473532,0.06913577,0.25769252,-0.5812523,0.01807674,-0.27904892,0.118012816
IND177203AAA,-0.2939007,-0.25306994,-0.078718916,0.25433856,0.0369291,0.25486147,0.32797864,0.06019928,0.16402064,0.19169256,0.48855314,0.15166003,0.2022017,0.2360424,-0.002726175,0.054891117,0.25332248,0.06817113,0.043381717,0.08289079,0.33651698,0.07875089,-0.031220047,0.052499197,0.13834237,-0.011900738,-0.1970397,0.3293053,-0.29484963,-0.04216708,-0.049165156,-0.14322394
IND184121AAA,-0.061340883,-0.09461269,-0.29405415,0.1899059,0.22151586,0.37005472,0.06906365,-0.1889073,-0.43951166,-0.20384356,-0.35600364,-0.5978779,-0.2384201,-0.15926215,0.22149245,-0.0053300415,-0.59342444,-0.12144094,-0.033763066,0.119754605,-0.34221107,-0.16431691,0.17797998,-0.4047712,0.02412422,0.60341513,-0.18520789,-0.24545518,-0.15426555,-0.019604132,0.020003315,-0.10067114
IND181152AAB,0.018761978,-0.15737678,-0.33570042,0.14699483,0.3174369,0.33961278,-0.03163626,-0.1478571,-0.50311863,-0.16981903,-0.15917842,-0.45416272,-0.30570114,-0.15842083,0.2035037,-0.15970433,-0.65226305,-0.13967656,-0.13599071,0.07452316,-0.27299652,-0.14098975,0.2304767,-0.18966894,0.00071971864,0.75678456,-0.15816951,-0.18750489,-0.092798606,-0.066649795,-0.07797061,-0.03198592
IND181201AAB,-0.2032241,-0.2888437,0.05807764,-0.052671418,-0.042948954,0.12032446,0.2945307,-0.22404563,-0.032379903,0.30014157,0.16607885,0.016483814,-0.19219291,0.20493281,-0.21084334,-0.05518773,-0.050226014,0.12797494,0.023108343,-0.18193597,-0.16380821,0.12362708,0.012591019,-0.06027642,-0.04303751,0.23364839,-0.09420023,0.21634834,-0.17896165,0.22087649,-0.20133214,0.045323655
IND201001AAA,-0.20246881,-0.61425966,-0.31427494,0.69472003,0.64927536,0.061068542,0.24471532,0.23804422,-0.24889576,-0.12215893,-0.42924213,-0.4874248,-0.1164954,-0.40271342,0.5235606,0.32495147,-0.7330476,-0.51332957,-0.09177146,-0.36876678,-0.20999467,-0.13366209,0.5752636,-0.6409097,0.14577535,0.7735089,-0.31107968,-0.027683053,-0.091936216,-0.1204881,0.04290849,0.05946687
IND201005AAA,-0.23524818,-0.61099344,-0.33420172,0.69956887,0.63999975,0.06608223,0.24118412,0.22441733,-0.25575578,-0.12895781,-0.41856495,-0.49091315,-0.10309525,-0.39575654,0.52128315,0.33066434,-0.7194999,-0.5230486,-0.08744383,-0.35554996,-0.17690375,-0.1250507,0.57394767,-0.6509471,0.15313303,0.7630615,-0.3247195,-0.010920338,-0.11120247,-0.13836157,0.05138796,0.043207884
IND201007AAB,-0.14714038,-0.48632884,-0.067670345,0.49201614,0.70742583,0.10136281,0.17034473,0.39297605,-0.32724893,-0.050597776,-0.43997,-0.5991667,-0.2725538,-0.29938936,0.4549562,0.25700712,-0.87460506,-0.5177494,-0.20975211,-0.32595527,-0.3818789,-0.028021518,0.46089292,-0.65087205,0.19085552,0.88378453,-0.057653174,-0.25056928,0.061362207,0.024851026,0.03729614,0.23393813
IND245304AAA,0.04291894,-0.24098684,-0.18845594,0.34544465,0.560904,0.19096605,0.19145097,0.23910943,-0.1807414,0.07851176,-0.30081064,-0.49289554,-0.21433975,-0.21569279,0.20918559,0.137767,-0.39539647,-0.40524057,-0.009504799,-0.32752028,-0.15748426,-0.09129423,0.3609004,-0.39306054,0.040968247,0.49378616,-0.14938031,-0.12681831,0.06280859,-0.098988056,-0.02075596,0.049837906
IND201304AAA,-0.7818294,0.21548283,-0.09639126,0.57220685,-0.27654332,0.45658284,-0.07160181,0.22200713,0.24038242,-0.1223531,-0.44142175,-0.81188405,0.15063943,0.14311112,0.5946338,0.78213656,-0.7391917,-0.55402166,0.24187005,0.28384078,0.2270478,0.24511401,0.09177154,-0.6920192,0.61052525,-0.18811238,-0.5646864,0.372431,-0.76631486,-0.31369293,0.264306,-0.33747703
IND203205AAA,-0.20904651,-0.54374605,-0.012081962,0.43458992,0.8914237,0.023233585,0.37997746,0.38117886,-0.17271897,0.09218376,-0.32999322,-0.5494774,-0.21253455,-0.18623486,0.3342523,0.29012007,-0.54623055,-0.4620083,-0.098667964,-0.48197377,-0.057759166,-0.18445724,0.40590554,-0.54148537,0.20982437,0.5553897,-0.38809088,-0.057127357,-0.32692093,-0.052659452,-0.03832881,-0.016450971
IND201301AAL,-0.16802077,-0.025856778,0.06455293,0.08291063,-0.21246614,0.1508379,-0.014277026,-0.0661649,-0.39604473,0.14547303,0.09938985,-0.08952594,-0.18804434,0.14094347,0.030162858,-0.39628804,-0.14614195,-0.049800828,0.08663432,0.19805138,0.16080433,0.09271142,-0.09135176,-0.03779464,0.055953626,0.23402452,0.012412909,0.41083434,-0.25095487,-0.109527804,-0.37614352,0.03009423
IND201307AAA,0.032648772,-0.3133991,0.231677,-0.037500642,-0.11103934,0.14360297,0.19139141,-0.2578195,-0.32318363,0.40627542,0.19932693,0.025510307,-0.38250473,0.017105341,-0.34307438,-0.36616462,-0.037646234,0.16801235,-0.06865193,-0.1583165,-0.22848187,0.20072293,-0.028948814,0.050763965,0.0487332,0.5540963,-0.056061685,0.10711619,-0.28529182,0.29704446,-0.48759034,0.061158776
IND201306AAA,-0.27792132,0.3070721,0.30940545,-0.19206658,-0.11991587,0.26480734,0.11009279,0.45725197,-0.0068344325,0.07081477,0.02704218,-0.507103,-0.19035643,0.311363,0.26138508,-0.10575145,-0.12084608,0.20727235,-0.20422752,0.09031157,-0.0982348,0.21541868,-0.25408834,-0.11682536,0.18661971,-0.057907015,0.15879998,0.37047732,-0.09994896,-0.042452645,-0.19488417,-0.068576284
IND205001AAB,0.032976,-0.27842832,-0.4571977,0.35850143,0.57594985,0.27462053,0.10077914,0.10352902,-0.35631356,-0.1734144,-0.24541065,-0.5812453,-0.17921263,-0.100024804,0.23354411,0.12409282,-0.6142411,-0.46947455,-0.24396831,-0.04217688,-0.41822654,-0.03898102,0.44852987,-0.40460962,0.10245146,0.7475302,-0.11319655,-0.07325089,-0.06087847,-0.026293399,-0.026585639,0.05859267
IND207123AAA,-0.32456523,-0.31872612,-0.10868927,0.3972274,0.10276673,0.07920773,0.1972859,0.21865457,0.029196873,-0.050936848,-0.013397325,-0.14065851,0.10725638,-0.055022508,0.20149927,0.28232878,-0.19573854,-0.19581343,0.06436738,-0.13328686,0.11766741,0.08789547,0.23893194,-0.2304242,0.23327678,0.21543176,-0.25849664,0.36532596,-0.29355583,-0.08346678,-0.01926331,-0.14629067
IND202001AAC,-0.28863063,-0.12071093,-0.12121711,0.19299951,-0.11000458,0.15888673,0.15614782,0.05182889,0.08140129,-0.042856842,0.1285648,-0.018743291,0.08705302,0.22595996,0.0988974,-0.037708662,0.027585506,0.037018575,0.12533343,0.018219236,0.20075458,0.060230576,-0.051815957,0.030674793,0.1321319,-0.042712763,-0.19261304,0.3856011,-0.36523414,-0.044458125,-0.0467815,-0.21880214
IND204215AAA,-0.2636735,-0.19503011,-0.26597852,0.16641343,-0.059663273,0.17997408,-0.13779783,-0.20668113,-0.25032115,-0.06407367,0.120995335,0.17909846,0.21733516,0.37319055,-0.008661568,-0.10529259,-0.19953734,-0.16978207,0.06788512,0.23694775,0.14255404,0.07217099,-0.18565917,0.10262895,0.14558671,0.2280486,-0.2222842,0.361875,-0.42985213,-0.3030889,-0.28573528,-0.033228386
IND203001AAA,-0.27781487,-0.11661312,-0.1161723,0.18262011,-0.12954473,0.13947904,0.14165825,0.048278235,0.06994988,-0.059174687,0.097797304,-0.03385435,0.06212517,0.22194712,0.09695652,-0.057670973,0.0054008663,0.04672171,0.13020688,0.003980547,0.1777175,0.057370417,-0.053714417,0.02969464,0.13025708,-0.03302951,-0.19063064,0.38476992,-0.36778224,-0.043006506,-0.053437304,-0.21683212
IND203131AAA,-0.20654215,-0.1753972,-0.22645225,0.11618445,-0.063164346,0.17881496,-0.10805796,-0.18884152,-0.29225993,-0.007772781,0.038149107,0.16901705,0.12809503,0.33489144,-0.010760792,-0.2035241,-0.2636341,-0.14334804,0.04904533,0.15155625,0.119471714,0.08900089,-0.20640697,0.14364684,0.12645546,0.2543734,-0.16816017,0.389728,-0.39867958,-0.275914,-0.34786224,-0.06153857
IND203135AAA,-0.24487601,0.019184649,-0.08137743,0.08741853,-0.33452028,0.16124812,0.06378832,-0.11944315,-0.13603926,0.15777357,0.14942572,-0.038775347,-0.10255789,0.2530338,0.080446415,-0.26898086,-0.20340839,-0.15219347,0.061786085,0.3558091,-0.037078515,0.2541243,-0.2248379,-0.11467528,0.18545043,0.17275873,-0.055146225,0.41828606,-0.37395337,-0.22001456,-0.30984795,-0.17418009
IND203390AAA,0.0051928554,-0.007690981,0.032205448,0.037362263,-0.15322657,0.20188493,0.1595134,-0.12061886,-0.0035765506,0.25571862,-0.011140749,-0.1328418,-0.12636584,0.13177265,0.00045669824,-0.02213865,-0.0073138103,-0.007133793,0.10519336,0.03476053,-0.10953913,0.15026543,-0.01680259,-0.11627771,0.124956585,0.042305246,-0.05895021,0.026692048,-0.18346678,0.10250385,-0.12129156,-0.16919822
IND203396AAB,0.06302824,0.0041799247,0.21681999,-0.17345291,-0.21640326,0.17244902,0.23692453,-0.04550729,-0.06548597,0.33427382,0.054297086,-0.17528212,-0.3049739,0.089024216,-0.09286711,-0.10062709,-0.017819768,0.105947815,-0.074747264,-0.0590629,-0.28674948,0.22615534,-0.1582273,-0.024677873,0.09054464,0.10291157,0.000923343,0.040739626,-0.23069082,0.120854564,-0.30491138,-0.027814547
IND204101AAA,0.48791623,-0.5593344,-1.0711077,0.5080459,0.9740859,0.65857637,-0.060969334,-0.11357576,-0.78067833,-0.81311446,-0.6810796,-1.0076147,-0.20198351,-0.5742852,0.80749404,0.23404466,-1.5552437,-0.7822109,-0.8847767,-0.21283087,-0.9239648,-0.12726685,0.63793856,-0.6753158,0.2470198,1.2913712,-0.16461097,-0.47596553,-0.14918098,0.2556079,-0.06723936,0.63416165
IND207001AAA,-0.3813288,-0.17504232,-0.23975621,0.21927461,-0.39203128,0.15917169,0.005251944,-0.23310557,-0.0765657,0.064364165,0.24749385,0.107790954,0.089065194,0.325463,0.061586417,-0.20062877,-0.1432086,-0.1572786,0.14145593,0.34738326,0.030839294,0.30253312,-0.2563105,-0.08364768,0.20445329,0.17017908,-0.12209158,0.48820114,-0.4829492,-0.16275322,-0.2859667,-0.14398801
IND205135AAA,-0.053682044,-0.24376097,0.14224881,0.14215031,0.051568702,0.10341555,0.23873109,0.0384571,-0.00093594193,0.1741814,0.105117574,-0.07001452,-0.2268027,-0.020120129,-0.120117456,0.047272976,-0.010538364,-0.013029408,0.077831365,-0.1498546,-0.120030776,0.04554078,0.05200112,0.0003989786,0.005813703,0.27457115,-0.08751156,0.117847726,-0.09683899,0.081181645,-0.17083223,0.067339264
IND209625AAA,-0.02616252,-0.17276087,-0.11370383,0.09972045,-0.05875565,0.28859514,0.18067566,-0.0102007575,0.2042114,0.10887331,0.07401614,-0.062670395,-0.016019337,0.080025844,-0.024583094,0.106226206,-0.013304949,-0.062576056,0.100498825,-0.011753298,0.017937392,0.033082966,0.16688767,-0.14833212,0.12661022,0.013354734,-0.16768365,0.017923772,-0.089905106,0.11180262,-0.019822061,-0.044221383
